#include "ap_int.h"
#include <cstdint>
#include "ap_fixed.h"
//#include <mpfr.h>

#define n_inputs 400
#define n_layer1 225
#define n_layer2 112
#define n_layer3 4

void float_to_fixed(float input[n_inputs], ap_fixed<32,24> output[n_inputs]);

void hwmm_layer1(ap_fixed<32,24> input[n_inputs], const ap_fixed<32,24> weights[n_inputs][n_layer1], ap_fixed<32,24> output[1][n_layer1]);
void hw_act_layer1(ap_fixed<32,24> input[1][n_layer1], ap_fixed<32,24> output[1][n_layer1]);
void hwmm_layer2(ap_fixed<32,24> input[1][n_layer1], const ap_fixed<32,24> weights[n_layer1][n_layer2], ap_fixed<32,24> output[1][n_layer2]);
void hw_act_layer2(ap_fixed<32,24> input[1][n_layer2], ap_fixed<32,24> output[1][n_layer2]);
void hwmm_layer3(ap_fixed<32,24> input[1][n_layer2], const ap_fixed<32,24> weights[n_layer2][n_layer3], ap_fixed<32,24> output[1][n_layer3]);
void hw_act_layer3(ap_fixed<32,24> input[1][n_layer3], ap_fixed<32,24> &pred);
int nn_inference(float input_img[n_inputs]);

namespace weights{

	const ap_fixed<32,24> layer3_weights[n_layer2][n_layer3] = {{-0.7630149, 0.058464117, 0.014104412, 0.4487353},
			{0.21021387, 0.29533, -0.23186408, 0.24338867},
			{-0.27794984, -0.9660869, -0.2344533, 1.2074302},
			{-0.57451904, 0.2211094, 0.31189436, 0.22689189},
			{0.17994882, 0.027285397, 0.21378851, -0.55822945},
			{0.19158989, 0.25815257, -0.12548612, -0.4735017},
			{-0.08982097, -0.14614601, -0.1695038, -0.18380862},
			{-0.20732334, -0.14998753, 0.14153552, 0.0022126522},
			{0.24849491, -0.4137953, -0.14617112, 0.5059812},
			{0.14387104, 0.18020695, -0.049947143, -0.043594766},
			{-0.118785165, 0.13580608, -0.19563279, -0.12739763},
			{0.12242688, -0.09157742, 0.43587956, -0.9764376},
			{0.2725144, -0.46912205, -0.3240638, 0.5731052},
			{-0.27317712, 0.0040474827, -0.09071777, -0.2666664},
			{-0.45718697, 0.37233347, -0.025139568, 0.21607351},
			{0.111645594, 0.20820051, 0.14742239, -0.117878854},
			{-0.12213604, 0.102807604, 0.10173053, 0.16543096},
			{-0.07886012, 0.14358266, 0.51061004, -0.4385925},
			{-0.44320372, 0.0051944437, -0.1317448, 0.31461364},
			{-0.6533445, 0.03578593, -0.22332795, 0.34676507},
			{-0.015268645, 0.30389977, 0.43098307, -0.87913173},
			{-0.31043935, -0.14227326, 0.9003242, -0.73043317},
			{0.22777452, -0.22712086, -0.4774458, 0.2993488},
			{0.9385058, 0.17894706, -0.282485, -0.8955412},
			{-0.13072805, 0.11168972, -0.19014876, -0.63245565},
			{0.10632523, 0.12260382, 0.006197868, 0.20310582},
			{-0.1586743, 0.34584388, -0.31280273, 0.039444912},
			{-0.120065786, -0.28545204, 0.25449204, -0.00406431},
			{-0.85160124, 0.3264867, 0.16632162, 0.14583412},
			{-0.6124678, -0.79079586, 0.34026304, 0.50839543},
			{-0.24705802, 0.0681139, -0.261697, 0.39847496},
			{-0.6282139, 0.04994612, -0.059567746, 0.49691123},
			{-0.49790505, 0.17899957, 0.21670495, 0.04116588},
			{0.024816105, -0.016137779, -0.19059235, 0.21777149},
			{0.77283156, 0.75123227, -0.68637174, -0.63397056},
			{-0.4653775, 0.19126211, -0.02323701, -0.103157125},
			{-0.17180195, -0.1536836, -0.28993395, 0.37026277},
			{0.35802683, -1.4576023, 0.42447197, 0.361271},
			{-0.15988787, -1.4964929, 0.4351772, 0.47788358},
			{-0.23805101, 0.50997233, 0.5565068, -1.1523023},
			{0.1351263, -0.047989283, -0.13245435, 0.1762719},
			{-0.2115107, 0.086149566, 0.1577863, -0.078884974},
			{-0.5390108, 0.23529018, -0.0155688375, 0.3338031},
			{0.46107614, -0.39032036, 0.12353446, 0.44657913},
			{0.09443491, -0.18267986, -0.10328983, -0.10577167},
			{0.46319008, 0.7431188, -1.2783079, 0.04317354},
			{0.134114, 0.15947036, -0.1354693, 0.19778411},
			{-0.14427114, -0.030688379, -0.16661873, 0.17903975},
			{-0.7878073, -0.13407989, 0.3238405, -0.047819275},
			{0.026439115, 0.39508635, -0.05082047, -0.61042},
			{0.17928417, 0.16142571, 0.17373057, -0.13176405},
			{0.19691043, 0.2614198, 0.23389938, -0.33570617},
			{0.4773161, -0.38983655, -0.1207023, -0.42833385},
			{0.32861337, -0.08756751, 0.15603621, -0.70686334},
			{-0.130989, -0.13156232, 0.4251223, -0.35068},
			{0.06736286, -0.16613874, 0.11914432, 0.07145528},
			{-0.1226347, -0.30918536, 0.121987924, -0.11120796},
			{-0.019624865, -0.30899048, -0.19971891, 0.2632453},
			{-0.15916048, 0.06010832, 0.11596452, 0.0925599},
			{0.29277003, -0.7607106, 0.1422624, -0.035216216},
			{-0.33368003, 0.14087783, 0.16436473, -0.013714636},
			{-0.06342075, -0.69579947, 0.93721163, -0.37508357},
			{0.066069864, 0.024461709, -0.06167797, -0.21714918},
			{-0.20139715, 0.039681036, -0.14663051, -0.1613577},
			{0.00080789725, 0.21723475, -0.14840369, -0.028541824},
			{0.11543757, -0.3101293, 0.23153515, 0.04458952},
			{0.17091458, -0.21279648, 0.06152718, -0.72753274},
			{-0.55337816, 0.6703983, 0.5736029, -0.8820186},
			{0.2759899, 0.5955613, 0.8961427, -1.1250842},
			{-0.16978113, 0.5001122, -0.3924851, 0.00054668577},
			{0.31365207, -0.8345546, 0.35696292, -0.58776104},
			{0.12800604, 0.15777552, 0.030210312, -0.018871548},
			{-0.3995949, 0.11479905, 0.13619503, -0.10722612},
			{0.101620026, 0.32107615, -0.27262342, 0.17695986},
			{-0.432771, -0.2963552, -0.09515865, 0.1400106},
			{-0.7812458, 0.21022291, 0.24119768, 0.23335113},
			{-1.5938971, -0.020971771, 1.31022, 0.37002102},
			{0.008326168, -0.15673956, -0.028978676, 0.18493414},
			{-0.74711835, -0.11824905, 0.20325021, 0.29646432},
			{0.16044594, 0.07131152, -0.22526972, -0.032965723},
			{0.3578879, -0.67355216, 0.39236966, -0.14759408},
			{-0.014143971, -0.19869854, 0.108735874, -0.0048931995},
			{-0.28696904, -0.440227, 0.47614938, -0.07493547},
			{-0.15149958, -0.23461476, -0.14295454, -0.18701124},
			{0.24208385, 0.32914078, -0.2715812, -0.27696234},
			{0.4370351, 0.024049528, -0.29796553, 0.38415104},
			{-0.77721286, 0.32508057, 0.17604382, 0.14004111},
			{-0.1133434, -0.78203875, 0.40839696, -0.40732682},
			{0.19661602, -0.19026309, 0.2729521, -0.7342369},
			{0.0896581, -0.8418199, -0.0102245305, -0.06873502},
			{-0.09254275, -0.14961764, 0.14874125, -0.021704927},
			{-0.23962308, -0.09236262, -0.055202045, 0.14650492},
			{-0.3335742, 0.16350195, -0.022530042, 0.17597961},
			{0.2926797, -0.27629617, 0.051328544, -0.042245947},
			{0.20342804, 0.06558877, -0.0426888, -0.19767389},
			{0.16941978, 0.12990767, -0.042765003, -0.07654222},
			{-0.089954615, 0.12737824, 0.114156805, -0.050575733},
			{0.3285445, 0.19648069, -0.17317452, -0.43886396},
			{0.13195553, 0.24632162, -0.5382371, 0.29884484},
			{0.05422726, -0.15053679, 0.25643182, 0.2839004},
			{0.09882014, 0.041815132, -0.004512726, 0.03898879},
			{-0.20823298, -0.08518076, -0.055014804, -0.120985895},
			{1.6965451, 0.5744125, -1.3828872, -1.5072734},
			{0.13801524, 0.0022926177, -0.17011988, 0.15233423},
			{0.4160749, -0.165722, -0.4205213, -0.1663363},
			{0.118420966, 0.14041738, -0.012950003, 0.18236674},
			{-0.19484773, 0.21206729, 0.07619185, -0.07348734},
			{-0.5750196, 0.092725575, -0.022053516, -0.061422765},
			{-0.17576255, 0.5886482, -0.35625985, 0.029290378},
			{-0.35914406, 0.3845289, -0.324553, 0.0072708633},
			{-0.023392446, 0.014034743, 0.055999633, -0.012842601},
			{-0.052700303, -0.3512937, -0.38810614, 0.4690634}};

	const ap_fixed<32,24> layer2_weights[n_layer1][n_layer2] = {{0.1479018, 0.0611557, 0.07552488, 0.041789994, -0.2725366, -0.12098135, 0.0256778, -0.1694072, 0.10555188, -0.13340965, -0.15587898, -0.062460747, 0.19717696, -0.1258266, -0.101697706, 0.0374781, 0.13829568, 0.12922649, 0.042991765, 0.022802038, -0.29509, -0.40805006, 0.13482176, 0.014776122, -0.148458, 0.12087577, 0.045074098, 0.07321096, -0.061252262, 0.30781052, -0.045008607, 0.23410676, 0.053439394, -0.072130606, -0.36894843, -0.05439757, 0.03954553, -0.21769454, 0.36864257, -0.8509853, -0.10322604, -0.13291271, 0.030197864, 0.33643773, -0.101978585, -0.20962863, -0.086832, -0.06012542, 0.24578549, -0.1715389, -0.06881634, -0.25159296, -0.013369078, -0.12548445, -0.02623031, 0.018244542, 0.14929047, -0.16341943, -0.04994001, -0.18022498, 0.0233489, 0.16158375, -0.07107508, -0.06571723, -0.08084157, 0.076000355, -0.21990943, -0.3081498, 0.21072502, -0.17939973, -0.19604012, 0.11194148, -0.076216415, -0.14855425, 0.1852886, 0.027421586, -0.5009035, -0.044518292, 0.14180699, 0.020303434, -0.23772141, -0.045638833, 0.042512238, -0.071869604, 0.016015437, 0.07107379, -0.18272765, 0.3354261, -0.20387688, -0.07701931, 0.018280834, 0.33933717, -0.05660861, 0.14056158, 0.010409449, -0.070135035, -0.13677633, -0.10749918, -0.21451856, 0.057778977, -0.098534316, -0.006512195, -0.2576736, 0.084808916, 0.026286542, -0.0032310933, 0.057649076, 0.082281254, 0.047105923, -0.066865094, -0.081881, 0.11366342},
			{-0.02323984, 0.005048213, 0.13065025, 0.034351263, 0.008166031, 0.09485713, -0.027560366, -0.07085141, 0.0052539874, 0.0045028925, 0.059245937, 0.10241153, 0.12683034, -0.10546453, 0.06689324, 0.038932767, -0.025035374, 0.09016336, 0.074641556, 0.04267274, -0.0019649363, 0.0085069975, 0.12661564, -0.019487927, 0.117466085, 0.053252324, 0.099442236, -0.031879656, -0.07430792, 0.026683891, -0.016153045, 0.04101646, 0.014362834, 0.11721755, -0.14007583, -0.1193608, -0.089140154, 0.10229287, -0.10658937, 0.06247536, 0.051501513, -0.09365511, -0.107140005, -0.047148675, 0.059952304, 0.02934535, 0.010171518, 0.12810615, -0.0040186495, 0.08733024, -0.074967846, 0.12213797, 0.018941846, -0.012596807, 0.12089443, 0.04883141, 0.076949306, 0.1316753, 0.044328734, 0.10056075, 0.047364347, 0.11962496, 0.088467345, 0.0775719, -0.08551898, 0.1069401, -0.055408698, -0.033505604, 0.12409018, -0.004243696, -0.063716926, -0.020298466, 0.10115888, 0.09776385, 0.03773114, -0.074746184, 0.12527463, -0.029341176, -0.12471185, -0.08179353, 0.02198869, -0.06164147, 0.11370907, -0.11394562, -0.06923534, 0.107909426, -0.026472315, -0.05303011, 0.035606503, 0.062947005, -0.11072292, -0.080626115, -0.07280659, 0.037485823, -0.03797793, 0.06594688, 0.13002314, 0.10665877, 0.00049633475, 0.13552141, -0.048699513, -0.05637527, 0.07451779, -0.10549151, -0.06780653, 0.0018955912, -0.032270916, 0.13419627, 0.04381179, -0.12613648, -0.11170393, -0.06939463},
			{0.24819171, 0.07339857, 0.24623702, 0.6431662, -0.18606807, -0.04048231, -0.0023937772, -0.064940706, -0.26605582, -0.01949853, -0.023162326, -0.27211434, 0.004523045, 0.011953191, 0.37208602, 0.003092312, 0.002955781, -0.20496191, 0.1534762, 0.1740454, -0.2059203, 0.18358938, -0.13591753, 0.09829674, -0.15560919, -0.06722095, 0.11373301, -0.07457438, 0.60807085, 0.2504859, 0.071563676, 0.45404467, 0.40734568, -0.10755454, 0.30359405, 0.13711439, 0.22161096, -0.35172457, -0.07857902, 0.204378, -0.0077155363, -0.04503613, 0.406255, -0.22777204, -0.15743789, 0.07871637, 0.015686553, -0.119576976, 0.30639014, -0.14077158, 0.08203248, -0.13612948, -0.19093151, -0.16159242, -0.051925145, 0.020985702, -0.14181598, -0.18380208, -0.1022912, -0.17718305, 0.14831099, -0.055062093, -0.010597482, 0.06496311, 0.077561446, -0.046005867, -0.40458325, -0.019332629, 0.27030542, 0.07897904, -0.093931966, -0.17257628, 0.17450641, 0.13922705, 0.14745276, 0.5080013, -1.0354241, 0.02800959, 0.2803971, -0.14797167, -0.18157348, 0.038360905, 0.10912701, -0.061860114, -0.105528355, 0.0004155893, 0.49970725, 0.016033517, -0.2733635, -0.07463823, -0.13110416, 0.08180413, 0.20244418, -0.1429198, -0.015403654, -0.07940806, 0.11840883, -0.18731375, 0.17470834, 0.06274348, -0.11581783, -0.050887994, 0.09454141, -0.15124175, -0.04981243, -0.045014773, -0.0075106854, 0.59941494, 0.20690057, 0.25185373, -0.060605958, -0.13948907},
			{-0.25430113, 0.045430545, -0.31517136, -0.07379865, 0.07175128, -0.13958628, -0.052657016, 0.017185923, 0.20199941, -0.15600936, 0.08717988, 0.07337017, 0.10048049, 0.06328209, -0.25511044, -0.0010353466, -0.016533202, 0.16981228, -0.06395117, -0.19938922, -0.1075674, 0.1394339, -0.008562234, 0.2185987, -0.023561623, -0.013081573, -0.23222145, 0.06802929, -0.17460935, -0.21060492, 0.013604849, -0.03805963, -0.021099173, -0.06392766, -0.039773203, 0.019550337, -0.1497552, 0.270706, 0.20156495, -0.12215855, -0.13091838, -0.0013133287, -0.17406864, 0.16995353, 0.08630934, 0.06489611, 0.047555957, -0.1335778, 0.068662375, -0.09483351, -0.07304136, 0.04427344, 0.0964667, 0.07441162, 0.12611277, -0.05615914, 0.07269784, 0.050167486, -0.16564305, 0.19313598, 0.015657617, 0.08282815, -0.017258944, -0.10245069, -0.0407786, -0.032954797, 0.14051273, 0.20159893, 0.10158015, -0.1582769, 0.17634292, -0.06903313, 0.07431177, 0.004773684, 0.06372265, 0.109173425, -0.007811637, -0.020575006, -0.08294775, -0.023811687, 0.019978765, -0.08931697, 0.08988641, -0.053029314, -0.09063014, 0.049873296, -0.01580342, 0.1819022, -0.008289506, 0.0017931575, -0.07322194, -0.18809833, -0.1558702, 0.122938864, 0.041516624, -0.1019643, -0.15717173, 0.018006397, -0.20896374, 0.045284156, -0.061538994, -0.104991026, -0.027001124, -0.14642932, 0.051429473, -0.08383546, -0.051188827, -0.16871497, -0.12571894, -0.16065013, 0.043069568, 0.009027111},
			{0.118085995, -0.22328997, 0.1522037, -0.031488907, -0.059250034, 0.0749454, 0.004612883, -0.11378845, 0.04037471, -0.01291349, -0.0027673624, -0.1348598, 0.059413157, -0.17695448, 0.030442834, -0.055278733, 0.007260462, 0.015439246, -0.060499676, -0.058461487, 0.023643278, -0.07110143, 0.06450527, -0.23362593, -0.114612214, -0.086082034, -0.16393894, 0.10978406, -0.11915826, 0.093168266, -0.045282483, -0.12854359, 0.00032378102, 0.06332091, -0.03454175, 0.036937617, 0.13589278, -0.2164914, 0.25081918, 0.11049168, -0.17168489, 0.0771074, -0.21855977, 0.052306514, -0.080396935, -0.4678525, -0.06498738, -0.121057205, 0.025503678, 0.046062097, 0.06772052, -0.10341489, 0.17927685, 0.016374098, 0.12319836, -0.085783616, -0.10900557, -0.046911046, -0.08025073, 0.06140868, 0.067417406, 0.33240715, 0.040208835, 0.021545634, -0.0863252, -0.00063011894, 0.13776672, 0.08492442, 0.2296772, -0.14540109, -0.05545345, -0.04195124, 0.011466711, -0.107886076, 0.019805716, -0.12451372, -0.013128079, -0.07828602, 0.069020696, -0.034146506, -0.1595968, -0.13025455, -0.014000509, -0.04021264, -0.030121922, -0.0046271887, -0.010681051, 0.17754503, -0.03229042, -0.082076155, 0.032472417, 0.054388538, -0.053551305, 0.2133791, -0.12274887, -0.06653129, -0.03839377, 0.1050554, 0.01098069, 0.122740895, -0.042131875, -0.06240287, -0.28874683, -0.018619966, 0.20492509, 0.027424887, 0.069325715, -0.19424242, -0.11534248, -0.014338021, -0.10988756, 0.1444348},
			{0.11670247, 0.02358369, 0.013002783, -0.016209623, -0.008441667, 0.09484652, 0.074992925, -0.02856502, 0.03207546, -0.04426396, -0.13097219, -0.13008662, 0.05667066, -0.119556494, 0.04601473, 0.0013350004, 0.1389461, -0.10988683, 0.00060968054, -0.070669234, -0.12335138, 0.07649807, 0.036362, 0.004412971, 0.12322173, -0.07789408, -0.022246787, 0.070854455, -0.07548841, 0.027702741, 0.11973219, -0.09867293, 0.13108209, 0.00988247, 0.097737715, 0.075168885, 0.114529304, 0.08517946, 0.070670485, -0.02601543, -0.13650833, 0.117660075, 0.01639138, 0.08149116, 0.03667428, 0.11125251, 0.092960045, 0.094825536, 0.07662598, 0.013643265, 0.00078746676, 0.10830586, -0.120338716, 0.056187358, -0.11259475, 0.1257434, 0.10758549, -0.093712516, 0.12771016, 0.044955794, 0.056189697, 0.0374371, -0.13062194, -0.10899069, 0.06342684, 0.12581731, -0.08665346, 0.013065938, 0.0945383, -0.043795437, 0.03851156, -0.111395925, 0.044529483, 0.056205332, 0.05664702, 0.0021115965, 0.07375332, 0.09464844, -0.11442716, -0.04797644, 0.055819534, 0.109544374, 0.12013446, 0.113839075, 0.087839775, -0.099069275, -0.09561804, 0.1219742, 0.05291435, -0.11677629, -0.12141639, -0.13238932, -0.037023466, 0.029568544, 0.098284245, -0.053071372, 0.021138176, -0.09984083, 0.042169202, 0.060639944, 0.017749742, -0.099512205, -0.030163802, 0.047920033, -0.1013077, 0.09046297, -0.07759201, 0.1033635, -0.10721282, 0.038884815, -0.06759264, -0.099566594},
			{-0.08508073, 0.09258029, 0.015421435, 0.099870175, -0.0631297, -0.076666966, -0.032715403, -0.01977612, -0.07406354, 0.052931905, 0.07836124, 0.026913553, 0.089800596, -0.061873958, 0.11821213, -0.06516224, 0.1325013, 0.012860641, -0.058615886, 0.011007994, 0.08964525, -0.10469976, 0.13120851, 0.1035099, -0.0060172826, 0.11166996, 0.12413168, 0.009643361, 0.05373168, 0.025483385, -0.114706576, 0.06781335, -0.07601343, 0.104940295, 0.12892199, -0.065895304, 0.04856816, 0.12906551, -0.037742384, -0.016599335, 0.0011818111, -0.09317751, -0.08580224, 0.016748667, -0.019015953, -0.11469436, 0.13241482, -0.10152574, -0.040210225, -0.069817685, 0.0320286, -0.015634552, 0.06991278, -0.061630398, -0.00034704804, 0.13319889, -0.059588052, 0.047803253, -0.09412269, -0.015748888, 0.074832544, 0.10972604, 0.06642674, 0.06320843, 0.020449728, 0.072410226, -0.107273474, -0.08493471, 0.0074566156, 0.040428013, -0.102866806, 0.060212433, 0.085186735, 0.016476065, 0.025515392, 0.124522954, 0.06960969, -0.010259382, 0.06448002, -0.1304625, 0.022019774, 0.1312261, -0.11498115, 0.03183295, -0.07685876, -0.09365028, 0.039415836, -0.063556306, -0.05042723, -0.07756478, 0.12886754, -0.007862389, -0.11303097, -0.11992466, 0.07207744, -0.044420667, 0.0161656, -0.05991146, -0.06309744, -0.044628054, 0.07850975, -0.023826867, -0.0065909624, 0.13105851, 0.096494496, -0.12373165, 0.010213286, 0.091965094, 0.12568226, -0.1221671, 0.02368483, 0.01707089},
			{0.21494532, -0.10338654, -0.026591491, 0.41554397, -0.047732335, -0.2762444, -0.05280548, 0.083526716, -0.17549035, -0.009151254, -0.06462847, -0.0393694, -0.28006962, 0.31715664, 0.0061440063, -0.016641274, -0.04789559, 0.16884875, 0.026786448, -0.042065617, 0.110708356, 0.37715846, -0.50010943, 0.3879653, -0.037511706, 0.025503462, -0.13488278, 0.20559308, 0.3056995, -0.071858756, -0.1822135, -0.061267328, 0.25808945, 0.09036664, 0.16485065, 0.24253708, -0.041197114, 0.032836784, 0.18356128, 0.24846211, -0.085721165, -0.13375956, 0.023169912, -0.24540128, -0.07031247, -0.04551426, -0.027459312, 0.09641826, 0.3386725, 0.10799712, -0.14214806, -0.059522975, -0.7176711, -0.1807182, 0.2431843, -0.037545845, 0.2781238, -0.08408951, -0.036370985, -0.20786487, 0.41278562, 0.36117765, 0.003867306, -0.0042537497, 0.04869262, 0.10899957, 0.005966829, 0.060766913, 0.4524494, -0.07197024, -0.2331856, 0.108146645, 0.4546571, -0.21017587, -0.01324965, 0.44470316, -0.19269775, 0.038033623, 0.23697081, -0.0013419512, -0.163461, 0.06188027, 0.2769778, -0.13701952, -0.12699555, -0.18160526, 0.24466416, 0.18178034, -0.15113074, -0.17059083, -0.058192775, -0.01801879, 0.07927707, -0.10116383, 0.0804967, 0.02236682, 0.03479603, -0.21971141, -0.17231561, 0.16573365, -0.045155365, -0.13441068, 0.35219383, 0.09992321, -0.51414275, 0.072686344, 0.055428203, 0.2689784, -0.041258965, -0.05935685, -0.014174593, -0.30985},
			{0.11248247, -0.05701765, 0.08524148, 0.107530855, 0.081186, -0.108401015, 0.018834768, 0.023117727, 0.0022679362, 0.05708104, -0.090666704, 0.14013003, 0.11785799, 0.051062968, 0.024308838, -0.0006065342, 0.07080708, -0.11521001, 0.15190262, -0.044072453, -0.18064219, -0.1237516, -0.0054801055, 0.23495173, -0.031093014, 0.08982896, 0.115505904, 0.03253608, 0.042160865, 0.100827254, 0.07364206, 0.16443555, 0.08155511, -0.11469511, 0.24452586, 0.030742299, -0.09937762, 0.18343262, -0.12881315, -0.21079089, -0.10815637, -0.08816331, -0.0010324253, 0.06576819, 0.09440382, 0.1609042, 0.0018525455, -0.07485779, 0.051548842, 0.08504663, -0.11738521, -0.0915251, 0.20560674, -0.05183004, -0.09760942, 0.0761555, -0.09733036, 0.16173746, -0.07462113, 0.039366446, 0.02633576, -0.34027168, 0.052507874, -0.12898017, -0.0014829155, -0.12154734, -0.0038372946, -0.20159392, 0.044082586, -0.07462713, 0.24562533, -0.05596676, -0.09610133, 0.13803448, -0.010145403, 0.163209, -0.27960813, 0.008044363, 0.077022664, -0.05855125, 0.1741317, -0.07156182, -0.12347849, -0.12989245, 0.14281173, -0.05680828, -0.002036383, -0.17618361, 0.012525116, 0.15720494, 0.050628036, 0.10115978, -0.029602151, 0.17353478, 0.07803942, -0.08811527, -0.04766827, 0.046881594, 0.13643582, -0.03823203, 0.09730503, -0.008006727, -0.04688456, -0.042871855, 0.11945045, -0.0221825, -0.13594005, 0.12748161, -0.110246904, 0.010367696, -0.07264966, 0.015817344},
			{-0.16057995, 0.08291147, -0.38322926, -0.10203773, 0.019847807, 0.112555414, -0.12369128, -0.032795805, -0.28323096, 0.037622508, 0.014656767, 0.047467265, -0.17382899, 0.30228278, 0.33931696, 0.0092236, 0.014678975, -0.011523263, 0.16662544, 0.08281635, 0.26842523, -0.876788, -0.041613184, -0.049846325, 0.36217573, -0.06549658, 0.4469222, -0.118980646, 0.2171922, -0.7840914, 0.23468202, 0.07410937, 0.21342506, -0.012899049, -0.22208692, 0.37929893, 0.12082515, -0.4486761, 0.27735555, 0.40186155, -0.055105582, 0.045895666, 0.006879985, -0.36520702, -0.035915613, 0.18769504, -0.123276204, -5.257736e-05, -0.16128701, 0.29790196, -0.043811526, 0.10838074, 0.011595182, -0.094690345, -0.09059917, 0.077556975, -0.19499378, -0.0761338, -0.18439662, -0.4974692, 0.029771624, -0.25385892, -0.07443772, -0.05868398, -0.027662056, -0.33527526, -0.07201292, -0.19932607, -0.022622967, 0.34844312, -0.3306985, -0.0051201805, 0.14367537, 0.23785394, -0.035975475, -0.0024058695, 0.24058177, -0.1591323, -0.33912572, 0.054051917, -0.5667771, -0.116186365, -0.016113453, 0.09596112, 0.21182548, 0.12300117, 0.25982392, 0.04567646, -0.10816625, -0.6280571, 0.1111411, -0.11096263, 0.17195608, -0.34405184, 0.028152194, -0.07149087, -0.048413713, 0.14773661, 0.32225108, -0.303914, -0.085221514, 0.12051811, -0.22754301, -0.067239486, -0.019738177, -0.09837086, -0.028082015, 0.3012016, 0.3832322, 0.24609628, -0.00031994283, 0.039750006},
			{0.09159429, -0.004843518, -0.024575742, -0.066671565, -0.0343002, 0.10024622, 0.052686762, -0.09171212, 0.033081934, 0.008043978, -0.09567189, -0.08233078, 0.10307353, -0.09824312, -0.056640163, -0.06076225, 0.12029526, -0.02718436, 0.003297283, 0.068608895, -0.043818064, -0.05348832, 0.04148987, 0.10958463, -0.08157128, 0.10329835, 0.024769131, -0.021350335, -0.050863184, -0.057817586, -0.018141447, 0.08418832, -0.029419951, 0.11395934, 0.1100654, -0.011455061, 0.08686674, -0.09621687, 0.061351106, -0.005602181, -0.031520344, -0.012183636, 0.09510516, 0.11346335, -0.033906087, 0.09027848, 0.0049659014, -0.05396057, -0.032900877, -0.0713906, -0.042693242, -0.022166593, -0.05137725, 0.09408145, 0.11655028, 0.09412589, -0.0911986, -0.11937711, 0.008523896, -0.045359995, 0.04770302, 0.055689756, -0.111951776, 0.062393136, -0.03241009, 0.06412781, 0.01674696, 0.08402209, 0.0960163, 0.12681504, 0.028804734, 0.086443596, -0.0894873, 0.018064898, -0.0940163, -0.022968693, 0.08959238, 0.043611217, 0.066343255, -0.0971791, -0.07386388, 0.031180672, 0.08434836, 0.08004913, -0.03504273, 0.047945835, 0.07581431, -0.03719899, 0.0694044, -0.07445352, -0.076988205, -0.13106932, -0.111114845, -0.10821973, 0.059313983, 0.045575216, -0.071929336, -0.119661376, 0.093541145, -0.038258884, -0.062718675, -0.019857097, -0.041170016, 0.12002948, -0.01974543, -0.08961596, 0.08345669, -0.0321609, 0.016008707, 0.022255097, 0.07023573, -0.035327476},
			{-0.020337783, -0.031450402, -0.12015052, -0.014796874, 0.01972979, 0.052454695, 0.050103255, -0.0042819977, 0.08672503, 0.08120641, 0.07551998, 0.07437144, -0.042579535, -0.038174156, -0.12993391, 0.03170108, -0.09788678, 0.055607602, -0.12805215, 0.13731441, 0.07235097, 0.002348278, -0.0078934245, 0.107011, 0.12252033, 0.0010808706, -0.10351871, 0.12852357, -0.001649946, 0.04908429, -0.12616971, 0.014074137, 0.060364977, 0.016325865, 0.082089625, 0.0579875, -0.05461593, 0.01833641, 0.028580435, 0.009587883, 0.11517608, -0.10068006, 0.088899106, -0.0892329, -0.073980406, 0.11282927, 0.038677588, 0.050540447, -0.092751086, -0.08308538, -0.03130697, -0.065142594, -0.09204452, -0.06355862, -0.05546051, 0.024656003, -0.11247552, 0.07882238, 0.10486047, 0.01001971, 0.0019241759, -0.080336034, 0.116043426, -0.02789817, -0.03373691, -0.09870691, -0.0014324973, -0.09528038, 0.108554415, -0.09216828, -0.107118785, 0.069446266, 0.06494725, 0.11003115, 0.10974444, 0.094204515, 0.0856919, 0.018991396, 0.035876893, -0.0037746388, 0.029097252, 0.02940447, 0.03022363, 0.0012423843, 0.10702034, 0.09157137, -0.0528992, -0.0057303905, 0.12115988, -0.10926744, 0.03818983, -0.03413371, -0.04900567, -0.07997855, -0.13512614, -0.1206853, 0.05279576, -0.09393062, -0.058970284, 0.007930582, 0.044302747, 0.03630332, 0.08342001, -0.085286684, 0.102762334, 0.06889534, 0.12715265, 0.061094727, 0.0488115, 0.08109055, -0.07220338, 0.010815139},
			{-0.0014058804, 0.116978236, -0.12350059, 0.029617663, -0.07504496, 0.07518379, -0.013899965, -0.12786764, 0.116340056, 0.094499096, -0.13063416, 0.1612565, -0.12944144, -0.08697739, -0.008027609, -0.019580914, -0.034838874, 0.08290258, 0.026986936, -0.043534145, 0.21245822, 0.03189728, 0.04538274, 0.20002256, 0.12653685, 0.085855946, -0.07667035, 0.031026125, -0.04500779, -0.01429282, -0.10630796, 0.1257559, 0.10709569, 0.1133124, 0.23646091, -0.12440229, -0.13822676, 0.106378965, -0.016700178, 0.11104347, -0.017159881, -0.11759687, -0.028190048, 0.10915806, 0.007999108, 0.25097826, -0.09562259, -0.054156255, 0.026705114, 0.0059807915, -0.10594777, -0.04517528, -0.033210926, 0.06054992, -0.08127965, 0.01607147, 0.056881893, 0.074497156, 0.000673159, 0.076303855, -0.017226897, -0.27179912, -0.015890999, 0.06266591, -0.1117292, 0.08965517, 0.10401573, -0.1248072, -0.32159624, -0.08268521, 0.042345263, -0.09695307, -0.029249378, 0.102458276, 0.027496438, 0.16614462, -0.4760577, -0.13637485, 0.092700884, 0.037271567, -0.11169713, 0.021950709, -0.05846354, -0.08018832, 0.08903644, -0.15100825, -0.15986913, -0.21842559, 0.13048694, 0.10887774, -0.09959862, 0.014077995, -0.12747242, 0.12684962, -0.042011004, 0.071922205, 0.09027549, -0.120555975, -0.018119093, -0.09608579, 0.019643791, 0.021864936, 0.38047138, -0.06604537, -0.12627786, -0.10921432, 0.01675322, 0.07878595, 0.051688306, 0.096852906, -0.025852226, -0.078189634},
			{-0.23556, 0.0039474415, -0.031809587, -0.0012225527, 0.20217113, 0.22141153, -0.10203652, -0.13784581, -0.013503943, -0.04772421, 0.038494904, 0.26614854, -0.21384189, -0.026034463, -0.05318724, 0.04138062, 0.009455146, 0.2325811, -0.27679738, -0.076367304, 0.1507484, 0.1774581, -0.12214485, 0.58415717, 0.049258493, -0.055643015, -0.12324208, 0.11999003, 0.008321609, 0.15040207, -0.20013134, -0.27978095, 0.046210174, -0.03910269, 0.48392203, -0.036427632, -0.24622998, 0.09607877, 0.00088450836, 0.16333812, 0.07443753, -0.099240676, -0.22498022, -0.104324296, -0.12944101, 0.025270922, 0.079438716, 0.049830884, 0.08108962, 0.20322521, 0.10874569, 0.06830763, 0.31242046, 0.15388548, 0.11365436, -0.05041699, 0.09733582, -0.05839944, -0.1790052, 0.16187637, -0.09054075, 0.33261055, 0.09646527, 0.07846858, -0.0055262055, 0.13437068, 0.13127707, 0.24518661, 0.3040302, 0.06602452, 0.13533923, 0.064998075, 0.103678174, -0.10847434, -0.13467866, -0.19531098, 0.091185056, -0.06427472, -0.2841899, -0.10451147, 0.2327322, 0.085352026, 0.04734247, 0.011698052, 0.026402766, -0.24596046, 0.10659092, 0.16106735, 0.13002798, 0.085541114, -0.08818966, -0.058233343, -0.2721213, 0.11473777, -0.034010474, -0.015379555, 0.08983571, 0.078655005, -0.093259096, -0.11645486, -0.004063919, 0.017426293, 0.23436606, 0.07977722, 0.06617381, -0.031276688, -0.005591525, -0.07564422, -0.029517533, -0.15005225, -0.01737179, -0.26076037},
			{0.1420589, -0.010841344, 0.029416883, 0.011249866, -0.046531618, -0.076824754, 0.11556591, 0.03280676, -0.21308406, -0.16589937, -0.010416786, 0.0023285623, -0.054429136, 0.13110267, 0.01809294, -0.12655964, 0.1009471, 0.058745958, 0.0070052566, 0.17450939, 0.009189711, -0.017759526, -0.11210046, 0.14048196, 0.052788913, -0.11793845, 0.121258505, 0.054710697, 0.1159849, -0.08001166, -0.011760051, 0.15142347, 0.008728551, -0.045835923, 0.10091456, -0.046009272, 0.056617368, 0.029447911, -0.14604434, 0.093636975, 0.050382342, -0.048963834, -0.044804428, -0.12081244, -0.0734529, -0.038417444, -0.09985471, -0.119850926, -0.0059695495, 0.17650466, 0.053821716, -0.0070312237, 0.100468986, -0.056136895, -0.1401209, -0.106673785, -0.12827319, -0.028922843, 0.04833023, -0.08989576, -0.017234353, -0.2548506, -0.028847571, 0.10471448, -0.000433739, -0.20726277, 0.07092927, -0.19085082, -0.5558924, 0.11086566, 0.06679001, -0.13223022, 0.07090398, 0.15068156, -0.07781607, 0.030961856, -0.122548625, -0.13137005, 0.14014582, 0.0019141404, -0.14223841, -0.12335243, 0.011259843, 0.021867335, 0.13818146, -0.09592156, 0.077747956, -0.05717125, -0.03607976, -0.040414102, -0.042326026, 0.07499349, -0.018453421, -0.035977643, -0.12670736, -0.037097543, 0.053227447, 0.11110539, 0.01780868, -0.069670185, -0.032042954, -0.12339509, 0.11620541, 0.07194725, 0.09839033, -0.07732527, -0.02847083, 0.09254432, 0.15463139, 0.08746137, -0.07106067, -0.1601958},
			{0.10245533, 0.100699596, 0.027101666, -0.022494836, -0.071782455, -0.027987812, -0.063752174, 0.00031781197, -0.073772706, -0.09219297, 0.07139897, 0.058359995, -0.0866323, 0.005854645, 0.109852344, 0.08568765, 0.093431026, -0.05957619, 0.10136463, -0.12671083, -0.115209736, 0.0013102442, -0.06195099, -0.11703269, -0.022362906, 0.06042415, -0.080401696, -0.032955755, 0.05576445, 0.0760238, -0.13797165, -0.020375075, 0.07145485, -0.10648598, -0.053726368, -0.019085953, -0.0038057864, 0.079256654, -0.019682214, -0.05745685, -0.040385514, 0.024492353, -0.08215049, -0.10717648, 0.006304905, 0.026878625, -0.005717948, 0.07128383, 0.07920552, -0.066277504, -0.13165317, -0.039911535, -0.035887532, 0.007379555, 0.09445384, -0.08400587, -0.09456325, -0.07026424, -0.011717834, -0.11349399, 0.07134995, 0.030247688, 0.061785772, -0.115985796, -0.044039264, 0.08223071, -0.06606487, 0.11080453, -0.0887914, -0.06770551, 0.0647043, 0.023158297, -0.056738682, -0.0062271673, 0.049908776, -0.12769452, 0.026258469, -0.082799464, 0.078818016, 0.050225094, -0.120149955, 0.061854422, -0.010165483, 0.07838473, 0.072046325, 0.10899427, 0.11345032, 0.03201604, -0.11770367, -0.0056502395, 0.09201072, -0.015734665, -0.09161149, 0.0690319, -0.016646229, 0.033568054, 0.10483922, 0.019840293, -0.015552896, -0.081580676, 0.10158765, 0.09983206, -0.09789918, 0.06964545, 0.017306065, 0.08097142, 0.110277414, 0.06691529, 0.033207256, 0.09155436, 0.08222662, 0.02172445},
			{0.01701583, -0.008091018, -0.04572417, 0.04415764, -0.10308106, 0.017126724, 0.07900472, -0.013849981, 0.121273875, -0.072947964, -0.05091142, -0.047088355, -0.016905531, 0.07485771, 0.07800065, 0.029879466, -0.054996774, 0.0704443, -0.108892195, -0.0018993169, 0.040420577, 0.05432518, -0.03778489, -0.05940955, -0.13307664, -0.0894956, -0.09234424, 0.07373053, -0.038576007, 0.056160778, 0.026765153, 0.08321059, 0.0005173087, 0.09959598, -0.08576737, 0.026181862, 0.04411909, 0.08466245, -0.025032185, -0.018625014, 0.11352171, -0.09892053, 0.041165277, 0.044409275, -0.12022904, 0.11681622, -0.08362965, 0.03080973, 0.0007388145, -0.11278884, -0.061839215, 0.10168229, -0.09876252, 0.048056796, 0.11762017, -0.045550153, 0.11428942, 0.1133721, 0.09814888, -0.04029195, 0.11693838, 0.039103433, 0.11848462, 0.1329912, 0.021141976, -0.1299134, -0.056473903, -0.07132596, -0.050803386, -0.008678131, 0.083031505, 0.05882226, 0.12757802, 0.08824144, -0.038011454, 0.10386951, -0.068957664, 0.058719054, -0.07769518, -0.08787656, -0.07707073, 0.048895895, -0.042816803, 0.08575277, -0.056649923, -0.052635767, -0.0391507, 0.08682568, 0.12933967, -0.05619195, 0.07998294, 0.008649662, -0.07142509, 0.10298091, -0.09233632, 0.087872356, -0.006993577, -0.055304408, -0.08111009, -0.011774935, 0.09618153, 0.032030955, -0.12212928, -0.1290681, -0.04165198, -0.022676773, -0.007135719, -0.06958755, -0.085985765, 0.13195896, -0.041199252, -0.12760621},
			{-0.11900208, 0.047712546, -0.0057627345, 0.14167097, -0.092970006, 0.040761422, 0.018117867, -0.13293247, -0.013594851, -0.060704805, 0.013038531, 0.05503516, -0.11703174, 0.1122723, 0.02952157, -0.08719239, -0.030963287, 0.09873639, 0.09170697, -0.06802643, -0.058813136, -0.033287045, 0.008214914, -0.03206917, -0.01973501, 0.018037701, 0.13829215, 0.0060591525, 0.09207047, 0.047831744, -0.05862831, -0.043558527, 0.12269785, -0.106507994, 0.103773475, 0.123528875, -0.0265869, -0.030383037, -0.14418216, -0.06395706, 0.10493122, 0.11205989, -0.028227214, 0.018088829, 0.0396587, -0.1467945, 0.12033948, -0.078542195, 0.015647551, 0.11779329, -0.11082719, 0.05698113, 0.089958295, -0.048495352, -0.024376076, -0.11090117, 0.08761527, -0.048150342, 0.10293466, 0.02586653, 0.11966741, 0.17327411, 0.11045669, -0.0914744, 0.008315708, -0.06542493, -0.14042701, 0.021776306, 0.08325694, 0.037107043, -0.079340585, -0.11621228, -0.026316997, 0.014019291, -0.05702852, -0.08018321, 0.08232431, 0.11730494, 0.08657849, -0.059640095, -0.04153827, 0.04620228, -0.026091179, 0.057773173, -0.0055031516, -0.13051383, 0.12294693, 0.06162642, -0.10493881, -0.05563647, -0.1075322, 0.05860491, 0.024936479, 0.029985767, 0.112010494, -0.09830989, -0.10694576, -0.11808461, 0.03671008, 0.1131251, 0.04702741, -0.040415354, -0.1745958, 0.0869331, 0.023722082, -0.033623483, 0.099957086, 0.16065715, 0.06428479, -0.0051611564, -0.12002579, 0.0062687243},
			{0.111784324, -0.10791954, -0.015071496, -0.057276044, -0.08106582, -0.03726151, 0.019717146, 0.023755923, -0.027839294, 0.10409577, 0.022878088, -0.105434805, 0.10046505, -0.13651426, 0.07650333, 0.09273888, 0.0627397, -0.060551636, 0.031009756, -0.06839036, 0.06582431, -0.00727495, 0.08844609, 0.07638629, 0.119493075, -0.026093997, -0.025320949, 0.021138944, 0.104902506, -0.03709831, 0.009656404, 0.0724101, 0.044252478, 0.036927234, -0.06501361, 0.06616355, 0.09160268, 0.12263536, 0.04778178, -0.017078787, 0.04241754, -0.07526272, 0.1138448, -0.11641626, 0.06995088, -0.025752498, 0.06839655, -0.1297761, 0.09454431, -0.0139143765, 0.083642215, 0.09907913, -0.1052814, 0.058514416, 0.00018329918, -0.06883229, -0.04754085, 0.021698691, 0.02814573, -0.008785675, 0.09479122, -0.03663732, -0.08824943, -0.13220723, 0.013419027, -0.10348834, -0.1183512, -0.0072417893, 0.111611165, 0.045502484, 0.08854252, -0.07764768, -0.0115322, -0.00096756365, -0.04897169, -0.07084159, 0.025336737, -0.060240697, -0.10303507, -0.13692161, 0.095526315, 0.044447485, -0.006781189, 0.1008299, -0.11534557, -0.041770265, 0.06233236, 0.06461653, -0.006379278, 0.012500307, 0.014698297, -0.019469477, -0.01284944, 0.08296471, -0.029029837, -0.06277187, -0.014781587, -0.023793088, 0.12004246, 0.01766549, -0.110881925, 0.08052096, -0.07285933, -0.03200315, -0.10718663, 0.056640573, 0.024673078, 0.11169792, -0.0622311, 0.12334946, -0.08888298, 0.10685642},
			{-0.1084842, 0.093732044, 0.08476356, -0.11396534, 0.0087839365, 0.0054967552, 0.055731937, 0.015443742, -0.020184308, 0.06502147, -0.12102493, -0.0025171787, 0.13101527, 0.013771847, -0.076395124, 0.008739337, 0.07887547, -0.116647914, -0.05824282, -0.04427074, -0.044967085, -0.11020419, 0.019159243, 0.010305673, -0.13082783, 0.11518733, 0.0222961, 0.053845704, -0.05034057, -0.025279693, 0.11599283, -0.10940187, 0.12964824, 0.06538318, -0.023660868, -0.047499567, 0.10538946, 0.050148576, -0.04199282, 0.10988669, -0.05950693, -0.0072132796, -0.0727323, 0.1275166, 0.034670353, -0.036193676, 0.05185826, -0.043354116, -0.11075455, -0.06549106, -0.09335658, -0.110192254, 0.085063994, 0.054149896, 0.071437046, 0.0945556, 0.079031095, -0.11398917, -0.023638695, 0.06701623, -0.054386675, -0.076750055, 0.06223026, 0.03716263, -0.040752538, 0.0366375, 0.044382438, -0.06212712, -0.021423735, 0.06845716, 0.0077212006, 0.07704729, -0.122656316, -0.040595226, 0.06541023, -0.019722387, -0.048585653, 0.0054486245, 0.07659955, -0.018165156, -0.069603875, 0.105969, -0.00059969723, 0.08963548, 0.09311338, 0.080378875, 0.114840224, -0.00699912, -0.08539863, 0.054388702, -0.047515288, -0.114142634, 0.062306166, 0.10974337, -0.099399984, 0.11921209, -0.09803878, -0.02656842, 0.10041064, 0.11147812, 0.012577444, 0.08688304, -0.042967685, -0.05213207, -0.13048582, 0.10900873, 0.113262, -0.048058935, -0.008535065, -0.0032030642, 0.07259755, -0.113854885},
			{0.2850309, 0.08939579, -0.049792923, 0.19721371, -0.051285032, -0.11234273, 0.08205249, -0.0020254052, -0.111857034, 0.01796367, -0.056088928, -0.20517415, -0.07998702, 0.029212333, 0.08217996, -0.16910167, 0.10381413, 0.19575348, 0.20352297, 0.18774737, -0.03837075, 0.07309378, -0.089532204, -0.13646726, -0.15484837, -0.123637445, 0.0839843, 0.0071576606, 0.27214557, 0.11468142, 0.063199446, -0.2388773, 0.25872716, -0.053972457, -0.26215398, 0.2504306, 0.21211565, -0.50006884, -0.32190767, -0.06990312, 0.08142373, 0.07488096, 0.23505321, -0.2172498, 0.07159253, -0.011270516, -0.09269844, -0.096609354, -0.01642672, -0.063570775, 0.07666637, -0.06124307, -0.1919129, -0.10591194, 0.10565733, -0.046265177, 0.12967588, -0.066437095, 0.08789707, -0.24317306, 0.24990351, 0.31566414, -0.035111517, 0.10130122, 0.036901504, 0.13451332, -0.23664029, 0.02474778, -0.3533749, 0.12053098, -0.38667944, 0.080056675, 0.16628876, -0.107399836, 0.094871156, 0.00075267575, 0.15543123, -0.14122915, 0.23304833, -0.029243838, -0.4821573, -0.08909269, 0.355223, 0.11270505, -0.13560562, -0.039088298, 0.2922853, -0.0031052665, -0.053755447, 0.11394934, -0.013536565, 0.09176198, 0.008802604, -0.15933941, -0.08781243, -0.005381545, 0.014784131, -0.21393728, -0.011089779, 0.06991045, -0.015579805, 0.0487863, -0.31345204, 0.040849887, -0.25992647, 0.0806881, -0.029318472, 0.3772253, 0.023281425, -0.08986931, -0.019473763, 0.16262193},
			{0.07690582, 0.10021697, 0.049034342, -0.119603954, 0.04833004, -0.09101068, -0.0839968, -0.0922461, -0.090642095, 0.0008547753, -0.039996825, 0.039332315, -0.082142316, 0.008803159, -0.07473784, -0.08662578, -0.054565206, -0.06748559, 0.098279506, 0.058080733, -0.100259945, 0.03246911, 0.12078124, -0.021474473, 0.05620846, 0.10568872, -0.08169617, 0.090290785, -0.11605827, -0.05080647, -0.033899345, -0.105932154, 0.005889386, -0.026452817, -0.036636636, 0.088862434, 0.020889401, 0.014487639, -0.101233, -0.02371177, -0.028533816, -0.027260572, -0.049955986, 0.04452321, 0.120239645, 0.0866936, 0.10699715, -0.12659861, 0.05443637, 0.10569836, 0.06811978, -0.113951944, -0.032826208, -0.055065304, 0.03581068, 0.05261454, 0.032012314, -0.03040526, 0.113258556, -0.10971071, -0.106053516, 0.08619779, -0.079641804, -0.103519216, 0.032960936, -0.10918433, -0.08112058, 0.030708939, -0.009990908, -0.036130495, 0.078378424, -0.09864901, -0.085719876, 0.013652965, -0.035115033, 0.115523875, 0.060604528, -0.037495263, 0.013976723, -0.11142885, -0.08442278, -0.010448217, -0.060813636, 0.015751466, -0.12428303, -0.034885734, 0.05760154, 0.070608616, 0.07232411, 0.054611623, -0.08528719, 0.00042833388, -0.07171166, 0.081232816, 0.07276456, -0.0786071, -0.07960646, 0.084459335, 0.056790188, -0.07029103, -0.0323793, 0.08177027, -0.12797725, 0.08818179, 0.074980766, -0.08727587, -0.025100999, 0.043470323, -0.011504404, -0.109618865, 0.056425646, 0.11443044},
			{-0.046934508, -0.028450923, 0.054847926, 0.07551408, -0.0785775, -0.006414334, -0.03697426, 0.0394779, 0.03514558, 0.080783054, 0.10232569, 0.032811403, 0.0643326, -0.033781108, -0.08555896, 0.07239679, 0.031812653, -0.04039056, 0.11311351, -0.08813948, -0.13337213, -0.05462018, -0.007126648, 0.0025967043, 0.07417852, 0.12772617, -0.06824158, -0.09025174, 0.07136963, -0.08575783, 0.019621512, 0.00041211818, 0.0058382815, 0.048519205, 0.13181107, -0.028221855, 0.005057672, 0.01701764, -0.06631253, -0.08126099, -0.040872194, -0.11648777, -0.09873954, 0.10849863, -0.07802731, 0.085983336, 0.013852686, 0.077386245, -0.006127337, 0.09634473, 0.019995153, -0.040127106, 0.055717032, -0.043337155, 0.055324674, 0.030048119, -0.06334559, 0.08387379, -0.04960131, -0.02700382, 0.13925579, 0.027609898, 0.015913129, -0.01681531, 0.0041828756, -0.13727964, 0.0881001, 0.058273394, 0.013313221, 0.081640534, 0.016872168, 0.037996158, -0.017391853, -0.035915263, 0.13830715, 0.0141452, 0.053561516, 0.0019773538, 0.066729225, 0.003169626, 0.0116896685, 0.11913055, -0.11258875, -0.08844814, -0.020577503, -0.060854606, 0.1075891, 0.057820976, 0.011400803, -0.12242261, -0.04761333, -0.08256529, -0.12453393, 0.025701934, -0.05077032, 0.02927874, -0.009556919, 0.11470738, 0.009287623, 0.054174315, -0.11067158, 0.0518198, -0.022042684, 0.066703886, -0.030085957, 0.06960221, -0.0730577, 0.12746897, 0.0750557, -0.117554486, 0.12373075, 0.11174016},
			{0.10723163, 0.113892026, -0.021070955, 0.02691708, -0.029956039, -0.06547403, 0.1122495, -0.11033147, -0.11907944, 0.05747643, 0.05709424, -0.07589193, -0.12133646, 0.11493342, 0.06465913, -0.05408448, 0.041028656, -0.03101928, 0.04941944, 0.0734369, 0.036393356, 0.07457544, 0.040810216, 0.06662897, -0.1030878, 0.09269437, -0.10858227, -0.10435346, -0.06707248, -0.054759193, -0.006443471, 0.06689491, 0.09944005, 0.09513099, 0.080492176, 0.042280644, -0.0902333, 0.0126945255, -0.010926366, -0.043907877, 0.08673503, -0.081441894, -0.045020178, 0.045500837, 0.08169255, 0.087706156, 0.1188744, 0.12098709, 0.0152448835, 0.09560558, 0.119692534, -0.05892059, -0.09214162, 0.10102626, -0.01830478, -0.04043956, 0.08599152, 0.046751533, 0.06076677, 0.008079858, -0.11375252, -0.059867226, -0.05572285, 0.08440236, -0.027057165, 0.013212826, 0.033713486, 0.08437561, -0.092269525, 0.13504831, 0.057704523, -0.11452153, -0.023786785, 0.100484855, 0.11286449, 0.052916113, -0.06597337, -0.074694365, -0.021373682, -0.079192035, 0.08150881, 0.035761647, 0.103422664, -0.01550848, -0.085059054, -0.024205131, 0.015172132, 0.13223568, 0.057581533, -0.1059437, -0.09316625, 0.1045609, 0.1148687, 0.09054936, 0.055793792, 0.017861128, -0.06843244, 0.015114415, 0.01962126, -0.054971717, -0.12288286, -0.07617252, -0.11576648, -0.064303584, -0.12227486, -0.09925659, 0.09173587, -0.04022367, -0.07932259, 0.063193075, 0.06460044, 0.036075026},
			{0.1302331, 0.0009198451, -0.16552232, 0.113868624, -0.06064746, 0.1186061, 0.12709476, -0.08438288, -0.078104004, -0.12450638, -0.106067054, -0.05323662, -0.08340037, -0.046067018, -0.023746446, -0.018928563, -0.06757453, 0.069487475, 0.14182974, -0.0746688, 0.021775065, 0.048899133, 0.14987458, -0.06266736, 0.060572755, -0.086911835, -0.085643865, -0.034655325, -0.07297993, -0.056704205, -0.069030665, -0.059053842, 0.08549754, 0.0026564805, -0.02171348, 0.116701365, 0.039845344, 0.08331429, -0.14093298, -0.06230782, -0.10819264, -0.026295595, 0.02526305, -0.12636577, -0.06891664, -0.065123565, -0.05026066, 0.07528108, -0.012004578, -0.113792464, -0.042940035, -0.055614077, 0.09526938, 0.07579893, 0.021066234, -0.02117412, -0.08796373, 0.020777496, -0.123865716, 0.06810011, 0.09389826, 0.09052106, -0.052306805, -0.07480005, -0.037412275, 0.09955891, -0.042402204, 0.058125313, -0.07754843, 0.0319534, -0.02972988, 0.086897194, -0.07068246, -0.021717096, -0.03434148, -0.005300645, 0.07208717, -0.03730539, -0.019880708, -0.13512638, -0.09161414, -0.11119542, -0.084329486, -0.12541439, -0.11283374, 0.04599755, 0.107184865, -0.030605078, 0.083841845, -0.07577115, -0.08716176, 0.057962805, 0.008291967, -0.11843603, 0.100262605, -0.10483585, 0.08177798, -0.030487357, 0.0064410777, -0.07672539, 0.048636306, 0.11177592, 0.05917755, -0.014017664, 0.115408674, -0.022697115, -0.06420535, 0.1148956, 0.12716599, -0.03051215, -0.10666117, 0.119585454},
			{-0.07474765, -0.029562956, 0.038935136, -0.07847166, 0.09830041, 0.09615526, 0.006631799, -0.016040122, -0.07558984, -0.2436172, -0.06357023, 0.19285025, -0.02963225, -0.14294942, -0.09636775, -0.019274011, -0.12339173, 0.11545805, -0.17055073, -0.09356132, 0.14522357, -0.020407371, 0.111347936, -0.09175394, -0.05556324, -0.093094595, -0.10101921, 0.035745278, -0.03449656, 0.029663993, 0.06964984, -0.117582545, -0.04262598, -0.05967864, -0.28941387, -0.04606607, 0.12832952, 0.19255888, -0.11018055, -0.31463543, -0.1327466, -0.07625457, -0.19551294, -0.055815253, -0.11449058, -0.262362, -0.16765273, -0.059886917, 0.08052258, 0.10264034, -0.13859576, 0.07057712, 0.18118696, 0.13617384, 0.10609836, -0.08304524, 0.07044995, -0.0028209907, -0.113238275, 0.059230823, 0.055880982, 0.06709004, 0.04851069, 0.051920015, 0.112419896, 0.077193275, 0.21946082, 0.01006546, 0.11763679, 0.06952669, 0.13900594, 0.049676187, -0.07798357, -0.13256933, 0.09954975, -0.06405599, 0.21576175, 0.02778759, -0.15617147, -0.060091626, 0.15626277, -0.0059101647, 0.009725493, 0.10724676, 0.14678799, -0.039216835, -0.08541516, -0.01691833, 0.17986743, 0.019671854, 0.025051117, 0.11993102, -0.12914616, -0.026993327, 0.05103672, -0.09613088, 0.042777304, -0.0032624165, -0.10949909, 0.11068958, -0.14986496, -0.115743294, 0.13010728, -0.14383115, 0.029337222, 0.061217036, -0.13974454, -0.18608391, -0.12183307, -0.1567059, -0.08460852, -0.019472543},
			{-0.019242583, 0.020650769, 0.19276193, 0.09014976, 0.06681072, -0.07701548, -0.016609142, -0.05474294, -0.18053134, -0.09920773, 0.03135927, 0.17338525, -0.045750458, 0.017375529, 0.013447302, -0.16952223, 0.07588245, -0.15125236, 0.06710544, -0.08943921, 0.15134239, 0.117335334, -0.07724513, 0.062604226, 0.17490907, 0.016139103, 0.09426311, 0.01888963, 0.0056603067, 0.19049023, -0.04182319, -0.109386295, 0.0029475729, -0.13551301, -0.079725064, 0.14344986, -0.0042582247, -0.032207884, -0.30102217, -0.024385214, 0.053922642, -0.057277504, 0.06640204, -0.12443446, 0.03400333, 0.083520845, -0.12427599, -0.0012271818, 0.1767353, 0.084317796, 0.0074990992, 0.07329507, 0.13388422, 0.12279851, 0.12850836, -0.07363006, -0.12190291, -0.07026267, 0.117567286, 0.10583299, 0.05213103, -0.08167102, -0.10575058, -0.04162499, 0.0959745, -0.002060395, 0.18630566, -0.070117466, -0.06341864, 0.14078978, 0.14453618, -0.05610621, -0.028751938, 0.0068631177, 0.03633438, 0.09970794, -0.13020125, 0.099720754, 0.16090716, -0.10306697, -0.05004784, 0.048461117, 0.032605045, -0.030068832, 0.04948891, 0.09621795, -0.095293686, 0.07928022, 0.07489453, 0.068371475, 0.06288417, 0.018420717, 0.07878051, -0.042772517, -0.13926125, -0.039222248, -0.047028933, 0.12620485, -0.073809415, -0.08544541, 0.079745226, 0.046622325, 0.20485862, 0.03794463, 0.003670662, -0.119959876, -0.05047455, -0.038198806, -0.08844764, -0.019002182, -0.049888417, -0.009149338},
			{-0.07385752, -0.11555234, -0.076874256, -0.06088929, 0.18920156, 0.15247354, 0.029051041, 0.04175721, -0.011804294, -0.013001853, 0.11483784, 0.24800503, -0.051587064, 0.1289646, -0.13377528, -0.11625582, -0.15390298, -0.06595005, -0.32194763, -0.09718832, 0.20950633, 0.23819624, -0.030465215, 0.44902593, 0.1489853, 0.028185997, -0.15040222, 0.099813886, -0.07800223, -0.22827554, -0.31709376, -0.048352357, -0.18329267, 0.069066934, 0.4261038, -0.22332558, -0.2963107, 0.34587133, 0.1422067, 0.16416226, -0.018101811, -0.080911726, -0.14140631, 0.37449834, 0.06584206, -0.10147948, 0.071574725, -0.08607081, 0.015083763, 0.003642845, -0.020928001, -0.026458994, 0.2794311, 0.36444652, 0.20356232, -0.0771897, 0.022811724, -0.035560757, -0.1589236, 0.42502594, 0.08790037, 0.02150978, 0.07214609, 0.032807667, 0.1211621, 0.20710467, 0.24888515, -0.029012077, -0.12929487, -0.3041629, 0.27469525, -0.045620117, 0.098054886, -0.19378616, -0.2224236, -0.01990721, 0.08513265, -0.100104205, 0.05525801, 0.1028145, 0.3782596, 0.06310461, -0.07572329, -0.014178894, 0.016706936, -0.31344834, -0.10117568, 0.27544746, 0.2325188, 0.4028477, -0.060051978, 0.06814862, -0.12320906, 0.28089178, -0.052809272, 0.096894234, 0.025404861, -0.0074791242, -0.15118761, 0.16128528, 0.111751035, -0.040071066, 0.45683828, -0.08670279, 0.06635057, -0.00042379255, -0.07860011, -0.019670086, -0.2587995, -0.13597266, -0.0128687145, -0.23595329},
			{0.054068826, -0.1398265, -0.0633954, -0.053843744, -0.14378136, 0.0011262879, 0.07009052, -0.0781635, 0.1195067, -0.035774376, -0.04305218, -0.16637108, -0.109884396, 0.050275806, 0.03760067, -0.082425594, 0.117985375, 0.07417707, -0.10981126, -0.063899145, -0.22216645, -0.11351449, 0.03732213, -0.15307665, 0.061070096, -0.06720006, -0.11183062, 0.037442956, 0.020345634, 0.100835435, 0.0025951238, -0.03693072, -0.04560593, 0.053412937, -0.22856884, -0.06252044, 0.05123153, 0.0057678074, -0.055766895, 0.07098156, -0.015291979, -0.074541375, 0.0022784066, -0.063156344, -0.043583207, -0.44619527, -0.15853278, 0.02970513, 0.061350342, -0.012999201, -0.14121218, -0.15651265, 0.11387049, -0.18961833, 0.04639232, 0.092048064, 0.057777364, 0.01155916, 0.023690326, 0.029707262, 0.0427136, 0.05991774, -0.12331723, -0.06396319, -0.09698618, 0.09841269, 0.06322746, 0.106456056, 0.34885287, -0.036853313, -0.09196029, 0.048287086, -0.1264253, 0.09855497, -0.16642493, 0.017099418, -0.3237044, -0.18503088, -0.13735542, 0.08110843, -0.19795261, 0.027080474, 0.044905342, -0.08904556, 0.12000738, -0.022801982, -0.010757432, 0.14867468, -0.16145383, -0.035192046, -0.005692348, 0.042440526, -0.06993392, -0.08097679, -0.0036607801, -0.16355495, -0.14302962, -0.062087886, 0.03386808, -0.07104778, -0.049951676, -0.048584577, -0.33595163, 0.07596817, 0.1660118, 0.028712794, -0.0067838104, 0.10008849, -0.052174915, 0.027153028, -0.0131843295, 0.1383142},
			{0.0059368312, -0.054313503, 0.13172826, 0.12909842, 0.078401685, 0.03278978, -0.042164132, -0.09168254, 0.12737256, -0.049696907, -0.047554888, 0.025313094, -0.04440117, -0.074099556, 0.04210557, 0.029550135, -0.035083316, 0.106137946, -0.08096397, 0.06424686, -0.09309544, -0.022864662, -0.026071921, 0.03298995, 0.013319731, 0.10292089, -0.03920997, 0.04162745, 0.05789949, 0.021203235, -0.03692563, -0.12669164, -0.04088927, -0.11102874, 0.00893943, 0.13090411, 0.07861574, 0.05509381, -0.04514409, -0.039866015, 0.037175417, 0.06541993, 0.048497096, -0.08216958, -0.093067154, 0.07578546, 0.13022634, 0.09233984, 0.10064243, 0.09864958, 0.119457275, -0.13120879, 0.0097435415, 0.12670141, 0.118377626, 0.0814662, -0.042544387, -0.102187574, -0.12843099, 0.117832184, -0.081435695, 0.07924335, 0.087645054, -0.075601526, 0.0040262192, 0.043821886, -0.06637218, 0.08416857, -0.0658605, -0.057651035, -0.03877277, -0.023859061, -0.0009217411, 0.09633973, -0.01458998, -0.089531004, -0.013217896, -0.035904504, -0.024737827, -0.05047985, 0.018793553, 0.04311362, -0.05130087, 0.006656751, 0.030160338, -0.12027008, -0.03122402, -0.05291915, 0.13163894, -0.11834573, 0.014648065, -0.052307554, 0.020619065, 0.07455887, -0.039923437, -0.033695042, -0.12662151, 0.0005160272, -0.036402658, -0.03794332, -0.07687633, -0.10734794, 0.12845692, -0.006597951, 0.09910317, 0.07048142, -0.04746823, -0.0052864105, -0.10588132, -0.09259108, 0.007014096, 0.034944072},
			{0.08299779, -0.012120814, -0.112668246, 0.01730437, -0.08702702, 0.0041784933, 0.091834575, -0.084035456, -0.031535044, -0.11299459, -0.0356851, 0.023673257, -0.0023504419, 0.11377642, -0.085336156, 0.029481208, -0.0662966, -0.043714467, -0.097378366, 0.13233131, 0.08846126, -0.085260995, 0.067002945, -0.08673167, -0.098396726, 0.040447906, 0.11349126, -0.027042322, 0.019777328, -0.099762134, 0.117276534, -0.013743325, 0.04670433, 0.12789887, -0.05835609, 0.07433061, 0.004146221, -0.124279, 0.07018913, -0.09439361, -0.10229226, -0.07797179, 0.10905767, -0.028581087, -0.09405446, 0.00056210044, 0.047185317, 0.019378245, -0.1254231, -0.12414212, -0.13046585, 0.07386157, -0.07709646, 0.029841172, -0.06328173, -0.024552397, 0.04483927, -0.034355197, -0.02177275, -0.05333362, -0.055094507, -0.116444655, 0.027283004, 0.028890975, 0.016641233, 0.06122665, -0.07357884, 0.036625203, -0.09935944, 0.13216873, -0.00786595, -0.09449374, -0.07121598, 0.116358325, -0.027895955, -0.09014108, 0.028483033, 0.11549459, 0.10628921, -0.10667758, 0.12992918, -0.055011474, -0.06848678, -0.11069687, 0.07878447, -0.08713712, 0.0034691652, -0.0970453, -0.050641235, -0.124460466, -0.12197769, 0.022107705, 0.039776158, -0.01349071, -0.13436452, -0.020114258, 0.017615752, -0.12852174, 0.12883207, 0.026965817, 0.041465938, -0.13562578, 0.11657217, -0.070065536, 0.019183815, -0.03747936, 0.080936, -0.118329406, 0.06393595, 0.09156246, -0.0014093667, -0.024239697},
			{0.049109343, -0.1091198, -0.056968275, 0.07789255, 0.12898105, -0.021521062, -0.005036043, -0.046504796, 0.071705244, -0.17785747, -0.03484117, 0.15918474, 0.13037589, 0.077805996, 0.09732784, -0.032054484, -0.07683674, 0.0630027, 0.10701286, 0.056494888, 0.06684765, -0.16543558, -0.054773502, -0.03425289, 0.046666645, -0.040198702, 0.039615035, 0.08384258, -0.08135952, -0.1200484, -0.012469687, 0.034910835, -0.021977132, -0.02139368, 0.016046852, 0.1134138, -0.06451841, 0.17472297, -0.06070547, 0.027239585, 0.008470481, -0.11516243, -0.050145894, 0.06611278, -0.14764227, 0.07111048, -0.06875217, -0.029214183, -0.049960557, 0.040779985, 0.0071208593, 0.084022, 0.13527441, 0.18406568, 0.06579649, 0.038335767, 0.08894516, 0.046208337, -0.14141843, 0.1363155, 0.06314391, -0.09791967, -0.0517653, 0.016882444, -0.013574358, -0.051375274, 0.1188679, -0.08031553, -0.16043636, 0.09025004, 0.10743347, -0.056183584, -0.034616433, -0.061304566, -0.08734364, 0.07488668, 0.033677362, -0.056448966, -0.11734839, 0.09480595, 0.18035412, -0.02983186, -0.10813025, -0.12649478, 0.084890515, 0.026748976, -0.09553168, -0.15978934, 0.10358504, 0.1763862, 0.051489368, -0.16318959, 0.13739565, 0.09387893, -0.0153007405, 0.0029704205, -0.05152617, 0.03436537, 0.12151569, -0.0936396, 0.045442756, -0.14669956, 0.2345405, -0.07986907, 0.13657309, -0.090438284, -0.12949167, 0.026457716, 0.12713318, -0.11895897, -0.09439298, 0.12412358},
			{-0.13747576, -0.12706591, -0.015139493, 0.2300785, 0.08197069, -0.17603652, 0.078812435, 0.030197252, -0.09349118, -0.102103315, 0.055291496, 0.017329914, -0.21683384, 0.2655627, -0.049652692, -0.060384966, -0.123322114, 0.21869235, -0.06372545, -0.007964115, 0.06858546, -0.05899126, -0.26055205, 0.39922872, -0.07040055, -0.038663257, -0.10594814, 0.31392345, 0.2032087, 0.079638906, -0.22591129, -0.076946154, 0.26403216, 0.07104594, -0.16213986, 0.023442391, -0.14011842, -0.164739, 0.15533729, 0.13074751, -0.041011095, 0.113967404, 0.017482553, 0.035977278, 0.03302808, -0.15495329, 0.03745974, -0.063378446, 0.41859815, 0.17770405, -0.15827848, 0.017901579, -0.21980019, -0.029815713, 0.15093197, 0.062250774, 0.14989449, -0.109299995, -0.08897588, -0.03694458, 0.20102845, 0.16235742, 0.020661725, -0.04741729, 0.04184677, 0.035737894, 0.013508848, 0.083198555, 0.17173974, -0.10716155, -0.09502164, 0.052303188, 0.09924473, -0.31460688, -0.12198027, 0.2569718, -0.17042673, 0.020181194, 0.107363746, 0.015416804, 0.0120912045, -0.12443634, 0.24591377, -5.1483303e-06, -0.059945554, -0.24956581, -0.2801603, -0.022616677, 0.14166038, 0.07040313, 0.10983722, 0.09170547, -0.14827555, 0.16584243, -0.08007714, 0.085025564, -0.056541864, -0.15864557, -0.15670861, 0.13037106, 0.028711025, -0.011368056, -0.0315129, 0.07694291, -0.011046531, 0.006032794, -0.029554151, 0.0594943, -0.025279617, -0.21189593, 0.040744424, -0.22721033},
			{0.21009785, -0.36052626, 0.10367471, 0.07645181, 0.017607195, 0.13331847, -0.026023123, -0.037079055, 0.044738445, -0.037065696, -0.07842015, 0.076704375, -0.00040330965, -0.08180604, 0.062548615, -0.13979954, -0.013018677, 0.029668259, 0.07107828, 0.060670488, 0.022251928, 0.015197019, -0.0053183553, -0.045636583, 0.005756231, 0.0792013, 0.13500841, -0.12536684, 0.07088187, 0.05624417, 0.02935557, -0.049198363, 0.02001828, -0.15329294, 0.04014072, 0.12240222, 0.009231537, -0.18261229, 0.21215948, 0.08883531, 0.027517742, -0.03159604, -0.077206984, -0.014803567, 0.07536961, -0.2443783, 0.058456358, -0.0066599897, 0.11893277, -0.01067724, 0.04548819, 0.060895216, -0.043860156, 0.041973926, 0.05538288, -0.02396401, -0.02977278, 0.022669954, -0.034542877, -0.23073202, -0.052755024, 0.24490464, -0.0064097894, -0.049669825, -0.057650574, 0.11186145, -0.09751192, -0.1707503, 0.2763451, 0.08435218, 0.050650388, -0.012568866, 0.027227351, 0.11150612, -0.09241429, -0.08334109, -0.35393807, 0.04804119, 0.005340456, -0.15567626, -0.03451547, -0.108223476, 0.14538646, 0.071988486, 0.12821762, 0.11187648, -0.00059551536, 0.0018162893, -0.15549158, -0.037185445, -0.060929596, -0.04059145, 0.05177785, 0.14197001, 0.05751552, -0.005758448, -0.053240903, 0.12070301, 0.20685166, -0.19723965, -0.07621281, -0.0177463, -0.37387395, -0.06378534, 0.107703984, -0.045478668, -0.04204687, 0.068286575, 0.12910898, 0.09234082, -0.056034535, 0.11944539},
			{-0.093566045, -0.06355736, -0.11621471, 0.03759303, 0.15558454, 0.030376153, -0.01658913, -0.033961795, -0.044417374, -0.011705348, -0.07764767, 0.23756398, -0.39106703, 0.20015901, -0.070817895, -0.028170453, -0.112885036, -0.20499082, -0.14509098, -0.026587704, 0.10761446, 0.23869428, -0.015145536, 0.27351686, 0.205792, 0.10391081, -0.030608952, -0.0052264035, 0.08062923, -0.0034498612, -0.11714077, -0.16406387, -0.06325678, 0.08529792, 0.2674332, 0.22986466, -0.13101384, -0.15740167, -0.15603592, 0.2597448, -0.15358236, -0.11974917, -0.00278884, -0.07700705, 0.013886668, 0.21423693, -0.16705249, -0.092910744, -0.12210837, 0.2932041, -0.07502246, 0.09250387, -0.06291517, 0.1782187, 0.11950917, 0.10964863, -0.108235285, -0.20060468, -0.058916707, -0.13589096, 0.01680539, 0.08242889, -0.03274839, 0.07713486, -0.09124604, -0.14849712, 0.039508726, -0.014806858, 0.09992303, 0.21262573, 0.027344229, 0.042687826, 0.2009155, -0.0014950926, -0.057687964, -0.10332436, 0.016304644, -0.1544427, -0.21339428, 0.0077012065, 0.027602153, -0.0621167, 0.006706944, -0.05599115, 0.16657574, -0.12124334, 0.20071593, 0.048461393, 0.106011115, -0.09169071, 0.13320455, 0.028367035, -0.046640914, -0.12592314, -0.044563796, -0.1143988, 0.036704503, 0.23620708, 0.09547515, -0.22886296, -0.023359789, 0.0037209934, 0.19838098, -0.087873906, -0.082143605, -0.0815083, 0.086442284, 0.11196808, 0.04061578, 0.12183209, -0.006504994, -0.12107778},
			{0.072276965, 0.093394086, -0.05706279, 0.08392532, -0.07509713, 0.13252115, 0.0958689, 0.023358494, -0.07835053, 0.026190609, 0.044687137, 0.0078547895, 0.033074915, 0.11951414, -0.0669651, -0.027894504, 0.045481786, -0.091059804, 0.12400842, -0.010687359, -0.09370318, 0.056705788, 0.077998325, 0.091069624, -0.06929777, 0.11593665, 0.13163668, -0.06132, -0.114533894, 0.017187044, -0.011099175, -0.043758072, -0.056294292, -0.099249795, 0.054461658, 0.11869568, -0.116875246, 0.060966715, 0.09639639, -0.020753473, 0.005385697, 0.04572083, -0.029648341, 0.013695344, -0.10164093, 0.06219612, -0.0031410307, -0.10590619, 0.04502766, -0.08264483, -0.056442127, 0.08274746, -0.010203324, -0.083519645, -0.0840375, 0.12745535, 0.005349174, -0.021254651, -0.095721126, -0.052414857, -0.033920467, 0.07076153, -0.1156956, -0.02116745, -0.10390584, 0.07745424, 0.023455516, -0.07213502, -0.088128865, 0.023203567, -0.0037339479, -0.07910325, -0.028067946, 0.06108898, 0.113142595, -0.02315902, -0.006291002, 0.054905638, 0.098660365, 0.09952246, 0.12917238, 0.033565342, 0.12844104, 0.018072426, -0.08149776, 0.10311857, -0.103102475, -0.097727396, -0.038239457, 0.115464, -0.121023655, -0.10541678, 0.005228743, -0.033882387, -0.085612476, -0.060755357, 0.034587875, -0.051285602, -0.035537668, 0.08664642, 0.07193585, 0.13315734, -0.09807715, -0.07500745, -0.099025264, 0.11328207, -0.107637756, 0.031850263, 0.09199837, -0.111522, -0.05211238, -0.084069565},
			{0.071889356, -0.106599584, 0.05869622, 0.18509439, 0.10358479, 0.06317893, -0.12613305, -0.016623678, -0.1105024, 0.06551426, 0.071690015, -0.0021934956, 0.1139342, -0.078328095, 0.050433997, 0.015811067, 0.028609859, 0.06745052, 0.062433846, 0.15976007, -0.07001201, 0.10220426, 0.09808132, -0.2863227, 0.09772178, -0.043305118, 0.11032981, -0.09122804, 0.04302101, 0.051793665, 0.059781477, 0.08133809, -0.008568532, -0.10632222, -0.2871495, -0.009971088, 0.12583892, -0.0019028404, 0.24375053, 0.14825371, 0.05347863, -0.13037889, -0.0012451856, -0.04612306, -0.09210773, -0.11132533, 0.06852281, -0.015203959, 0.04161446, 0.18216893, -0.06308787, -0.09843229, 0.10415833, -0.06978351, 0.05720691, 0.033529103, -0.15874045, 0.15619208, 0.08213107, -0.23523383, 0.118702546, -0.052169267, 0.08369825, -0.13413091, -0.05923608, -0.020276634, -0.1504362, -0.022024794, 0.1961314, 0.18617658, -0.16964744, -0.055229608, -0.010322273, -0.020436449, 0.06754611, 0.06546852, -0.31952718, -0.032536127, -0.018557945, 0.08685529, -0.076592274, 0.0072206, 0.038544733, -0.03568927, 0.042985205, 0.1380574, 0.008255958, 0.05351731, -0.13077864, -0.20262586, -0.028423935, -0.13469513, 0.089385696, -0.14301391, -0.058207214, -0.023189802, -0.091383815, -0.017953584, 0.18847041, 0.04539847, 0.04030685, 0.005714122, -0.18210733, 0.025559733, 0.012368535, -0.07949847, -0.053992625, -0.006275725, 0.0037930533, 0.058669597, 0.039516613, 0.086667836},
			{0.11716764, 0.0926218, 0.03736905, 0.4460576, -0.19628015, -0.08757663, -0.09412921, -0.11109009, -0.18039727, 0.009144407, 0.018410742, -0.22767004, 0.07468158, -0.027990717, 0.21532983, -0.006718354, -0.001338062, 0.09794821, 0.11973777, 0.22069319, -0.02685682, -0.21940324, -0.034139458, 0.034223378, 0.036056053, -0.0066019446, 0.065596685, -0.060270157, 0.47533804, 0.28893182, 0.15086383, 0.25965595, 0.26287487, 0.0365745, 0.10843618, 0.23113506, 0.1447768, -0.22707029, 0.17125739, -0.5595361, -0.0023571437, -0.003572315, 0.20392853, -0.19271746, -0.058652442, 0.1397866, -0.120669685, 0.0994471, 0.3054295, 0.09653326, -0.12028927, -0.15982784, -0.1292472, -0.15274347, 0.15788975, 0.084326304, 0.05793149, -0.008159549, -0.11080954, -0.27272007, 0.19309857, 0.21321826, 0.0005824816, 0.11036137, 0.092514254, 0.10006084, -0.20696001, 0.13088647, 0.117355905, 0.16963191, -0.13884374, -0.01792393, 0.22601937, -0.07353944, 0.117392525, 0.18195094, -0.40249205, 0.04084801, 0.22560726, -0.060707416, -0.24398662, 0.021127464, 0.22981961, -0.011376735, -0.06259243, -0.017896608, 0.003535138, -0.12727113, -0.23572585, -0.27237377, 0.04632561, -0.10192432, 0.07369297, -0.054850146, 0.02357635, -0.06259967, -0.06067289, -0.019010728, -0.053937808, 0.0046723643, 0.08396776, 0.003550008, -0.16463068, 0.051856834, -0.32213882, 0.033585865, -0.06628636, 0.5604923, -0.037030876, 0.18993758, 0.09495036, -0.10622596},
			{0.1211589, -0.054830298, 0.023315981, -0.037928455, 0.07247119, 0.06199065, 0.030942202, -0.060268365, 0.033457905, -0.09870967, 0.09504002, 0.0891505, -0.098279126, 0.08154634, 0.11293098, -0.034431063, 0.018589288, -0.017445713, 0.1307945, 0.0340838, 0.021337494, 0.061279222, -0.13113403, 0.06210819, -0.08934169, -0.09742798, -0.11049276, -0.028562032, -0.035101265, 0.060009003, -0.119888514, 0.10341939, -0.042456552, -0.00073497, 0.06937386, 0.042814568, -0.12633601, -0.115777105, -0.020738617, -0.06887174, -0.092608795, 0.12730089, 0.09577158, 0.030591816, 0.00028173625, -0.08617416, 0.10356064, -0.06631546, -0.07303643, -0.12133638, 0.11780754, -0.024789646, 0.08955836, 0.11256395, 0.12867916, -0.10287985, 0.09305076, 0.11734903, -0.06493491, -0.066912614, -0.01758986, 0.033158615, 0.09270729, -0.0427304, -0.048524797, -0.119952716, -0.114243254, 0.061859608, 0.129349, 0.0013427883, 0.115241095, -0.11429667, -0.06062486, -0.030516252, -0.0481364, -0.024021752, 0.038659424, -0.13082233, 0.00011996925, 0.050463498, 0.12494904, 0.058049202, 0.027910352, 0.036392406, -0.10903287, -0.002655536, -0.072466284, -0.008945644, 0.12867019, -0.11004105, 0.12663087, 0.07584384, 0.033750683, 0.018258497, 0.023666084, -0.11277131, -0.007930502, 0.0028276742, -0.10696228, -0.05735916, -0.029701851, -0.09987211, -0.025757931, -0.06677111, -0.07574582, 0.116059914, -0.12748206, 0.008617938, 0.13172892, 0.09978062, -0.035210572, 0.111064345},
			{0.002239108, 0.023403853, 0.12486231, 0.116604924, 0.093696505, 0.13259068, -0.028112516, -0.010507517, -0.047328703, -0.110093795, 0.022033557, 0.08954202, 0.07289, 0.019929275, 0.021355182, 0.10548045, 0.05537738, -0.09368314, -0.016490698, 0.072735384, 0.08344224, -0.11107159, 0.048211977, 0.027996972, 0.065470725, 0.10199581, 0.0016020238, 0.120373815, 0.05582021, 0.09901658, 0.10135506, -0.024327725, 0.06968847, -0.016950198, 0.040991902, -0.001301527, -0.034292936, 0.08305651, -0.11671387, -0.025170825, -0.06474371, -0.07863614, 0.03759849, -0.018409796, 0.13229302, -0.070056126, 0.029723093, 0.0596323, 0.0757018, -0.037399635, -0.017989136, 0.12025073, 0.111973286, -0.022558205, -0.05842924, -0.07710572, 0.021240517, 0.12086198, -0.10055396, 0.01792714, -0.11104595, 0.11845395, 0.12196782, 0.006690085, 0.07629956, -0.11825983, 0.07017425, -0.03482958, 0.009937376, 0.053604946, -0.06476808, -0.025996141, 0.108023226, -0.09785764, -0.12553613, -0.106731385, -0.12054609, -0.09283377, 0.014937341, -0.00118725, 0.09054653, 0.013932347, -0.0016846359, 0.026059166, -0.12596601, -0.092481256, -0.0045782328, -0.11720534, 0.0003656894, 0.11904332, 0.06827067, -0.12477136, -0.11202203, 0.12254074, 0.1021654, -0.10089725, 0.12369713, 0.05040805, -0.08954252, -0.060579434, 0.06797752, -0.06274623, -0.10041176, -0.119842134, -0.012199543, 0.1321564, -0.08466853, -0.024584807, 0.03824897, 0.024463698, -0.043365538, 0.12615961},
			{-0.106982514, 0.01307483, 0.0148371905, -0.12220064, -0.0446105, -0.08317925, -0.046913736, -0.11095038, 0.1298295, 0.109676376, -0.029712252, 0.035364196, 0.10027839, -0.006701216, 0.07032366, -0.07548092, -0.11066684, 0.08189261, -0.12749249, -0.05850874, 0.0020203888, -0.02583018, -0.050657175, -0.069764115, 0.08424799, 0.09767443, -0.07598779, 0.0140096545, -0.030776829, -0.09494356, 0.041997775, -0.06523987, 0.075544864, -0.037954673, 0.122240275, 0.111358866, -0.11073336, 0.1255427, 0.09522545, -0.060040936, -0.049364842, 0.1094542, 0.02787733, 0.064162016, -0.014725469, 0.05287391, -0.011840761, -0.065661035, -0.10575479, -0.0793427, -0.021016404, 0.0035711974, -0.07728808, 0.12756917, -0.0220702, -0.002708733, 0.08456491, 0.052691758, -0.13202345, -0.07933462, -0.010543913, 0.1302424, 0.12705347, 0.03785357, 0.07350449, -0.0086643845, 0.023440242, 0.029972702, -0.06418267, 0.060690835, -0.050146677, -0.012268126, 0.07845621, -0.08278188, 0.07849674, 0.01390931, 0.06422362, 0.013297722, 0.13076788, 0.0537723, -0.061926983, -0.050261103, -0.027638696, -0.07752606, -0.050202757, -0.0869335, -0.06537981, 0.0013620257, 0.077408925, 0.10848343, 0.0040884465, 0.08258718, -0.019464932, -0.0071989596, -0.05167938, -0.015984617, -0.08624167, -0.12336819, -0.014812604, 0.12242147, 0.022844866, -0.04552543, 0.066237256, 0.12479758, 0.015574843, -0.037022337, -0.01042185, -0.045368597, -0.09943692, 0.033136442, 0.10693671, 0.09554593},
			{0.13854848, 0.047017373, -0.07183433, 0.12652494, -0.07880432, -0.029415, 0.12658279, -0.11109246, -0.096369565, 0.07898193, 0.047763824, 0.12076368, -0.053333882, 0.010862756, 0.017720012, 0.093555324, 0.109563716, 0.019340865, 0.0065289126, 0.08097827, 0.056855332, 0.063421525, 0.06596763, 0.054746803, 0.09798168, -0.040704057, 0.058739677, 0.09553884, 0.060762603, 0.0933929, 0.11756112, -0.085758194, -0.03300373, 0.112911165, -0.071534105, -0.015888494, -0.0027414386, -0.005490847, -0.041875683, -0.10025063, 0.105363734, 0.13089642, -0.0010022757, 0.07335743, 0.015061102, -0.026497569, -0.0018272847, 0.11402136, 0.10267828, -0.028163176, -0.02807492, 0.098961435, 0.03464324, 0.119554855, -0.021055628, 0.12123716, -0.078641914, 0.105917536, -0.12239565, -0.08424313, 0.12967867, 0.06574137, -0.051527236, -0.031375468, -0.0406039, -0.112347, 0.054639842, -0.036445968, -0.07591604, 0.069889784, -0.08239817, 0.055743396, -0.0022377782, -0.0024254913, 0.13050793, 0.05821523, 0.009246507, 0.08009325, -0.08505928, 0.08802398, -0.112174034, -0.11349487, -0.10460917, -0.13034485, 0.10570612, -0.020975308, 0.13201267, -0.05525942, 0.0145583525, -0.054755263, 0.03267485, -0.011474371, 0.064677075, -0.05562246, 0.06411779, -0.017083175, 0.0041754935, -0.13809213, -0.010480229, -0.0879481, 0.012345627, 0.026084844, -0.09621317, -0.088465, 0.13332295, -0.052805033, -0.08967507, -0.020754555, -0.080987625, 0.017297857, -0.025157116, -0.0034332033},
			{0.050787922, 0.08360731, 0.31011724, 0.11046044, -0.033231497, 0.036345225, -0.11232286, -0.058307167, 0.022766942, -0.2121939, 0.042834997, -0.24270183, 0.00495799, -0.035970733, 0.1301115, -0.036010567, -0.009200821, -0.09723825, 0.21898077, 0.037384268, -0.00752348, -0.031417813, 0.08700181, -0.4055323, -0.2038579, -0.12363834, -0.08086931, -0.08034488, -0.09266516, 0.256469, 0.20210513, -0.012369896, -0.081385426, -0.03637256, -0.5408323, -0.13572823, 0.20776731, -0.32063138, -0.0432403, -0.19074608, -0.18350838, 0.09708432, 0.016745051, -0.4032521, 0.02623805, 0.19827309, -0.10809848, -0.07046068, 0.07200496, -0.17451298, 0.018371036, 0.060216397, -0.16531101, -0.052573983, 0.014814534, -0.00066793896, 1.3810128e-05, 0.14823085, 0.024937516, -0.40284777, -0.1556826, 0.20244521, -0.12743942, -0.044728905, -0.015976837, 0.048062753, -0.03736687, -0.07109723, -0.05100424, -0.070556596, -0.24615322, -0.10477428, -0.047964733, 0.010123012, 0.069667265, -0.03307891, -0.33274728, -0.035046574, 0.0611601, -0.06341222, -0.18558025, 0.024526656, 0.29998752, -0.044152282, -0.1514373, 0.17850083, 0.030672515, 0.30643398, -0.07273761, 0.2305831, -0.11651179, 0.2242673, -0.042069875, -0.0026211904, -0.1035635, 0.061008405, -0.06976877, 0.07460952, 0.09285909, -0.041991897, 0.12230254, 0.024541412, 0.052927986, -0.060233384, -0.017020231, -0.021052767, -0.032517906, 0.0768727, 0.070768826, 0.011189459, -0.10855519, 0.040378153},
			{-0.017025145, -0.090499505, -0.31045792, -0.054381542, -0.20949298, 0.16459256, -0.03061255, -0.06263589, 0.19492099, -0.11230412, -0.09853025, -0.32883015, 0.03632047, 0.059466377, -0.055364415, -0.087996945, -0.061410528, -0.09897674, -0.014488677, 0.06661544, 0.064813375, 0.28153655, 0.15452737, -0.38343328, 0.04504339, -0.09517979, 0.19359142, -0.054946844, -0.0047636195, -0.24390987, -0.008779434, -0.023432007, -0.14713743, -0.12904528, -0.38957715, -0.03502229, 0.074852236, 0.10932627, -0.29246354, 0.2794258, 0.060463056, -0.1291267, -0.08400074, -0.00690156, -0.14018936, -0.5431171, -0.15291438, -0.0069825286, -0.172518, 0.08016677, 0.08370394, 0.03322148, -0.09461606, -0.23743455, 0.064351834, 0.07493643, -0.19501321, 0.13398829, -0.0005792529, 0.049844105, 0.03843275, 0.045093834, 0.096719705, 0.029311372, -0.07680456, 0.09785521, -0.12937635, -0.16140488, -0.75398076, 0.23522028, -0.23003136, -0.054554906, -0.14723349, 0.0050045867, -0.15167989, -0.10083508, 0.11185331, -0.0030977034, -0.06111002, -0.08634287, -0.2938982, 0.03614833, -0.0033138704, -0.12864286, 0.18809909, 0.052992467, -0.06423737, 0.20413433, -0.29741678, -0.014278406, -0.003726542, -0.08868259, 0.02913295, 0.08099867, -0.112874344, 0.0068459576, -0.07755724, 0.12502985, 0.09581862, -0.1356313, -0.1116461, -0.081981845, -0.5110617, 0.09725053, 0.13606943, -0.042642303, -0.06361357, 0.01330939, 0.092219524, 0.031683147, 0.051497053, 0.00245387},
			{0.079069845, 0.029344106, -0.0609198, 0.086740665, -0.100791685, -0.0352234, -0.04435962, -0.103852905, -0.0013363017, 0.021843731, 0.12985367, 0.12678331, 0.0067453086, 0.09984063, 0.0031317212, 0.0038046378, 0.015182027, 0.111057274, -0.07589528, 0.056158192, -0.087209344, -0.045555014, 0.07385344, 0.005262737, 0.09331375, -0.099577844, 0.07956942, 0.052706983, 0.02021651, 0.073435456, 0.046186607, 0.13207835, -0.10263181, -0.05976934, -0.061788324, 0.07293227, 0.05491601, -0.027199086, 0.1066913, -0.116927154, -0.06036023, 0.12550056, -0.08829825, -0.07175959, 0.12771186, -0.070380315, -0.028524302, -0.11971199, 0.07264855, 0.062888056, 0.04830733, 0.12046429, 0.056153674, -0.054501094, 0.1301192, -0.11478041, -0.12691829, 0.12491794, -0.0944463, -0.11722217, -0.045380708, -0.12151942, 0.09881419, 0.051044162, 0.008518413, -0.03899877, -0.022161625, 0.005652736, -0.089753106, 0.13012025, 0.07316126, -0.033994872, 0.068252884, -0.12175456, 0.07795392, -0.043146763, 0.006955523, -0.12710491, 0.02569244, -0.1262563, 0.06826743, -0.014697701, 0.084014274, -0.084374234, 0.010153383, -0.115707435, 0.12533827, 0.12704334, 0.10159222, 0.11980848, 0.07888444, 0.096108645, -0.0034340965, -0.016446095, -0.016133003, 0.105039865, 0.023281952, 0.017284308, 0.009784776, -0.10922113, -0.076499596, -0.039824657, 0.088115156, -0.06955593, 0.12682076, -0.0044592023, -0.04996713, 0.13475779, -0.04633449, -0.12272922, -0.06865767, 0.09395187},
			{-0.064134665, -0.053065408, 0.081409894, 0.08957847, 0.015068355, 0.13376589, -0.019424252, -0.13414076, -0.07341217, -0.1270027, -0.01766596, -0.008246889, 0.0835748, 0.034928422, 0.081442684, -0.06351927, -0.116915755, -0.1246201, 0.095573, -0.08997654, -0.009588955, 0.20578516, 0.04537331, -0.0023503266, -0.025890777, -0.11877923, 0.003097132, 0.09212098, 0.04348971, 0.029376136, 0.003475533, -0.013033398, 0.03250807, 0.07585375, 0.09037848, -0.1022614, -0.055515356, -0.021410607, 0.031620614, 0.22006285, -0.11063266, -0.13138463, 0.089054994, -0.033794113, -0.08829929, 0.043285385, -0.035863042, -0.116565086, 0.0153807765, -0.10910918, -0.0849121, 0.06994065, -0.08082606, 0.020307157, -0.07593921, 0.054394078, -0.075747594, 0.028078955, -0.12067124, 0.056280565, -0.056092117, 0.17022383, -0.040904205, 0.023635602, -0.070604235, -0.005844448, 0.051966812, -0.13397937, -0.22689085, -0.11033423, 0.051991407, -0.06643491, -0.03815488, -0.027098626, -0.100595295, 0.089498416, -0.23289412, -0.057816606, -0.050214145, 0.04506015, 0.10387128, 0.046205644, 0.14215206, -0.102619, 0.16508716, -0.09337157, 0.012272978, -0.019673524, -0.07657525, 0.10726451, -0.02809693, 0.08415559, 0.008103423, 0.061641425, -0.13437921, 0.023951234, 0.092888795, -0.093501724, 0.12753142, 0.07828041, 0.082622595, -0.0039951075, -0.09838709, -0.004132442, 0.08598937, -0.14189191, -0.013041841, -0.059993375, -0.05282739, -0.0007678455, -0.03137256, -0.04256766},
			{-0.57545376, 0.1911409, -0.96089625, 0.10503758, -0.1946991, -0.07547556, 0.019599041, -0.07011655, 0.03179167, 0.060007654, 0.070369095, -0.3832888, -0.027116157, 0.039309774, 0.18551286, -0.057331778, 0.074210934, -0.03668446, 0.025182568, 0.14815386, -0.14116554, -0.25151044, -0.015614857, 0.17756698, -0.06382272, -0.06485388, 0.13452709, 0.14842981, -0.0361932, -0.5610072, -0.0064309337, 0.16824794, 0.15898602, 0.007724373, -0.20776118, 0.19522822, -0.089692906, -0.18756445, 0.3221926, -0.2713137, 0.03474549, 0.12992224, 0.11300372, 0.07127331, 0.045697156, 0.16337705, -0.15772977, -0.008813873, 0.21259873, -0.09808698, 0.039175514, -0.18262182, -0.11698462, -0.36394918, 0.14910255, -0.07751988, 0.23675281, 0.01959632, 0.054287642, -0.37801236, 0.12470539, 0.37249136, -0.09921904, 0.06529107, 0.12229054, 0.103010364, -0.39947128, 0.20727663, 0.21958517, -0.12590054, -0.18614139, -0.11850366, 0.13868684, -0.14615253, 0.1541833, 0.5503911, -0.024946483, -0.033474255, -0.27073294, -0.10122896, -0.2867068, -0.12440935, 0.40798226, 0.09078383, -0.09692625, -0.013966997, 0.21879214, 0.24258734, -0.38432345, -0.4604194, 0.0318446, -0.4000117, 0.2666008, -0.024488172, 0.027818551, -0.044233993, 0.1072798, -0.13976133, -0.27105463, 0.18962826, -0.086285934, -0.08146354, -0.17795317, 0.07369202, -0.33411437, 0.08001897, 0.118095286, 0.14139128, -0.074674405, 0.036488317, -0.12804046, 0.13966823},
			{0.35944465, 0.19031958, -0.6892414, 0.19188845, -0.3515569, -0.097885184, -0.13559036, -0.042103093, -0.101592034, 0.013088898, -0.0077530197, -0.08513965, -0.3549128, 0.08694738, 0.82326764, 0.074445315, -0.02438809, 0.09417097, 0.50497204, 0.49151424, -0.21942598, -0.26729986, -0.031270187, 0.37008363, -0.118329786, -0.031197298, 0.38691047, -0.12035514, 0.73416406, -0.06075488, 0.44127205, -0.19001547, 0.16472171, -0.06457066, 0.3364477, 0.4967982, 0.12815897, -0.6528767, -0.64546925, -0.174527, -0.008099588, -0.14208277, 0.4949602, -0.29116735, 0.043738212, 0.6520307, -0.03676941, 0.0797226, -0.24545437, 0.12975422, 0.025830554, -0.08791146, -0.7506863, -0.3266138, -0.2586317, 0.057555974, -0.44661757, -0.056620102, -0.09866944, -0.41733274, 0.1119588, -0.012866146, -0.09994342, -0.12273404, -0.16057649, -0.11342884, -0.5040593, 0.16182289, -0.0009012372, 0.48836, -0.7361292, 0.021554297, 0.2647678, 0.36082616, 0.24162228, 0.3163609, 0.26136836, -0.0045624203, 0.45903125, -0.15654661, -0.61257553, 0.004986654, -0.25710315, 0.046343997, 0.12655836, 0.15196696, 1.05507, 0.21449873, -0.13640144, -0.5756756, -0.017662168, 0.10883384, 0.5517449, -0.81423587, -0.11636448, 0.035295907, -0.0622512, 0.008376875, 0.30664012, -0.14058782, 0.07708591, 0.10649339, -0.17036474, -0.073898874, -0.47210446, -0.15427177, 0.10219447, 0.49403748, 0.44352093, 0.11988974, 0.04841589, 0.25798926},
			{-0.12530266, -0.104781136, -0.011720635, 0.09839146, -0.124844685, -0.09974185, -0.04835186, 0.064304695, -0.08159803, 0.11113384, 0.03533168, 0.012032583, 0.09266968, 0.10789809, 0.008199438, 0.12986383, -0.08550142, 0.0011835247, -0.0019475371, -0.090480074, -0.0053675324, -0.038822778, 0.0041047335, -0.08144011, 0.11978114, 0.07288484, 0.02582118, -0.09769603, 0.07956834, 0.05635196, -0.020736992, 0.08400434, 0.0004299432, 0.11502941, -0.10247939, 0.084364146, 0.04718761, 0.08300039, 0.09092301, 0.11847401, 0.10032262, -0.024654508, 0.034530923, -0.10651855, 0.062457725, -0.0671011, 0.037213624, 0.047956184, 0.05552347, 0.091257766, -0.02135744, -0.05326222, 0.12246406, -0.121831164, -0.12674028, -0.06715563, 0.0005913377, 0.03465064, -0.020232603, 0.1299699, 0.09590913, -0.045710616, -0.065144844, -0.03451454, -0.048460506, -0.030962266, -0.03539241, -0.09085531, -0.13279933, -0.09217503, -0.08521861, 0.100856215, -0.105685666, 0.12544638, 0.08074777, -0.10729475, 0.108985946, -0.094661474, -0.03335449, 0.12866205, -0.11042169, -0.070843615, 0.06739801, -0.016889751, 0.094925836, -0.09494251, -0.04379584, -0.05794753, 0.10464494, 0.059122756, -0.058351174, 0.12280592, -0.05070912, -0.07764222, -0.08497444, -0.013646223, 0.03951846, 0.073026925, 0.0016925037, 0.12964892, -0.028264329, 0.023102745, -0.007110432, 0.044079795, -0.0209321, -0.03617701, -0.09951486, 0.008811042, 0.010211021, 0.0001284033, -0.009968676, 0.10139601},
			{-0.030186385, 0.016681254, -0.06075058, -0.027707703, -0.11826747, 0.007809639, -0.059424505, 0.099783644, -0.13192633, 0.013858199, 0.011409089, -0.13082233, -0.09075786, 0.12637776, 0.046700016, 0.12610504, -0.070654936, 0.048514485, -0.044035517, -0.0936171, -0.12564825, -0.06407266, 0.0033103973, -0.089536995, -0.004443094, -0.08592625, -0.11771278, -0.08840752, 0.08352731, 0.06952034, 0.09516889, -0.06741872, 0.064760104, 0.106553614, 0.08111578, -0.12627979, -0.02378802, -0.03226182, 0.104830384, -0.08442675, -0.04997641, -0.040253684, 0.014998168, -0.06879398, -0.038983434, -0.0477451, 0.07936604, 0.056849048, 0.11995691, -0.07649149, 0.021044523, -0.123711705, -0.08922729, -0.12542632, 0.037132725, 0.04223749, -0.06845136, 0.04492767, 0.121435285, -0.011983626, 0.1251702, 0.069380194, -0.05193194, 0.075878516, 0.0849739, 0.004064232, 0.10617402, 0.10535386, -0.09903792, 0.0774499, 0.122066945, -0.12020849, -0.12012406, 0.06747386, 0.08657268, 0.11302228, 0.040093094, 0.07639621, 0.03419368, 0.07943356, 0.06487097, -0.1252104, -0.117647536, -0.05228077, 0.05281493, 0.02255483, 0.13106611, 0.10643603, -0.07229049, 0.03209725, -0.0062673986, -0.109963365, 0.042834207, -0.10454709, 0.036447704, -0.019968621, -0.12470665, -0.04447943, 0.043904006, 0.013320178, 0.07602593, 0.013082117, 0.09159127, 0.000121071935, -0.020492986, 0.11456463, -0.04031995, 0.07461542, -0.04861989, 0.11887559, -0.02721212, 0.06978695},
			{-0.041281074, -0.099262126, -0.12945947, -0.04413836, 0.108953595, -0.06520777, 0.0605983, 0.023630455, -0.11580606, 0.087602645, -0.018857677, -0.06338881, -0.12638554, -0.017446863, -0.018552575, -0.053109773, 0.12249717, 0.071250215, -0.008898807, 0.112575516, -0.08289279, -0.12564047, -0.05662504, 0.0005851775, -0.05636268, -0.09168909, -0.027806794, 0.07770891, 0.124842584, -0.040282447, 0.047149632, 0.06215337, -0.04531785, -0.005285457, 0.124944806, -0.07612756, 0.08269994, 0.03757795, -0.027037121, -0.06068982, 0.111839555, 0.10303876, -0.06703112, 0.10762943, 0.023953006, 0.10378578, 0.10528603, 0.122006595, 0.034761474, -0.09635194, -0.054197036, -0.024792973, 0.06702494, -0.021115715, -0.06503697, -0.1149752, -0.13062817, -0.0038129836, 0.0854224, -0.016053447, 0.11545318, -0.012424782, 0.087892056, -0.082190864, 0.018072648, -0.03783811, -0.0075753555, 0.06977901, -0.087262, -0.10542618, 0.015834391, 0.08312084, -0.12021516, -0.134811, 0.008667264, 0.085670784, -0.12803881, 0.11916965, 0.09497374, -0.050537683, 0.0065963683, 0.08121781, 0.08646688, -0.11870531, 0.07680295, 0.09557944, 0.1325723, 0.08489297, -0.119954176, 0.024214253, -0.083687745, 0.086856455, 0.07613979, -0.086239636, -0.05908099, -0.0595354, 0.072341576, 0.053035986, 0.06383837, -0.038172204, -0.06875727, 0.0818789, -0.02686721, 0.0064424872, -0.053639464, -0.06668264, 0.0923506, -0.12054179, 0.08985614, -0.033927254, -0.07547498, -0.12963676},
			{-0.103783615, 0.07129207, 0.032173246, -0.0145505, 0.0056048334, 0.12366161, 0.046397164, -0.09302351, 0.12773979, 0.04567209, -0.04954201, 0.04041469, 0.03913024, 0.10976952, -0.100444585, -0.09661281, -0.05398144, -0.0736361, -0.022166908, 0.03383878, 0.07375094, 0.11923528, -0.06620748, 0.09534691, -0.10015547, 0.11031133, -0.061376438, -0.13164885, -0.0074507594, -0.11896786, 0.0566442, 0.030917376, -0.079841614, 0.020387664, -0.021196462, -0.001093179, -0.051531196, 0.056031108, 0.070210665, 0.11140047, -0.0019513667, -0.12203941, -0.060817584, 0.014825106, -0.128933, 0.12727118, 0.027567148, 0.05833514, 0.0055179745, -0.10824601, 0.12658933, 0.0041202307, -0.015153609, -0.05423569, 0.12952232, -0.069342434, -0.039787464, -0.020529449, 0.004303023, -0.007519096, -0.03433232, -0.072481714, 0.114308, -0.12113297, -0.1153204, -0.006245151, 0.073785916, 0.11974135, -0.103482604, -0.08693357, 0.040357515, -0.08069808, 0.0018186718, 0.05590318, 0.0018380135, -0.13024521, 0.10905565, 0.013589054, 0.07904744, 0.0515534, -0.09808227, -0.06694516, -0.048908457, -0.031695396, -0.05314906, 0.068450466, -0.10915287, 0.057940245, -0.060901724, -0.030995384, 0.077461004, -0.1267789, 0.097449735, 0.05700496, 0.04137495, -0.018816426, 0.0974395, 0.062291205, -0.061674714, 0.07999919, 0.07183446, -0.11747715, -0.0050745457, 0.03857334, 0.10119814, 0.10435484, 0.035079062, -0.00095905364, 0.1072121, 0.08013722, -0.11041615, 0.012552187},
			{0.14965807, -0.057239424, 0.25770944, 0.46053377, -0.13090983, -0.32467815, 0.11857437, -0.06284038, 0.14875808, -0.06627584, -0.11044031, -0.18978067, 0.27402574, -0.07813997, -0.039979264, -0.1840216, -0.0006478222, -0.2923694, 0.0987244, 0.21998784, -0.14190106, 0.09544382, -0.010257423, -0.34577477, -0.27288172, -0.032192398, -0.23066024, 0.32412097, 0.22919041, 0.07311583, 0.05280013, 0.25906333, 0.31549057, -0.07360013, -0.3243206, 0.052491657, 0.04094427, 0.03581784, 0.55096954, -0.3617482, -0.11318134, -0.10977045, 0.25237247, 0.5588243, -0.010202432, -0.5335713, 0.0016612731, -0.036104888, 0.24255787, -0.30222228, -0.06563102, -0.1321086, 0.0321677, -0.15324232, 0.2339735, -0.08891733, 0.21808405, 0.31523415, 0.004563439, -0.09355068, 0.18000361, 0.1387547, 0.077419594, 0.052238423, 0.06004477, 0.027647506, -0.100737594, -0.0880282, 0.10745673, -0.2896878, 0.049630594, -0.08212044, 0.1821081, -0.10732133, 0.34755582, 0.39925107, -0.115063824, -0.14856295, 0.25030148, -0.039595727, 0.06666902, -0.022943098, 0.2665129, 0.02160094, -0.19937271, -0.011297469, 0.2705432, -0.02899126, -0.25108072, -0.034724735, -0.12662835, -0.010648461, 0.08891527, 0.13665827, -0.01237776, 0.024320163, 0.068167716, -0.39300087, -0.26598823, 0.215412, 0.1096055, 0.0623146, -0.35096395, 0.04679551, -0.1952167, -0.081235744, 0.00300881, 0.21124941, -0.26831844, -0.21902081, 0.10063282, 0.10970239},
			{0.091848925, 0.20991318, -0.052816037, 0.14772436, -0.09371939, -0.024324302, 0.11104615, -0.14010401, 0.013506468, 0.06377219, -0.08613511, 0.114386484, -0.024042826, -0.115892634, -0.051821653, -0.054486796, 0.105202906, -0.16280182, -0.009405219, -0.066702865, -0.03526106, -0.14964554, -0.093635805, 0.09299572, -0.07804623, -0.11247195, 0.05628126, 0.038470007, 0.049741946, 0.18715449, 0.07247977, -0.009590663, 0.068311825, -0.080121756, -0.01506243, 0.022348234, -0.02325358, 0.18199892, -0.29681927, -0.21045145, 0.067180365, -0.006650326, 0.0021144452, 0.05127633, -0.11264266, 0.12890144, -0.08908569, -0.044146623, 0.09937028, 0.040626913, -0.105602056, 0.10242706, 0.042601265, 0.16654572, 0.0006802131, -0.04321281, 0.10977305, -0.15741454, -0.112368405, -0.029801257, 0.06199825, -0.016908709, 0.10344837, 0.044684853, 0.09967407, 0.040846396, 0.13489679, 0.066455334, 0.007704355, -0.03859985, -0.008016891, -0.08747592, 0.097728856, -0.03839406, -0.10317822, 0.07694886, -0.10015207, -0.0102640465, -0.09443336, 0.09994083, -0.015918236, -0.106668256, -0.124329284, -0.133077, 0.060666732, 0.11188724, -0.026708925, 0.03880216, 0.0522712, 0.034176227, -0.039578676, -0.00120911, 0.054367248, -0.002918402, 0.0001768625, -0.08175999, 0.03486903, 0.13792373, -0.042231392, 0.0021246546, -0.08594341, -0.057647634, 0.15353219, -0.11377693, 0.11343421, -0.1453581, 0.062370285, -0.004836749, -0.044230454, -0.0989167, -0.112421274, 0.058437914},
			{-0.1247278, -0.080371335, -0.09173019, 0.048318807, -0.07926074, 0.0028909424, -0.12025422, -0.0015236139, 0.08526979, 0.0027869816, -0.06084752, 0.007238266, 0.021278866, -0.051326748, 0.11909645, 0.007130225, -0.09080116, 0.13095528, 0.11554381, 0.11128964, 0.095285684, -0.11340004, -0.084358804, -0.053279817, 0.019267472, 0.040710285, 0.09017998, 0.0580226, 0.045908555, 0.04654744, -0.010349859, 0.0796645, -0.07405792, 0.084419295, -0.06972913, 0.02619186, 0.012688644, 0.0030135808, -0.07514402, 0.011072919, 0.033309087, 0.08900884, -0.075740814, 0.053411398, 0.017265853, -0.09288126, -0.03289658, -0.12770443, -0.10918859, 0.07955639, -0.098568685, 0.054166056, -0.05693032, 0.014462135, 0.12719387, -0.09140254, 0.06594603, -0.0060336636, -0.0754479, -0.11900133, 0.12414872, 0.06471946, 0.09210987, 0.02870439, -0.0070118224, 0.00401615, 0.011083029, 0.120740496, -0.09148705, 0.056191117, -0.00046220422, 0.06754059, 0.101818874, 0.06663091, -0.030170716, -0.110008895, -0.029488768, -0.04556804, -0.06581134, 0.06751295, -0.10331211, 0.017466366, -0.03580993, 0.05950454, 0.06721741, -0.027493434, -0.03768912, 0.056381196, 0.03877549, -0.047002856, -0.092876375, 0.07115579, -0.030551217, -0.13871852, -0.10461524, -0.08972517, -0.017949592, -0.027274393, 0.05903732, 0.026851395, -0.055656955, 0.034831017, 0.07343705, -0.11484627, 0.044182573, 0.01987271, 0.05141163, 0.094536915, -0.046728484, 0.10812919, -0.11957465, 0.106954575},
			{-0.117147215, -0.080487385, 0.0074477047, 0.039949298, 0.0060047507, 0.085663915, 0.011387393, 0.112078145, 0.06121476, 0.00083081424, -0.06955259, -0.08713506, 0.099363744, 0.12725717, -0.100991726, 0.104778334, 0.11962062, 0.011257783, 0.10630678, -0.009464443, 0.021165386, 0.008352995, 0.04910344, 0.10979049, -0.08414626, 0.12237632, 0.054049104, -0.023417726, -0.06305856, -0.026445277, -0.110907376, 0.13287905, -0.03863378, 0.06474537, -0.047477685, -0.069176786, -0.00082589686, -0.03724598, -0.09272179, 0.03443262, 0.081290975, -0.017268196, -0.056837298, 0.13218689, 0.10830471, -0.04653103, -0.059230573, -0.12551135, 0.10410263, -0.073531374, 0.06284548, 0.040132314, 0.048072428, -0.07737197, -0.0030854791, -0.08693118, 0.08951262, 0.023635551, 0.06376608, 0.08030446, 0.020456403, -0.0677253, 0.112661436, -0.069974996, 0.12788993, -0.018499352, 0.0020925403, 0.10280636, 0.048816234, 0.09068218, 0.08677721, 0.12986362, 0.010124773, -0.022673398, -0.05657106, -0.1159885, 0.077387676, -0.0045830607, 0.06134802, 0.10255697, 0.05388935, -0.010805413, 0.0703139, -0.08485432, -0.045269914, 0.13109216, 0.119237095, -0.051259167, 0.1175141, 0.12923416, 0.034929976, 0.109473735, -0.08434601, 0.010817021, 0.07980573, -0.10552421, 0.12825546, 0.103342816, -3.4719706e-06, -0.09322011, 0.103283614, -0.087745614, -0.084452614, -0.07954939, 0.13070965, -0.076380774, 0.06901041, 0.079597875, -0.05606489, 0.089289516, 0.08600511, 0.0035257041},
			{0.14578253, 0.16663882, 0.11286445, 0.08749497, -0.075844064, 0.0049317037, -0.078461275, -0.12878631, -0.0064812084, -0.042017628, 0.085636914, 0.21513483, 0.026607327, -0.11981428, -0.120834716, 0.07859538, -0.048506886, -0.058689184, -0.06382574, -0.09669198, 0.050088905, 0.25541368, -0.09368449, -0.039563812, 0.17326169, 0.038599275, 0.092195295, -0.026918989, -0.09071973, 0.34216458, -0.101942405, -0.09814448, -0.0083016, 0.09864137, 0.028229188, -0.0738275, 0.06431776, -0.016597655, -0.2926514, -0.02359165, -0.060882907, 0.07118347, -0.10743891, -0.113858715, -0.13169447, 0.16008627, 0.050294355, -0.11379538, 0.1340704, 0.022728993, 0.04141573, -0.04417743, 0.04483701, 0.19501981, -0.04837074, -0.038962428, 0.070769235, 0.046094354, -0.13855977, 0.16757792, -0.021424249, 0.030172925, 0.1124701, -0.030121764, 0.00045230504, -0.07400546, 0.14120737, -0.09905149, -0.117609665, 0.10610275, 0.18590088, 0.00031001656, -0.062978685, 0.107792385, -0.091135204, -0.035853468, -0.10857978, -0.16228803, 0.14226688, -0.1499389, 0.116730444, 0.03900066, 0.1293227, 0.0614484, 0.04369832, 0.11585138, -0.060383588, 0.04488981, 0.22327894, 0.20187876, -0.11093537, 0.0050433674, 0.015124007, 0.07329466, -0.12528501, -0.0061503863, -0.14412197, -0.1154762, -0.080975056, -0.07720324, -0.14050107, -0.13706261, -0.0063146884, -0.12494293, -0.022252046, -0.031693738, 0.038776036, -0.09564026, -0.099357106, -0.01681735, -0.009618828, -0.089909926},
			{-0.122966014, 0.043728355, -0.091463156, -0.102461725, -0.10755591, 0.03157842, -0.07986542, -0.023008041, 0.052005064, -0.1251128, 0.063121036, 0.12124932, 0.06760748, 0.019628698, -0.06105941, 0.040295452, -0.05893513, 0.11282592, 0.03544988, 0.07107817, 0.11103912, -0.07734209, 0.051034674, -0.008762459, 0.11687733, 0.060381234, 0.027269112, -0.10299989, 0.11201443, 0.11084946, -0.030880602, -0.07063425, 0.0039337426, 0.04845336, 0.12952474, 0.000672476, -0.0054798434, -0.024932606, -0.08598685, -0.068369314, -0.0042832377, 0.011894107, -0.124472, 0.07522709, -0.031004898, 0.012930349, 0.07183531, 0.043584466, -0.08889374, -0.045316897, 0.02691926, -0.03253005, -0.10236951, 0.022750111, -0.042739525, 0.095026806, -0.101268575, -0.02268894, 0.12904307, 0.07411695, 0.023769192, -0.106899925, -0.10958702, -0.10255663, 0.05696118, 0.105485946, 0.007009014, -0.08361519, 0.09127279, -0.10371326, 0.034654543, 0.120573014, -0.0055922344, -0.12946337, -0.07497222, -0.018283024, 0.12739873, -0.03223153, 0.04819925, -0.05265937, -0.03661459, 0.09127733, 0.093825035, -0.014427736, -0.08040578, -0.051059265, -0.01947863, 0.027530253, 0.0046517407, 0.08615482, -0.050020315, -0.062196344, 0.11714959, 0.09494949, 0.04341428, -0.012252189, -0.07307918, -0.12036577, -0.014781216, -0.12220347, -0.008378699, -0.10147764, -0.0056720823, -0.100005254, 0.10760853, 0.036940355, 0.044229165, -0.060976677, -0.065157235, -0.1224747, -0.053003393, -0.06976395},
			{0.06312947, -0.026456838, -0.10094939, 0.03851384, 0.10367588, -0.062846266, -0.111123495, 0.08715771, 0.020860787, 0.0075771865, 0.010817528, -0.13225272, 0.11197266, -0.12493992, -0.087596476, 0.040775977, 0.037522815, -0.028312389, -0.05262173, 0.12728386, -0.11074739, -0.116150744, -0.10466786, 0.021946836, 0.04509074, 0.054752707, 0.10316925, -0.1327947, 0.07491806, -0.03174169, -0.012022211, -0.05838287, 0.08916733, -0.018018905, 0.014776557, 0.011301555, 0.06682941, 0.028028265, 0.009583652, -0.035464153, 0.008353773, 0.10942344, -0.06582392, 0.08861524, 0.10258527, 0.01849528, -0.11354475, 0.004754603, -0.10081052, -0.084794536, 0.050462037, -0.025671732, 0.03497487, 0.099903084, -0.041980572, 0.00089807203, 0.12448815, -0.029074207, -0.0017558336, 0.111586325, -0.12758665, -0.0045338324, 0.06627393, -0.097563595, -0.06799159, 0.10814534, -0.0053996486, -0.11193635, -0.10786749, -0.046050977, -0.002631098, 0.037450172, 0.098783225, 0.13794617, -0.04685645, 0.07649682, -0.042269237, 0.10056085, 0.047779318, 0.09465069, -0.10896908, 0.055622667, -0.11850979, 0.018625006, -0.06473376, -0.10947095, 0.06756469, -0.103309095, 0.07314157, -0.064950995, -0.1260563, 0.061903, 0.052648593, 0.10004126, -0.09030715, 0.04369241, 0.048239395, -0.11585404, 0.043143332, -0.1088706, 0.035851657, -0.11251955, 0.07349002, 0.070900366, 0.06208863, 0.11613876, 0.036760062, 0.017248048, 0.09739189, -0.023002217, -0.07960312, 0.12790638},
			{0.06293787, 0.016010309, 0.11614549, -0.064006746, 0.03596224, -0.098558664, 0.042298377, -0.13176739, -0.019808467, -0.021586135, 0.009781048, -0.087166466, -0.058189437, -0.09067185, 0.041260533, 0.038150717, 0.1143775, -0.0041356715, 0.050819557, 0.07655244, -0.06413154, -0.08350746, -0.11655266, 0.08823586, -0.028048817, 0.07329027, 0.04713981, -0.0083844345, 0.011766121, -0.061877042, 0.1157157, 0.090679765, 0.08862044, 0.020205319, -0.019129207, 0.04534127, 0.100144744, 0.0075876126, 0.021167636, 0.10557088, -0.043778464, 0.10265446, 0.12725544, -0.0412641, 0.08691813, -0.040471803, 0.042722568, -0.020854257, 0.033245176, 0.0022483617, 0.11727056, 0.07743468, 0.015663058, 0.12074348, -0.09077422, -0.09401259, -0.07268618, -0.05354978, 0.06893921, 0.04555589, 0.03645563, -0.1252963, -0.11987102, -0.027921706, 0.1192586, -0.102914035, -0.13254254, 0.08704841, 0.088499635, 0.114674374, 0.06547789, 0.090931214, -0.059825346, -0.02160405, -0.05162046, 0.02741095, -0.010936529, 0.065016, 0.071578644, -0.014777614, -0.095180824, -0.058272056, 0.025240464, 0.10318534, -0.049277134, -0.08105169, 0.015275672, -0.122178175, 0.025225436, -0.012604992, 0.1023815, -0.092477635, -0.008816648, 0.10517596, -0.1046097, -0.0892306, -0.12506798, -0.12091048, -0.06307959, -0.0792301, -0.122325465, -0.0059651434, 0.11674112, 0.014977083, 0.0011419163, -0.054575548, 0.09000742, -0.0041066543, 0.027585136, 0.087042905, -0.027839944, 0.023922786},
			{-0.12206476, -0.10930452, -0.12264223, 0.07143475, 0.030850038, 0.05877918, 0.11644654, 0.11794606, -0.023499198, 0.1289024, 0.04388234, -0.01994896, 0.10576217, -0.10869941, 0.01307404, 0.06049119, 0.062863305, 0.12126562, -0.099823505, -0.04438711, 0.07942255, -0.09537724, 0.10096383, 0.012582913, 0.124709666, -0.10299282, -0.08377135, 0.045016646, 0.12370905, -0.12891045, -0.11355839, -0.08090038, 0.1031166, 0.1235041, 0.006005898, -0.06424738, -0.043186687, 0.07803768, -0.036715217, -0.025591485, 0.12859946, 0.07442354, 0.07224131, -0.08139573, 0.06516437, -0.12956156, 0.02573359, -0.09575224, 0.05654478, -0.059845574, 0.12475702, 0.0649219, 0.06737612, 0.097368136, 0.10320924, 0.07339999, 0.054158702, 0.084519744, 0.116023555, 0.007200718, 0.10384205, -0.010528356, 0.082874104, -0.11393805, -0.081138596, -0.00014805794, -0.009478949, 0.03812127, -0.08079396, -0.05158432, -0.1262118, -0.09257472, -0.1272001, -0.06321216, -0.10476942, -0.09509699, 0.084731385, 0.05520855, 0.06714526, 0.009883389, -0.06311472, 0.005699277, 0.06888713, 0.07558377, -0.102898456, -0.061206013, -0.06656073, 0.068086594, 0.008282766, -0.05064524, 0.13314295, 0.061059296, 0.09367761, 0.08956374, -0.04928773, -0.0075226575, -0.014560111, 0.12773925, -0.07621828, 0.06249112, -0.11998564, 0.091199905, -0.09437202, -0.12539193, -0.041748084, -0.037214294, -0.070062995, -0.107454166, 0.03966607, 0.12233433, -0.06777722, -0.11252534},
			{0.12920043, 0.074807316, 0.063908786, 0.08444613, -0.07339811, 0.07612099, -0.040223017, 0.119680524, -0.054730028, 0.11630109, -0.055590466, -0.07233524, -0.040515088, 0.077086315, 0.023423985, -0.13008487, -0.057076916, 0.09122513, 0.05697365, -0.1158365, -0.037082307, -0.07268722, -0.11177876, 0.011073247, 0.07508972, -0.07596648, 0.023223132, 0.06565373, -0.0038959384, -0.1326975, -0.08713608, 0.04314746, 0.09519097, -0.028737098, -0.11144418, 0.12927118, -0.08387191, -0.06569275, -0.12229732, 0.04343985, 0.07134473, -0.05442507, -0.11382384, 0.112615466, 0.049873218, 0.10427433, -0.12562445, 0.018971771, -0.0031674653, -0.018133089, -0.09217834, 0.075721145, -0.071094394, 0.060353845, -0.11503297, 0.13304412, 0.11358823, 0.09119052, 0.091148466, -0.082047924, 0.055101186, 0.046904102, 0.024833009, -0.12047788, 0.01041007, -0.02619119, -0.063308135, -0.03389693, 0.048122212, -0.07461272, -0.09025322, -0.058702096, 0.098245144, 0.09838936, 0.001630947, -0.036665082, 0.11495128, -0.106302835, -0.08410573, 0.08415857, -0.08618571, 0.045213, 0.11835903, 5.0589442e-05, 0.09234844, 0.036884367, 0.02775605, -0.11486624, -0.080272235, 0.03980626, 0.10623062, 0.06746018, -0.019254327, -0.11279419, -0.023304753, -0.07888934, -0.08339593, -0.045660987, -0.063448526, -0.11124144, -0.10275918, -0.082300425, 0.04638195, 0.047317162, 0.035878673, -0.07987305, -0.073407084, -0.12755124, -0.13263117, 0.01697211, -0.08356784, 0.09693554},
			{0.016498204, 0.05852298, -0.013967057, 0.07517595, 0.0506144, 0.13416141, -0.064986885, -0.028089514, 0.14984399, -0.12785849, 0.10990195, 0.1726272, 0.14676313, 0.1055798, 0.027827127, -0.0002612118, -0.0016343268, 0.09268405, 0.116180755, -0.13241255, 0.0949379, 0.06544098, -0.013689617, -0.016040513, 0.10077708, 0.12145449, 0.12882142, 0.07662658, 0.038880978, 0.027358858, 0.0026579844, -0.07705134, -0.11801504, -0.13322794, -0.09295143, 0.049182154, 0.04709088, 0.1412093, -0.11809967, 0.07975058, -0.033235516, -0.034067716, -0.12747602, 0.15805082, -0.1628192, -0.15937802, -0.06817923, -0.08296311, -0.031687792, -0.09849965, -0.11808866, -0.044308126, 0.21452247, 0.105198994, -0.058099087, -0.03700804, 0.054643, 0.121553056, 0.0631398, 0.11289772, -0.10485029, -0.10521896, -0.089439526, -0.05266393, -0.1294506, 0.098265104, 0.108715035, 0.048073675, -0.16135673, 0.029704288, 0.058232628, -0.10670663, -0.09846343, 0.035399683, 0.07436749, -0.1383745, -0.08190471, -0.050074376, 0.07843929, -0.119222976, 0.16953316, -0.09613663, -0.014253474, -0.08090982, 0.06949299, -0.0045064446, 0.07658496, -0.018074056, -0.0001266808, 0.021668354, -0.10110858, 0.020973358, -0.11538563, 0.0661578, -0.05705294, -0.0026005115, -0.11324023, 0.11701307, -0.101794235, 0.08077073, -0.10658395, -0.037568208, 0.0092011215, -0.05092817, 0.03447998, -0.13460828, -0.103422984, -0.15153235, -0.122434676, -0.06933351, -0.050729077, 0.0724223},
			{-0.0052694837, -0.20054364, -0.029431242, -0.13369147, 0.033867083, -0.054538354, -0.030470317, 0.021272227, 0.078618184, 0.05497254, 0.066054985, -0.19815822, -0.03436461, -0.17203368, -0.041870415, -0.13626619, 0.10828226, 0.09257052, 0.13102561, 0.09491846, -0.15120201, -0.19512358, -0.023764184, -0.075909734, -0.16880505, -0.10920875, 0.09192349, -0.024051122, 0.021181794, -0.1692216, 0.092017986, -0.12516804, -0.03458027, -0.12587321, 0.06328857, -0.14639433, 0.06459407, -0.03819174, 0.08598503, -0.0623885, 0.08610858, -0.057274036, 0.03153287, 0.2214766, 0.046727475, -0.28708318, -0.0046989988, -0.019529518, 0.02487697, -0.06329993, -0.13435157, -0.20849054, 0.09261549, -0.118830904, -0.22167245, -0.053603366, 0.043268334, 0.23687251, -0.07202006, -0.13878267, -0.07463486, 0.20175816, -0.10167895, -0.059042577, -0.02340627, 0.041233823, -0.12764241, 0.013442114, 0.16278958, -0.10267495, -0.011341197, -0.06583731, -0.08185954, 0.14039578, 0.022629354, -0.1360145, 0.033658624, -0.16119319, -0.07380217, -0.032774407, 0.045974232, 0.11297319, 0.10299875, -0.021669267, -0.07581466, 0.14480078, -0.11552323, 0.052254256, 0.006031108, 0.0499499, -0.030656546, -0.016860187, -0.003807054, -0.08234238, 0.023743916, -0.092108816, 0.046488397, -0.102915406, 0.046729602, 0.087941326, 0.05869278, 0.032495894, -0.4063031, -0.109518096, -0.03653746, -0.14158586, -0.052033465, -0.18432347, 0.068670206, -0.022345368, -0.046304714, 0.14934833},
