#include "ap_int.h"

#define n_inputs 900
#define n_layer1 64
#define n_layer2 32
#define n_layer3 4

void hwmm_layer1(float input[n_inputs], const float weights[n_inputs][n_layer1], float output[1][n_layer1]);
void hw_act_layer1(float input[1][n_layer1], float output[1][n_layer1]);
void hwmm_layer2(float input[1][n_layer1], const float weights[n_layer1][n_layer2], float output[1][n_layer2]);
void hw_act_layer2(float input[1][n_layer2], float output[1][n_layer2]);
void hwmm_layer3(float input[1][n_layer2], const float weights[n_layer2][n_layer3], float output[1][n_layer3]);
void hw_act_layer3(float input[1][n_layer3], int &pred);
int nn_inference(float input_img[n_inputs]);


namespace weights {

	const float layer3_weights[n_layer2][n_layer3] = {{0.33830518, 0.37371302, -0.16172917, -0.15401898},
			{0.38257968, 0.041037306, -0.1756933, -0.32870704},
			{0.6644023, -0.7575876, -0.9013905, 0.72995216},
			{-0.20343482, 0.24429727, -0.8717179, 0.4888308},
			{-0.13126333, -0.3251073, 0.060695723, -0.035972502},
			{-0.3679332, -0.096451215, 0.03788702, 0.27085608},
			{0.01026501, -0.071095996, -0.5188451, -0.005169591},
			{-0.77507204, 0.24803826, 0.53324926, 0.4954513},
			{-0.44279268, 0.2145859, 0.2835221, 0.02528634},
			{0.16746573, 0.16369426, -0.52703834, -0.038342264},
			{0.39286858, -0.2078387, 0.38038418, -0.20682262},
			{0.40621537, -0.19377735, -0.07408801, -0.18988837},
			{-0.53733873, -0.07987603, 0.4546259, 0.3402037},
			{-0.26665655, 0.90880746, 0.20048991, -0.6704189},
			{0.15269883, 0.73426944, -0.79876226, 0.38426045},
			{0.08169296, 0.08974091, 0.4077647, 0.28649768},
			{0.21717128, -0.22479239, 0.20573387, 0.324332},
			{0.5384292, -0.46277702, 0.31805292, -0.3044751},
			{0.28334185, -0.5254465, -0.2761766, 0.8134687},
			{-0.8163473, 0.4838186, 0.30359897, 0.49083465},
			{-0.37601712, 0.05248298, 0.37389618, 0.28903928},
			{0.1015464, -0.7239056, 0.5757193, -0.16756219},
			{-0.4298899, 0.5099234, -0.63546723, -0.3179491},
			{0.14827152, -0.44374067, 0.17041092, -0.22214672},
			{0.6300942, -0.24262585, 0.06632785, 0.44935268},
			{0.052740917, 0.06579964, 0.2662465, -0.36699012},
			{-0.33273152, -0.5618173, -0.909865, 0.92266834},
			{-0.690235, 0.41345048, 0.06902833, 0.029868493},
			{0.3617547, -0.6112799, 0.47979197, 0.06485907},
			{-0.86554897, 0.9016251, -0.83102155, -0.14319678},
			{-0.01030113, -0.027279614, 0.26219875, -0.038051646},
			{0.06388661, -1.1698194, -0.30596903, 0.9608446}};

	const float layer2_weights[n_layer1][n_layer2] = {{-0.21391773, -0.09261304, -0.15491956, -0.104456306, 0.24365741, 0.20074415, 0.09221852, -0.2318461, -0.13169408, -0.06466985, 0.15278757, -0.05531895, 0.16046017, -0.09653348, -0.1903435, 0.18000627, 0.17110956, -0.23634827, 0.17744833, 0.1755014, 0.1926471, 0.11109835, 0.24717999, -0.0637902, 0.10777873, -0.20370084, -0.1743331, 0.2363463, 0.12841403, 0.1486665, 0.040827036, 0.06758189},
			{-0.01996398, -0.06939447, 0.068606794, -0.17368484, -0.14904797, -0.17528784, -0.15136331, -0.184273, 0.1729452, -0.04623705, -0.21002924, -0.03871417, -0.13463497, -0.2226274, -0.011919618, 0.14611644, -0.096016824, 0.20671201, 0.059819102, 0.12851727, -0.17767715, 0.20913452, -0.080919564, -0.11366612, -0.028063774, -0.11508244, -0.12254262, -0.0909884, 0.08385974, -0.08007473, 0.15847862, -0.11451},
			{-0.34251168, -0.37108013, -0.24195239, 0.04755739, 0.0040180297, -0.03844349, -0.2942997, 0.52383864, 0.57252705, -0.4070625, 0.004884583, 0.22660857, 0.59465003, 0.1888477, 0.17858426, 0.0966908, -0.06179065, -0.56103903, 0.18805103, 0.53267634, 0.39423907, 0.03254262, 0.18347727, -0.02276494, -0.69858897, -0.22004415, 0.09197373, -0.09176701, -0.23843345, 0.31251237, 0.16404092, 0.333588},
			{0.05168919, -0.10381415, 0.23472588, -0.14779478, 0.070117004, -0.14926878, -0.23981923, 0.22556758, 0.14114308, -0.1636576, 0.20259464, -0.18956244, -0.09367024, -0.18034825, -0.16070086, -0.18034922, 0.2401408, 0.052432194, 0.020644844, 0.11484045, 0.14334425, -0.08030552, 0.18529814, 0.025694726, -0.018135369, -0.009772808, 0.23745137, -0.18100053, 0.23508829, -0.17490862, 0.231462, -0.0738553},
			{-0.09900106, 0.24160644, 0.18871486, 0.22379042, -0.039116822, 0.16202503, -0.07575813, -0.20387095, -0.22846459, -0.071365714, 0.2310319, 0.057974637, -0.1139564, -0.0749228, -0.08260923, 0.0032474839, 0.17821556, -0.025476985, -0.15659834, -0.23927923, -0.22815198, 0.106447995, -0.09574763, -0.07144964, 0.10526762, -0.04729877, -0.10675788, 0.18365109, 0.06983208, -0.078959264, 0.012977898, -0.11414217},
			{-0.023737252, -0.23348618, -0.07544035, 0.022131205, -0.07770985, -0.031129003, 0.13454336, -0.1570211, 0.06851572, -0.089473546, -0.16876489, -0.051734567, -0.03020233, -0.13844699, -0.2211029, 0.11179072, -0.095122695, -0.22986472, 0.056990862, 0.070228934, -0.034180522, -0.1658839, 0.07820791, 0.22541177, 0.23071402, 0.18749839, -0.23361754, 0.028458476, -0.013779044, -0.13079089, -0.2309919, 0.120975494},
			{-0.10458043, -0.10556776, -0.10324802, 0.17684978, -0.13981803, 0.22476389, 0.21899077, -0.005723417, -0.1089743, -0.025992252, -0.044736587, 0.17938524, -0.015093919, -0.12514031, -0.2065537, 0.08911525, -0.1639433, 0.051686548, -0.21066442, 0.17071475, -0.011123448, 0.24106573, -0.15765403, -0.0381531, 0.13250163, -0.1624096, -0.09333736, -0.030936996, 0.05028322, 0.20656511, -0.2330907, -0.10871591},
			{0.033117402, -0.089944586, -0.09757205, 0.063969925, 0.13022485, -0.013515881, 0.18050419, 0.018659413, -0.037164144, 3.951788e-05, 0.01707558, 0.16541183, 0.16396916, -0.16815823, 0.18023865, 0.21686035, 0.15438241, -0.09984431, 0.04516409, 0.18431789, -0.24573302, -0.23108369, -0.050204754, 0.015604762, 0.12192184, 0.015847659, 0.1591624, 0.21540216, -0.13208154, -0.022574864, -0.14165735, 0.1674392},
			{0.13015938, -0.23792511, -0.17545277, 0.038126707, -0.18505108, -0.1552558, -0.040079713, 0.18588328, -0.18312693, 0.2195155, 0.11575878, -0.07239336, -0.15447229, -0.15247881, -0.017691493, -0.023080707, -0.14235723, 0.07852268, 0.17073035, 0.19777, -0.1612426, 0.19608963, -0.19488144, 0.02230221, -0.16409475, -0.038804293, -0.15892702, -0.10211778, -0.023011982, 0.113449395, -0.24275911, -0.030685127},
			{-0.026947737, 0.19712657, -0.16650975, -0.2451421, -0.22930062, -0.21581614, -0.07681078, 0.1041581, -0.10848099, -0.11468953, -0.13884526, 0.017503083, 0.13953942, -0.031212628, 0.22931463, -0.16239691, -0.12201965, -0.0153185725, 0.0023221374, 0.03380519, 0.02649331, -0.16244233, -0.22068578, -0.07529992, 0.15261406, -0.16688341, -0.043937385, -0.17224538, 0.163769, -0.13420999, 0.2193628, -0.13064587},
			{0.22073781, -0.040403724, -0.05968499, 0.05057901, -0.19585246, 0.049078643, 0.24223936, -0.08091611, -0.24971867, -0.1103968, -0.033358216, 0.2411319, 0.23264992, -0.17360473, 0.24669904, -0.066037536, 0.16841179, -0.1018033, 0.16096467, -0.20379013, 0.22467548, 0.103661776, 0.1677841, -0.22464967, -0.10226673, -0.07852322, 0.040609956, 0.113776386, 0.20265836, 0.115347445, 0.040017188, 0.034337103},
			{0.25674385, 0.2585693, 0.29799205, -0.75914, -0.2081228, -0.11318868, 0.23413827, -0.4945658, -0.3591334, 0.19533093, -0.04817003, -0.023650587, -0.17546302, -0.12923397, -0.27201328, -0.20919329, -0.25013846, 0.4784343, -0.0683509, -0.7911514, -0.21529259, 0.16651587, -0.07778345, 0.46635327, 0.62020296, 0.03894703, -0.115166984, -0.12451315, 0.36227098, -0.41908628, 0.14476377, 0.70779747},
			{-0.17102723, -0.032388546, -0.11586584, -0.057602167, -0.060112253, -0.078146525, 0.05545035, 0.115305126, -0.18587993, -0.102009594, 0.13893045, 0.22236526, 0.06303687, -0.19974335, 0.063759185, -0.21448794, 0.025478244, 0.22677588, 0.0130877495, 0.02835381, -0.17426303, -0.07175982, -0.1209262, 0.049051166, -0.17101657, 0.077142075, -0.13796997, -0.15858613, 0.07574993, -0.08162962, -0.20676023, 0.09291716},
			{0.04445934, 0.19813015, 0.13664868, -0.2320655, -0.06294221, 0.016393483, 0.15654719, 0.14449644, 0.0064066113, 0.22786605, 0.22620836, -0.120257854, -0.011914519, -0.1635949, 0.22086489, -0.0999257, -0.23956883, -0.07212651, 0.0893302, -0.09317446, -0.13744587, -0.20191675, 0.058393538, 0.090847194, 0.22299945, 0.07555932, -0.057679117, -0.18059838, -0.19425398, 0.05956329, 0.14712226, 0.13882554},
			{-0.2179789, -0.2255498, 0.24477372, -0.028178215, 0.09509475, 0.23849565, 0.13947143, 0.04467058, 0.055910025, 0.011442661, 0.18143316, -0.11076224, 0.053987537, -0.18633704, -0.22545767, -0.18219477, -0.15284204, 0.18568957, -0.19004273, 0.13313442, -0.0006536754, -0.09476131, -0.06476033, -0.12222297, 0.18146825, 0.17987955, 0.10590458, -0.02288468, 0.03770399, -0.17096284, 0.14988351, -0.13723445},
			{0.20335531, -0.11669606, -0.17009246, -0.23583126, 0.21998835, -0.04479754, -0.018514097, 0.15058684, 0.09407097, 0.08964491, -0.23099875, 0.14806741, -0.09111035, 0.05976087, 0.17156196, -0.06344855, -0.071597874, -0.1345694, 0.09448713, -0.017263353, 0.16810173, -0.14357793, -0.042282045, -0.0020477176, 0.007988334, 0.15876102, 0.063247144, -0.09212768, 0.22827774, 0.24588007, 0.20817173, 0.093304396},
			{-0.5263915, -0.083960205, 0.4757709, -0.02025262, 0.09591677, 0.21256351, -0.06610515, -0.23953824, -0.22204477, -0.40828216, -0.1702647, -0.08181304, 0.13213703, -0.6450439, -0.3196885, 0.08589139, 0.23362835, 0.3022459, 0.17202394, 0.08534824, 0.1508231, 0.49960953, -0.5480661, 0.14663245, 0.5516349, -0.2023673, -0.041663926, 0.18229017, 0.414445, -0.5840958, 0.24276574, -0.34179968},
			{0.12896363, -0.093029566, 0.110573776, 0.053564698, -0.20705526, -0.23752539, 0.13253622, 0.17938423, 0.12100711, -0.04112807, -0.21007265, 0.08806217, 0.22723804, -0.15311682, 0.20318301, -0.24680531, -0.011242084, 0.25094953, 0.23754208, 0.27379045, 0.24684882, 0.0042693242, -0.2073368, 0.1308078, 0.11957914, 0.07061686, 0.29686403, -0.25830847, 0.2874318, 0.009796525, -0.11992899, -0.0041476316},
			{0.06855247, -0.030703317, -0.20423761, 0.1055092, -0.2208141, 0.17273572, 0.2434078, 0.31725603, 0.021487199, 0.008754596, -0.1744813, -0.15562749, -0.07495936, -0.050804887, 0.10082323, 0.04883061, 0.20914565, -0.018226294, 0.14016074, 0.3299739, -0.06778044, -0.025439765, -0.13087532, 0.19480225, -0.04410096, -0.121846065, 0.13039182, -0.22249351, -0.046404403, 0.19837391, -0.19279177, 0.4361142},
			{0.19810244, 0.016696135, -0.16883662, -0.046539087, -0.06251736, 0.11309025, 0.047957823, -0.07506168, 0.24565989, 0.0013149547, 0.0012025854, 0.048041582, -0.030252172, 0.21101367, 0.21935612, 0.1395751, -0.011631072, 0.13295041, 0.1824322, -0.09354171, 0.14406721, -0.2336836, -0.051945318, 0.094374, 0.20572712, 0.23525265, 0.13769186, 0.20068583, 0.17607036, -0.008821345, 0.090951025, 0.23006195},
			{0.22535855, 0.17399734, -0.09912467, 0.0307312, -0.15431014, -0.013184473, 0.13050285, -0.21442686, 0.12729579, 0.1681508, -0.17717083, -0.2461949, 0.10213504, 0.080783546, 0.20383196, -0.23996237, 0.20661533, 0.16568473, -0.10471258, -0.12908104, 0.1839233, 0.11893558, -0.24586226, 0.08491584, 0.25557137, -0.221594, 0.10719104, 0.21478747, 0.16430303, -0.23907341, -0.15139064, 0.1748331},
			{0.23974258, -0.084480226, 0.22200233, 0.13933903, -0.21328002, -0.2473039, 0.1399203, -0.070602536, 0.114573896, 0.2284733, -0.17048466, 0.22498316, 0.18435824, -0.09378052, 0.056295753, -0.1284967, 0.14104825, 0.20502102, -0.15256536, 0.13631064, -0.14062995, -0.07410717, -0.055283368, 0.2234739, -0.14806795, -0.0049167275, 0.02276373, 0.22669232, 0.16558552, -0.100468695, 0.21848148, 0.12731618},
			{-0.22816306, 0.057824314, -0.06624806, 0.11184955, 0.0054557323, -0.11814302, -0.12400395, 0.038954318, -0.18933803, 0.15955192, 0.20519924, 0.07228923, 0.1238364, -0.06509501, -0.19317871, -0.12411076, 0.11749977, 3.1232834e-05, -0.027606368, 0.14425671, -0.097712934, 0.14634484, -0.02623421, 0.07590455, -0.108808935, -0.06789696, -0.069678485, -0.14057815, -0.15613198, -0.12284058, -0.055149376, 0.17279136},
			{0.13877548, 0.0485773, -0.23833632, -0.07334238, 0.22521831, -0.13625024, -0.051912542, 0.10843521, 0.12964895, 0.0971185, 0.08039689, 0.16424608, 0.11959902, 0.12272982, -0.072300345, 0.012540519, -0.15065634, 0.20227163, 0.12171298, -0.045040846, 0.016637513, -0.14453435, 0.07975078, -0.102940306, 0.2312501, -0.14482178, 0.20509577, 0.10812254, 0.16240406, -0.11780855, 0.07352638, -0.23361515},
			{-0.07963612, 0.18700437, 0.2098332, 0.089630455, -0.17569494, 0.20003863, 0.14416547, 0.010210872, 0.078341864, -0.22304934, 0.19975178, 0.0059506297, 0.23944439, -0.018973097, -0.020140234, -0.10047498, -0.050698392, -0.21768011, -0.22627766, 0.037893675, 0.16069883, 0.11088788, -0.21453092, 0.008506027, -0.18518296, -0.08962439, -0.18450725, 0.001091989, -0.181237, -0.067112066, 0.072763145, -0.18430153},
			{0.26955178, -0.26478362, 0.6181365, 0.5130348, 0.05068234, -0.15512797, 0.72421926, -0.14187534, -0.44321674, 0.41546512, 0.067677416, -0.030672431, -0.07509122, -0.37870124, 0.5207992, 0.048748825, 0.22932029, -0.2643172, -0.25168353, 0.26730046, -0.2384469, -0.3549585, 0.052327346, -0.38342348, 0.65367645, 0.13146545, 0.64475703, -0.2160553, -0.14309792, 0.3082377, 0.102474995, -0.23696904},
			{0.059841275, 0.20800751, -0.1936844, -0.08170086, 0.12872148, 0.17078447, -0.21124345, 0.01027149, 0.054968953, -0.19680828, -0.1988666, 0.11438888, -0.24879706, -0.11371344, -0.12420231, -0.21544069, -0.07941097, -0.20916885, -0.121546626, 0.03247392, -0.10364175, -0.03483659, -0.060856104, 0.23554164, 0.0007237196, -0.085351944, 0.19926971, -0.1688624, -0.13085902, -0.02970612, -0.10396731, 0.054876506},
			{0.09461125, 0.04056903, -0.08420648, 0.032008514, -0.13202721, -0.17214742, -0.0022865878, 0.28638235, 0.18311709, 0.19071372, -0.019768849, -0.11365551, -0.21069254, 0.34928158, -0.21446599, 0.041737106, -0.2360743, 0.25314203, -0.22958368, 0.020746611, 0.1307403, -0.13458821, 0.20175473, 0.18731205, -0.0049187876, -0.15832877, -0.28901923, -0.25387385, 0.1715036, 0.19619101, -0.050513655, -0.3353961},
			{0.5405446, 0.35906687, 0.3325138, 0.15218604, -0.05827531, -0.21071851, 0.5045243, -0.37445292, -0.27144936, 0.6809144, -0.03621837, 0.20911247, -0.6342687, 0.28657824, 0.95377177, -0.023263585, 0.062268857, -0.09872653, 0.0048669246, -0.081668064, -0.42348748, -0.50774896, 0.71550196, -0.33689636, 0.017362466, 0.043268494, 0.13126975, -0.07172651, -0.66471523, 0.36787274, 0.013310287, -0.4768449},
			{-0.24648355, 0.23399633, -0.027677305, -0.11814386, -0.10349918, -0.17058778, -0.12615155, 0.2386887, -0.048416458, -0.031582713, 0.027930591, 0.0025862455, -0.17165203, -0.13857737, -0.18632054, -0.07597953, 0.062213957, -0.17221916, 0.03107208, -0.17397177, -0.17951888, -0.21597564, -0.11540592, 0.16330466, 0.16340643, -0.10357978, 0.18370098, -0.046131633, -0.027455866, 0.19250867, 0.046256065, -0.01761508},
			{-0.20263483, 0.11256177, -0.08981174, 0.15287991, -0.016188143, 0.14098705, 0.14789775, 0.23015949, 0.090163715, -0.09492212, -0.020006696, -0.12099832, -0.17791969, 0.039449975, 0.07376121, -0.13697353, 0.23698162, -0.046605825, 0.22360982, 0.24550682, 0.001071058, 0.1283962, 0.15193436, 0.03354218, -0.13976873, 0.057534043, 0.198929, -0.059368815, 0.20235628, 0.11253534, -0.16851938, -0.034322795},
			{0.08896332, 0.14910719, 0.032597497, -0.049024127, -0.02448512, 0.10060312, -0.111405104, 0.024278581, 0.004995683, 0.04744511, 0.13898088, -0.0836879, -0.022621727, 0.0133964885, 0.10266057, 0.09790282, -0.05470532, -0.041771755, -0.16376798, 0.23834571, 0.016800623, -0.102518246, -0.1160436, 0.23008831, 0.15525128, -0.16792537, -0.00225842, 0.17055565, 0.052057233, 0.21890756, -0.049529076, 0.19091763},
			{0.033666708, -0.108523406, -0.3657003, -0.3360048, -0.1953341, 0.15855452, -0.21886434, 0.23182155, 0.5474489, -0.018892642, -0.13681373, -0.1930595, 0.38832712, 0.304073, -0.104429506, -0.14672965, -0.18956028, -0.34877187, 0.027780006, 0.23458633, 0.42511895, -0.1491207, 0.28403762, -0.06164728, -0.7265479, -0.10183013, 0.1423123, 0.61886805, -0.12193912, -0.13751337, -0.23642954, 0.5899366},
			{-0.17413878, 0.16181195, 0.24077812, 0.18647282, -0.09802126, -0.06139912, -0.22611843, 0.16623086, 0.042475287, 0.027776998, -0.18045168, -0.066489995, 0.06748824, 0.21875504, 0.07431649, 0.11540174, 0.20443538, -0.05126284, 0.111181796, -0.044365272, -0.2205552, 0.19678496, 0.04463118, 0.18897745, -0.22685742, 0.16857094, 0.0955308, -0.13453494, 0.03838696, 0.23480164, -0.15448505, -0.20773253},
			{0.11725936, 0.13335975, -0.22824775, 0.22947538, -0.11245112, 0.12070701, -0.19336484, 0.107910395, 0.13101277, 0.13938713, 0.16514596, 0.19457293, 0.00579572, -0.024427462, -0.07316858, -0.24914674, 0.078075826, 0.21157718, 0.01782912, -0.042980194, -0.1348493, 0.18694776, -0.1940164, -0.23676984, -0.20408708, -0.12791522, 0.05091828, -0.18250734, 0.1895343, 0.0053548007, 0.0049893856, 0.11994664},
			{0.20925443, 0.31305265, 0.43908724, 0.5901228, 0.023032345, 0.03407458, 0.6915071, -0.3253178, -0.53992397, 0.4844017, 0.08481996, 0.14124632, -0.15039451, -0.1883085, 0.09293226, -0.05871716, -0.08080525, -0.29467526, 0.26935565, -0.10726808, -0.046012577, -0.27393648, 0.23343194, -0.18477172, 0.25734532, -0.06721124, 0.34189647, -0.0779806, -0.17409022, 0.30946952, -0.14267343, -0.17353868},
			{0.036046803, 0.22141355, -0.18098313, -0.048839808, -0.10698402, -0.12888753, -0.19179004, -0.12566304, 0.24912071, -0.1953072, -0.052263856, 0.18063045, 0.1471932, 0.20602304, 0.2336815, -0.11629975, 0.24733269, -0.033863842, 0.22265953, 0.17597193, -0.12800801, 0.1594075, 0.101159394, 0.16441488, -0.087623596, -0.17735654, -0.014241636, -0.043297052, 0.077543795, 0.14469022, 0.22528523, 0.16997135},
			{-0.14466546, 0.06513104, 0.10171455, -0.16012825, 0.23336725, 0.0591053, 0.21708074, -0.08723987, -0.059830822, -0.23491429, 0.02658478, 0.0070526004, -0.15904121, -0.11792071, 0.14819495, 0.13871382, -0.085394524, 0.05003774, 0.06647202, -0.112052925, -0.17805357, 0.1163616, 0.061296094, 0.07221573, -0.20180859, -0.07493039, -0.22499861, 0.21338528, -0.18362808, -0.13257447, -0.07533276, 0.21612585},
			{0.1576488, 0.19804466, 0.09664181, -0.15710422, 0.012703477, 0.13289979, 0.20162806, 0.1263501, 0.14300393, 0.24610253, 0.0862947, -0.07878786, 0.053852502, -0.14603853, -0.18811955, 0.24292965, -0.029680481, -0.108787015, 0.023531077, 0.15814202, 0.19653225, -0.10187025, 0.08065632, 0.13239875, 0.24170327, 0.19156939, 0.15780455, 0.17010143, 0.0838149, -0.08822711, -0.14475244, 0.04030307},
			{-0.00031681845, 0.012785988, 0.13671342, 0.056782126, 0.14197133, -0.15334344, -0.0590422, 0.21671778, -0.24333172, -0.081594825, 0.19076194, -0.124878585, 0.03993913, -0.005598775, -0.17464656, -0.0065475316, -0.06204492, -0.1284163, 0.22744364, 0.14716345, -0.10914111, 0.09531522, 0.24555069, 0.025326569, -0.06266284, 0.18312831, -0.14616191, -0.05024153, 0.062395453, 0.213523, -0.08987796, -0.05692898},
			{0.06360731, 0.076876916, 0.019157497, 0.045756847, -0.20410652, 0.033338986, 0.15583256, -0.202582, -0.058342095, -0.23456162, 0.1694282, 0.08710301, -0.008923623, 0.059454035, 0.08956356, 0.15786232, -0.062028382, -0.07916353, -0.2180211, -0.056050915, -0.07432186, 0.14323723, 0.14485522, 0.19259425, 0.07714782, 0.16938902, 0.22863168, 0.064375244, 0.050804086, 0.051461793, 0.15604615, 0.16110589},
			{0.27562958, 0.19698356, 0.083542936, -0.30111542, 0.16222945, -0.12736462, -0.24044386, -0.33757356, 0.24899489, -0.23646103, 0.07218062, 0.062461138, -0.16702199, 0.16733979, -0.2216628, -0.19179446, -0.20043267, -0.028559947, -0.3458389, -0.06539295, -0.15811878, 0.068505265, -0.17028469, 0.27998778, -0.13965636, 0.17162216, -0.39408937, 0.25806734, -0.12947427, -0.3206331, -0.24334875, -0.28909215},
			{-0.2403605, 0.07223532, 0.23069225, -0.20734721, -0.18395555, -0.2026686, -0.20504916, 0.037457645, -0.097043864, -0.21006085, 0.055307895, 0.1863696, -0.25135466, 0.13512236, 0.08339892, 0.08438921, 0.15996349, 0.12822992, -0.085267745, 0.06814175, -0.030382011, 0.037144244, 0.21305536, 0.15378283, -0.118045785, 0.053034417, 0.2155881, -0.033770878, 0.19711424, -0.10987164, 0.027192235, 0.06792576},
			{-0.17486334, 0.12596422, 0.11735946, -0.10643309, 0.23324186, -0.2375992, 0.16794288, 0.15382934, 0.20327348, 0.1528663, -0.029168963, 0.19657272, -0.11805183, 0.18040097, -0.14407247, -0.12405723, 0.23480642, -0.13577873, 0.025015593, 0.0057353973, -0.08672547, -0.007768512, -0.23304152, 0.013823688, 0.09735972, -0.14164698, -0.18057966, 0.09549993, -0.080578685, -0.09050268, -0.24378008, -0.073660314},
			{-0.1515778, 0.18320763, 0.13896874, 0.074558996, 0.21107294, -0.074261874, -0.19860913, -0.15641458, 0.20453309, 0.11536403, 0.04979316, -0.18766737, 0.07655438, 0.11575802, 0.010928224, 0.09403073, 0.2288166, 0.18841952, 0.103257895, -0.041479055, 0.022260735, -0.24191007, -0.1465381, -0.0031327964, 0.03648886, -0.23136535, 0.10162419, 0.13185747, 0.23642685, 0.18627466, -0.08984965, -0.2412031},
			{-0.06306117, -0.10239671, -0.08445112, 0.24944311, 0.19026494, -0.018366857, -0.19870393, -0.12512589, 0.09267553, -0.14007752, 0.05956206, -0.094029605, 0.22666627, 0.033958167, -0.08728205, 0.2298243, 0.053376134, 0.12038867, -0.22557788, 0.1060735, -0.13935576, 0.19423264, -0.15948656, 0.22591738, -0.12918454, 0.002668573, -0.06340748, 0.24906565, -0.03404277, 0.123100735, 0.072758675, 0.21995142},
			{-0.18430048, 0.11436175, -0.12289016, 0.1682058, 0.05816194, -0.09522292, 0.20627421, 0.1435543, 0.33566087, 0.17066133, 0.019182714, -0.014183462, 0.3444931, -0.17186902, -0.22760276, -0.19986671, -0.22662936, -0.18871185, -0.25014418, -0.035654675, 0.27276188, 0.12082257, 0.1975582, 0.075785995, -0.16643925, 0.19898948, 0.043024343, 0.13716596, -0.03846863, 0.17561695, 0.071104094, 0.10955018},
			{0.18112881, -0.023688788, -0.025765777, -0.07207455, 0.06498952, -0.11467372, 0.24498418, 0.22723192, -0.009293443, 0.24302387, 0.16609894, 0.022988021, 0.08383071, 0.07996101, -0.22838813, 0.10791466, -0.075411625, -0.25747916, -0.23720029, -0.21087348, -0.0024915389, -0.049886577, -0.009390537, -0.13511942, 0.21273798, -0.22377086, -0.23087904, 0.032760113, 0.1416995, -0.1781277, 0.14951289, -0.024548573},
			{0.042140782, -0.03304869, -0.14781499, 0.1357252, 0.1331824, 0.026338875, -0.0843482, 0.08050287, -0.14149624, -0.086229324, -0.12080532, -0.090526044, 0.0371809, -0.19008851, -0.15890157, -0.047095, 0.059546232, -0.1223585, -0.029408157, -0.14685977, 0.054029763, -0.24268192, -0.054268003, -0.032094657, -0.089534044, -0.078529954, 0.19698411, 0.17936808, 0.24189174, -0.15592366, -0.18748873, 0.11163473},
			{0.10394248, -0.080484845, -0.068827555, 0.38584855, -0.2367419, -0.13021639, 0.138322, 0.05042005, 0.22410508, 0.1656291, -0.17672013, 0.0039811134, 0.020751482, 0.24798472, 0.61014616, 0.19504517, 0.17190458, -0.5290358, -0.13017224, 0.22267656, -0.15258054, -0.417326, 0.46823555, -0.587887, -0.33657226, 0.20648916, 0.1689896, 0.57982236, -0.5411953, 0.09791974, 0.09435736, 0.16385704},
			{0.31882167, 0.33954084, 0.33842465, 0.048075028, 0.09416282, -0.19635989, 0.37684554, -0.17887917, -0.12623607, 0.15895426, 0.17161554, -0.13880706, -0.14815038, -0.020735776, 0.395252, -0.11109925, -0.2474806, -0.015875384, 0.05167977, 0.09914817, -0.10803301, 0.029587492, 0.337278, 0.0063582617, -0.06675497, -0.22539787, 0.06574275, -0.091647744, -0.15405032, 0.27625954, -0.12286404, -0.4417431},
			{0.1199469, -0.0798813, 0.04209643, -0.094911516, 0.19072585, -0.06453828, 0.11696416, -0.007775724, 0.22766879, -0.15143926, -0.25317097, -0.21367633, 0.23515235, 0.22028856, 0.0014989498, -0.23367089, 0.23286785, 0.1889094, 0.20077105, 0.013373739, 0.1964422, -0.21100211, 0.18618296, -0.10250696, 0.023504674, 0.22601539, -0.157228, 0.078103185, -0.22145994, -0.022750016, -0.13215703, -0.069396526},
			{-0.15454859, 0.22924739, -0.14456558, 0.07600629, 0.1806072, -0.169177, -0.15608352, 0.18812984, 0.23588705, -0.03302318, 0.19149828, -0.077881515, -0.2314893, 0.15344238, 0.23198813, -0.049575627, 0.15572268, 0.094679534, 0.20898098, -0.0073280334, -0.12841171, -0.019267201, 0.022020578, -0.09823847, 0.02694565, 0.018725455, 0.008275628, 0.15835804, 0.02923131, -0.15290052, 0.23781222, -0.08161348},
			{0.06988331, -0.10965678, -0.08760239, 0.07016915, 0.1736386, -0.18223728, 0.08176252, 0.24776155, 0.0816923, 0.24789226, -0.006599988, 0.18107533, 0.043575205, -0.13712418, 0.12392163, -0.06412604, -0.052879572, 0.24743295, 0.22123861, 0.057987273, -0.22709624, 0.049399495, 0.23035002, -0.109321766, 0.056703687, 0.00078612566, 0.050168216, 0.16211493, -0.19613647, -0.22879253, 0.059255064, 0.20849258},
			{-0.0020255332, -0.09733444, 0.23857065, 0.06833339, 0.22941117, -0.020304812, 0.050117083, -0.21172541, 0.09452707, 0.12266654, -0.16305767, -0.17433125, 0.1507678, 0.15218356, -0.22536671, -0.053865373, -0.09899402, -0.05807619, -0.023779392, -0.074071765, -0.14822927, 0.09772867, -0.15284526, 0.21349007, 0.20658422, -0.046466853, -0.055723727, -0.08648313, 0.20384759, 0.16811703, 0.1577549, -0.19721663},
			{-0.23101664, 0.10359435, -0.115419164, 0.18294016, 0.17361872, 0.016337728, 0.067619756, 0.024102375, 0.006409155, -0.22789136, 0.04114983, -0.17990333, -0.10753651, 0.033174023, 0.21646476, 0.036348753, -0.09648271, -0.14537713, 0.037024565, 0.07313007, -0.06695621, -0.216224, -0.19177979, 0.22808795, 0.1375629, 0.1366881, 0.12080625, 0.20691228, -0.24109906, 0.07521887, -0.19994211, -0.044978596},
			{-0.23761022, -0.08338058, 0.12424916, -0.22269845, -0.04322809, -0.010959566, 0.13253587, 0.086518645, -0.110795975, -0.035324156, -0.030766308, -0.17074478, -0.115964055, -0.07320839, 0.12610567, -0.17335814, -0.07452834, -0.13230222, -0.2418251, 0.15158242, 0.2446698, 0.08256143, 0.07621366, 0.131872, -0.0565477, 0.14078975, 0.22832572, -0.11362296, -0.17080587, 0.16802835, -0.2156167, 0.16507262},
			{0.15189332, 0.19906698, -0.057610627, 0.19797872, 0.13025233, 0.09932271, 0.06296263, -0.006927887, 0.20822175, 0.084417306, 0.046810158, 0.13282824, -0.05542193, 0.2259077, -0.11933464, 0.24819589, 0.22057192, 0.10820973, -0.2674828, -0.2407924, 0.21959415, 0.01743105, 0.06322296, -0.14865158, 0.06817293, 0.09483266, 0.033006098, 0.32903162, -0.09240494, 0.34341353, 0.17244413, -0.141805},
			{-0.0736568, -0.23482357, -0.05121351, 0.03094809, 0.105258696, 0.00282795, -0.09767153, -0.1743565, 0.10261669, 0.013249064, 0.23908496, -0.020174026, 0.09616793, -0.026329847, -0.1808027, -0.08856635, -0.04181754, -0.059398726, -0.17705303, -0.18905511, 0.16261628, -0.1913072, -0.16765241, -0.10393168, -0.1774379, 0.027983071, -0.22735104, 0.05373392, 0.16459996, 0.03914803, -0.15291059, -0.251044},
			{-0.14399514, -0.09596089, 0.2720591, 0.18016261, 0.076126784, -0.22570768, 0.13948867, 0.3061799, -0.03863108, -0.1250563, 0.005752524, 0.12685627, -0.08612119, -0.29278898, 0.30499166, 0.052081186, -0.13406034, 0.020854829, 0.20318712, -0.043658774, 0.22695841, 0.060112774, 0.13904624, -0.13280189, 0.27336636, 0.22781502, -0.055168584, -0.42575437, 0.23641725, 0.039571866, -0.19094732, 0.29907292},
			{0.324292, 0.17801477, -0.6668258, -0.031146906, -0.22704066, 0.054985214, -0.06422487, 0.044175826, 0.48410738, 0.11765795, 0.114837654, -0.20326835, 0.09399571, 0.58461356, 0.43101814, 0.077383496, 0.0053003444, -0.16240142, 0.100479625, 0.597277, 0.13374189, -0.2752116, 0.25107574, -0.12200286, -0.8513762, -0.10787137, -0.5725513, -0.13871503, -0.19064167, 0.5505184, -0.24288335, 0.08827142},
			{-0.025115063, 0.19997889, -0.103323184, -0.11002048, -0.037106436, 0.0386012, 0.2436679, -0.23550338, 0.024882924, -0.237497, 0.028260905, -0.17540854, 0.20822842, 0.09489848, -0.17335926, 0.05383975, 0.0116660725, 0.21105814, 0.19732371, -0.13812207, 0.018268766, -0.05935474, 0.061597988, 0.15537173, -0.13725127, -0.0494655, 0.021265648, -0.033632055, -0.08446998, 0.08677878, 0.103940606, 0.022517085},
			{-0.13298553, -0.2399562, 0.12450725, 0.10427129, 0.02611506, 0.019907534, 0.0605098, -0.19099092, -0.109839976, 0.20696753, -0.0013492107, 0.056056857, 0.16982323, -0.11801857, -0.23624426, 0.024874985, -0.14404273, -0.028569937, -0.18526298, 0.05247128, 0.14959258, -0.12611747, 0.12819791, 0.15286338, 0.21063787, 0.118206024, 0.15662986, 0.017169356, -0.04791546, 0.14965045, 0.11926448, 0.19794154},
			{0.049570438, -0.0929719, 0.10648681, -0.2012171, -0.053499106, -0.019120168, -0.1219778, 0.070235126, 0.028173933, -0.0057729096, -0.13303654, -0.0100771785, 0.11601949, -0.121262185, -0.30356452, -0.18762836, -0.21216924, 0.35621783, 0.10625299, -0.0200526, 0.18283735, 0.3885674, 0.0819483, 0.2002777, 0.0532247, -0.19648871, 0.0044149766, -0.06502024, 0.19943038, -0.22925226, 0.109150134, -0.1289259}};

	const float layer1_weights[n_inputs][n_layer1] = {{-0.009630613, -0.06457026, 0.1031117, -0.05517755, -0.017320892, -0.0057314634, -0.005958753, 0.015225683, 0.028081566, -0.020989273, -0.057370003, -0.105552904, -0.053947218, 0.031259052, -0.069812134, 0.013299555, -0.021423917, 0.030885907, 0.027143247, -0.03967385, -0.0066551394, 0.041387834, 0.06697486, -0.04912352, 0.052774213, -0.017331518, 0.03448776, 0.16192555, -0.10749197, -0.07155617, 0.06053621, -0.073509, 0.0009528772, 0.024816096, 0.009383479, 0.032331914, 0.042006426, -0.033743516, 0.07097508, 0.022578433, -0.08370921, 0.045055915, -0.07376274, 0.051183507, -0.018950863, -0.033180267, 0.10620493, 0.059646346, -0.05025623, 0.03634297, 0.010407741, -0.020753542, -0.068160824, -0.03368253, -0.062491428, -0.053944238, -0.05619424, 0.041867223, -0.07328844, -0.06482292, 0.081105664, 0.064185835, 0.038301572, -0.042202465},
			{-0.0039014444, 0.043612853, 0.029506698, 0.07032624, 0.0515839, -0.029160082, -0.0650606, 0.049287986, -0.06486085, 0.059051365, -0.015120864, -0.11690737, -0.00728011, 0.057908483, -0.010411925, 0.061432406, -0.12803663, 0.014973988, 0.041125264, -0.010726464, -0.06001443, -0.026418805, 0.077744484, 0.009735886, 0.05623612, -0.04053011, -0.05959133, 0.028997473, -0.010782089, -0.0563915, -0.067146905, -0.008573301, 0.077930525, -0.052612014, 0.037304405, -0.076394975, -0.052903295, -0.011292744, 0.06809221, -0.040080536, -0.0705745, 0.095266335, 0.0055218693, 0.056494102, -0.047529384, -0.01391866, 0.09568695, 0.007844847, 0.030209705, 0.107577674, -0.060751896, 0.078450635, -0.018802539, 0.044499956, 0.016492164, -0.048397087, -0.031020869, 0.08607395, 0.03137346, 0.02188906, 0.04661958, 0.014045729, -0.067692995, 0.025931992},
			{0.052573442, -0.06364512, 0.0961504, -0.010731297, 0.039172124, 0.05530621, 0.04175786, 0.036628377, -0.060848027, -0.029533695, 0.07435468, -0.123679005, 0.04901269, -0.02471007, -0.07705513, 0.044879407, -0.071986936, -0.07495177, 0.04999034, -0.029600209, -0.109876715, 0.004741363, 0.001333572, -0.077941716, 0.013707407, 0.008409532, -0.015716366, 0.100425884, 0.003839192, -0.028908588, -0.06758097, 0.063169226, 0.09085237, -0.033471037, -0.017640732, -0.018673016, 0.015014008, 0.010534668, -0.02698159, -0.030884447, 0.0035050556, -0.030367259, 0.059716504, 0.06586464, -0.07186801, -0.05754791, 0.08202478, 0.045104254, -0.03972139, 0.063533284, 0.0069580236, 0.046138607, -0.056234322, -0.05328255, 0.0019978702, 0.01840101, 0.036492214, 0.03569788, 0.059465848, 0.075117804, 0.04666506, -0.04341223, -0.07607227, -0.03290648},
			{0.06029497, 0.07077499, 0.16445571, -0.040526487, -0.04282288, -0.0069531575, 0.055436194, -0.013658967, -0.032652404, 0.039801933, -0.0019122288, -0.14369738, 0.04011611, 0.06152851, -0.07597121, 0.06157756, -0.019029817, -0.0151151465, 0.042326685, 0.012655321, -0.023395084, 0.075820446, -0.027443133, 0.017296335, 0.055790637, -0.009274529, -0.0019909292, 0.029775914, -0.06474966, 0.070134774, 0.026672428, 0.009663253, 0.045447163, -0.005725333, -0.03197564, -0.04803396, -0.07003087, -0.008836544, -0.03190173, -0.057025645, 0.058631543, 0.03835302, 0.03554564, 0.07008767, -0.057578772, -0.028021809, 0.1007969, -0.0030526477, 0.04645212, -0.004415544, 0.0018403517, -0.059255864, 0.023342155, 0.07134752, 0.019611815, 0.040585928, 0.028744414, 0.08723786, -0.008029667, -0.062195033, 0.07522743, 0.039466813, 0.052848026, -0.05686965},
			{0.022603318, 0.05026661, 0.015459134, -0.035296943, 0.06241829, 0.05194141, -0.03333948, 0.016989961, 0.004726842, 0.02717854, -0.069335386, -0.04386539, -0.0044426266, 0.061030343, -0.059435047, 0.0129387155, -0.087528236, -0.09938509, -0.05251858, 0.046126924, -0.020853614, -0.023999639, -0.040952507, 0.030271916, 0.0012725113, -0.08191958, -0.07543179, 0.0699314, -0.0055794353, 0.013153226, -0.067748435, -0.031290352, 0.04373627, -0.034767568, 0.0662081, 0.07138781, 0.057286635, -0.047762323, -0.008652832, -0.073574886, -0.017985214, -0.02963514, -0.034063067, -0.023895964, -0.053496107, -0.07345174, -0.03406395, 0.04776083, -0.03867485, 0.10055277, 0.01540653, 0.07153718, 0.031557187, 0.06613499, -0.02787872, 0.052363507, -0.02921066, 0.0047416864, -0.050567523, -0.014718317, -0.0048829573, 0.05445806, 0.028846696, 0.013812523},
			{-0.007922858, -0.017741326, 0.07691994, -0.05073763, 0.057512924, 0.017925411, 0.0006320389, 0.03132503, -0.010316707, -0.012147196, -0.0035425276, -0.0071331295, -0.035549853, 0.035241824, 0.03917842, 0.022458896, -0.0824312, -0.07335599, 0.048010256, -0.009830737, 0.0063740667, 0.03995292, -0.02665554, -0.052527126, -0.06893597, -0.040621944, -0.06661959, 0.06132586, -0.07123137, 0.025268143, 0.007746435, 0.04857568, 0.005319349, 0.025468808, -0.027066765, 0.009283193, -0.04033253, 0.01214918, 0.06454384, 0.010795299, 0.052720346, 0.039252825, 0.032918572, 0.011685081, -0.044558708, -0.07934741, 0.13624653, -0.07926806, -0.020507451, 0.119097434, -0.056333326, -0.040763624, -0.074948266, 0.0050525204, 0.027410954, -0.04101067, 0.030880153, 0.0056198123, -0.032706875, 0.026681986, 0.029719196, -0.05125144, 0.016505219, -0.06995711},
			{-0.031152762, -0.0013225302, 0.11776726, -0.051725503, -0.014706637, 0.051694334, -0.048852295, -0.0039964537, 0.024914645, 0.07547511, -0.04382389, -0.16626641, 0.05860991, 0.071236596, -0.015157642, -0.026762024, -0.15079862, 0.058749966, 0.049301412, 0.0055698855, -0.017598368, 0.068255395, 0.020242855, -0.07566717, 0.04461635, -0.12103, -0.07035087, 0.05792129, -0.053549845, -0.050213356, 0.01469209, 0.06926024, 0.1297366, -0.044040695, 0.04050222, -0.009818002, -0.06496667, -0.039015923, 0.069079004, 0.003532992, -0.02796957, 0.06944102, -0.016001126, -0.067640066, -0.051248763, 0.05613266, 0.009668366, -0.012715373, 0.011380255, 0.016367808, -0.10917325, 0.009385152, 0.04769963, -0.006069447, -0.04515709, 0.07174928, -0.051788416, 0.09867385, 0.012277339, 0.071570925, 0.13380978, -0.042902935, 0.0020109639, -0.035517894},
			{-0.020354267, -0.033002034, 0.065482505, 0.063283935, -0.07554416, -0.0009851679, 0.026488723, -0.059542563, -0.07867951, -0.0023932233, -0.045723163, -0.12046447, 0.036395635, 0.035035383, -0.0004958699, -0.022095293, -0.0037287066, -0.028534753, -0.033980716, -0.035743885, -0.059257526, -0.06360819, -0.05819414, -0.034701303, 0.03651495, -3.388148e-05, 0.010665797, -0.01737674, -0.010068647, 0.026506914, 0.0049844887, 0.04478717, 0.04785503, 0.060156815, 0.059110545, -0.037460003, 0.062238768, 0.062313866, 0.0026736544, 0.003923951, -0.071605004, 0.046895713, 0.04731387, 0.04339712, -0.040723197, 0.021269677, 0.035604693, -0.01753889, 0.077102676, -0.04844883, -0.075194165, 0.023958592, 0.07779874, -0.07098522, -0.00559896, -0.07083755, -0.067362495, 0.13372363, 0.030531038, -0.011209808, 0.024688046, 0.0035163253, 0.04624304, -0.013653396},
			{-0.0029103905, -0.05866609, 0.02342452, -0.037301533, -0.033164095, -0.045350622, -0.031238377, -0.0484186, 0.014465444, -0.05176588, -0.019626696, -0.10474405, -0.03975011, 0.037736505, 0.02450088, -0.061136886, -0.0053730146, 0.010348297, 0.1155468, 0.026475944, -0.052378394, -0.041973922, 0.031966574, 0.0009795057, 0.057664447, 0.028195724, 0.07301757, -0.0074694413, -0.0068716435, 0.0022775626, -0.07705708, -0.056997232, -0.022084031, 0.025783587, 0.046016756, 0.050116092, 0.06399794, 0.013343222, 0.03365192, -0.07771643, 0.05925852, 0.029128732, 0.033546336, 0.02503702, -0.069903396, -0.042212557, 0.062500186, -0.07044918, 0.03312791, 0.033393722, 0.053753335, 0.044912945, -0.06705633, 0.061471216, -0.080695614, -0.072179504, -0.0059555545, 0.12248471, 0.048241172, -0.026753316, 0.031110361, 0.030458273, 0.06206678, -0.0041718665},
			{-0.07387825, -0.018715847, 0.064038455, 0.02045353, 0.013320471, -0.07053375, 0.040887006, -0.024570564, 0.06470609, 0.058643535, 0.032225937, -0.11131759, 0.0040162452, -0.069351785, 0.0044111856, -0.017439302, -0.13807169, -0.014225985, 0.12692064, -0.02757327, -0.07200194, 0.02461563, 0.03579931, -0.019405589, 0.0461068, -0.089992106, 0.06536594, 0.04060357, -0.0769145, 0.044431087, -0.06550201, 0.017228728, 0.108605795, 0.016359895, -0.07867718, -0.02627133, -0.03018774, -0.0765397, 0.044726446, -0.08207933, -0.049937338, -0.027112974, 0.029297328, -0.024552807, 0.028186223, -0.081293866, 0.077687494, -0.06379294, 0.02376616, 0.11164448, 0.02757958, 0.013384612, 0.018694192, -0.06544418, -0.02174854, 0.06461175, -0.061509803, 0.03272081, 0.0020463795, 0.041046094, 0.11497453, -0.032821257, -0.041861046, -0.057518832},
			{-0.04765911, -0.019861251, 0.075575985, 0.00058282574, -0.019324845, -8.007139e-05, -0.022988196, -0.060633037, -0.076317206, -0.007128708, 0.00730817, -0.08971156, -0.03434315, 0.067202896, 0.053979687, -0.07600974, -0.0319475, -0.009076036, 0.009137864, -0.06289505, 0.052224346, -0.05975913, -0.046404462, 0.06262326, 0.053625803, -0.07269527, -0.047222562, 0.018421896, -0.12293981, 0.054223694, 0.06546757, -0.056356233, -0.022041742, 0.05630128, 0.03775167, -0.020123005, -0.016623665, 0.015401134, -0.03225841, 0.009047723, 0.0075773112, 0.053558215, -0.039461024, 0.035965115, 0.022097405, -0.059380103, 0.07462587, 0.009810007, 0.04761611, 0.04042859, -0.051100455, -0.051881842, 0.02589932, -0.025119048, 0.01425435, 0.06388327, 0.041025095, 0.075507864, 0.033538535, -0.019681256, -0.01255117, 0.04682165, 0.048903704, 0.026258828},
			{0.064764574, 0.069963396, 0.09591734, -0.052017067, 0.05950864, -0.03819197, 0.0100111645, 0.03148528, 0.07038711, -0.05822527, -0.07163206, -0.018359344, 0.04784551, 0.042499043, -0.067009516, 0.06878984, -0.030686073, 0.021944035, 0.054422725, -0.08219339, 0.029158596, 0.032550476, -0.07447839, 0.047091592, -0.067404434, -0.009512316, -0.0059139132, 0.012121787, -0.14161347, -0.042804074, -0.018573007, -0.07881699, 0.047959454, -0.07971017, -0.021028602, -0.05211105, -0.06888544, -0.028691499, -0.08369972, -0.01649421, 0.0031263833, -0.10962683, -0.03840214, 0.0748267, -0.07262471, 0.04007712, 0.13964832, 0.048824042, 0.03512442, 0.13467367, 0.059966564, 0.07650887, -0.02456161, 0.032420367, 0.011762733, 0.056491245, 0.05504611, 0.110375695, -0.045357063, 0.0080605745, 0.037774917, -0.046047688, -0.018954594, -0.020864159},
			{0.010860153, 0.047474936, 0.074427016, -0.07542647, 0.013465461, 0.06725982, 0.06828844, 0.006133226, 0.044663645, -0.02248589, -0.037554234, -0.034082327, -0.023462892, -0.07347757, 0.01542689, 0.007934712, -0.111920536, 0.020137187, 0.07004605, -0.055820316, 0.053520445, 0.061762974, -0.023708753, 0.041178267, 0.030488515, 0.03291303, -0.03913271, 0.041976016, -0.09010434, -0.04533854, -0.024550935, 0.05778048, -0.00037416074, 0.010633352, -0.038918883, 0.04510879, 0.0739467, 0.03421159, 0.057704885, -0.022102652, 0.057603274, -0.078019775, 0.06968718, -0.05318045, -0.074123666, 0.029250868, 0.05734698, 0.030547665, -0.067292556, 0.052457955, 0.009474168, -0.06321359, 0.020997271, -0.0047696773, -0.04844596, -0.02348254, 0.07166666, 0.00845261, 0.013426099, 0.031486798, 0.14766678, 0.057622377, 0.023674987, 0.010201727},
			{-0.070974916, 0.06482467, -0.0024627075, -0.01889769, 0.058447607, -0.0076361075, -0.027426252, -0.029116955, -0.062247492, -0.05509539, -0.06589473, -0.003327459, -0.07934659, 0.009183573, -0.05092144, -0.008329883, -0.11059566, -0.020515883, -0.033067185, 0.047475662, -0.07572433, 0.06488496, 0.006413795, 0.013052561, -0.026653126, 0.038020767, -0.059041545, 0.015994165, -0.0060965936, -0.067009546, 0.024494978, 0.024863036, -0.0591768, 0.0021976584, -0.029155955, -6.274566e-05, 0.022852622, -0.057422772, -0.046748023, 0.0033353362, 0.015012892, -0.050189286, 0.029198177, -0.03211276, 0.02213695, -0.043824762, -0.00900373, -0.03954159, 0.0077401996, 0.071468934, 0.07076349, -0.067198575, -0.01478643, -0.08075875, -0.045970596, -0.060248643, 0.054125905, -0.003449996, -0.042012192, -0.045010805, 0.08018506, 0.036815807, -0.070394844, -0.023821771},
			{0.055514008, 0.04330513, 0.009027439, 0.010456688, -0.05184808, 0.023811981, -0.06216824, 0.014970337, 0.039863534, -0.04534733, -0.034517553, -0.07328703, 0.011879171, -0.044137996, -0.025631832, 0.05027309, -0.12879975, 0.041692518, 0.04649814, -0.059511058, 0.0013105492, -0.06905647, -0.06072238, -0.02701448, 0.008161312, 0.062792145, 0.05470036, 0.003051249, -0.07340446, -0.039738685, 0.015278559, -0.0070744166, -0.013114432, -0.02371836, 0.0011855694, 0.06911051, -0.048991255, 0.03910316, -0.040808775, -0.052061718, -0.079338536, -0.0637538, 0.010490051, 0.053569004, -0.012535501, 0.068522945, -0.0060963263, 0.0045839474, 0.03620544, 0.033393487, -0.0531246, 0.0439702, 0.07141133, -0.019110108, 0.028017083, 0.012536104, -0.06905623, 0.11713947, -0.03517739, 0.003345632, 0.06524758, 0.041947782, -0.023830205, -0.06292778},
			{-0.07793537, 0.05353868, 0.008792469, -0.068112046, 0.040402763, -0.04544326, 0.028526844, 0.006628643, 0.019156724, -0.045288324, 0.009925678, -0.11987666, -0.054384965, 0.057073254, -0.029332608, -0.04444028, -0.051419538, 0.10235512, 0.12179734, 0.04199422, 0.04116576, -0.047866825, -0.06324402, -0.056275614, -0.015822582, 0.018623276, 0.020792753, -0.052660435, -0.06762153, 0.069890656, -0.046662193, 0.020353388, -0.030300723, 0.019021582, -0.06996151, 0.100212574, 0.059468582, 0.040817004, -0.06310507, 0.063377075, -0.039289746, 0.0008793139, -0.06270507, 0.029973105, -0.044735286, -0.05781883, 0.033905882, -0.013121564, -0.025780298, 0.03579699, -0.07328643, 0.061897457, -0.074244246, -0.077395186, -0.08414257, 0.029407747, 0.07020216, 0.02633885, 0.017178357, 0.060597625, 0.070308246, -0.016996367, -0.06844016, 0.005306135},
			{0.011155464, -0.021073483, -0.025521547, 0.037627105, 0.0071076667, 0.07653211, 0.061194163, -0.07626333, 0.023071297, -0.06636531, -0.02151534, -0.06544477, -0.031162197, 0.059501406, -0.016360112, 0.06620942, -0.030818257, -0.038892284, -0.004197998, -0.041003875, -0.025788182, 0.024877816, 0.010902226, 0.065480344, -0.06116895, 0.018801289, 0.059852183, -0.044861767, 0.031047057, 0.007886461, -0.06291937, -0.08391678, -0.028869074, -0.049907494, -0.0122464765, 0.027372487, 0.027344704, -0.033412598, 0.0085106855, -0.019880777, -0.005170248, -0.057156313, -0.06328036, -0.007233873, -0.01612006, -0.06491518, -0.0011754294, -0.017122395, -0.016054079, 0.00166099, 0.037219997, -0.0050935717, -0.050903995, -0.0019320515, -0.06153832, 0.06489646, 0.010786511, 0.061376527, -0.07437209, 0.081882566, 0.06238986, -0.0028979655, 0.0748502, -0.12014635},
			{-0.077049814, 0.024844296, -0.013647844, 0.006303862, 0.058645196, -0.053903997, -0.020378433, -0.022002866, 0.03857051, -0.014809601, -0.047253955, -0.00075447385, 0.016566282, 0.02427373, 0.049237378, -0.010866247, -0.04339189, -0.00049174216, -0.004361513, -0.053716477, -0.01785672, 0.068750724, 0.07015164, -0.009248272, -0.07963981, 0.041306347, -0.012267254, -0.07956431, -0.076619804, 0.019818109, 0.0049350727, 0.04236249, 0.08726802, -0.071532376, -0.04761524, 0.07069983, -0.042914905, -0.02280013, -0.012025664, 0.018172579, -0.019628787, -0.057756733, -0.046116933, -0.014266685, -0.08680385, -0.030694967, 0.020482361, -0.050706014, 0.07888782, 0.14390512, 0.029974591, 0.007167389, -0.04822667, -0.0010839498, 0.006870382, -0.0053491895, -0.060258333, -0.023101464, 0.056435876, 0.017564923, 0.0017175004, 0.0380436, 0.040333092, -0.10799989},
			{0.000861533, 0.06084183, 0.12060987, 0.026397418, 0.04551039, 0.058382988, 0.0053413184, -0.018512506, 0.077559784, -0.016806249, 0.0535378, -0.11675805, -0.004438576, 0.059141576, -0.013248738, -0.063897654, -0.089889206, 0.011019046, 0.027228458, 0.053188477, -0.023079753, -0.06965204, -0.050645646, -0.012433026, 0.071779564, 0.012795519, -0.03347007, 0.07077934, -0.054549955, -0.070283525, -0.030201377, -0.041221295, 0.02916684, 0.04447927, 0.06568667, 0.00014749773, 0.05734831, -0.014060097, 0.03653669, -0.06676019, -0.022698049, -0.08780267, 0.010365581, -0.05008595, -0.048861187, 0.053149093, 0.1184098, 0.00029882643, -0.077569224, 0.02059967, 0.02391484, -0.03994963, 0.030285627, -0.0029100396, 0.008858925, -0.032622196, 0.04589583, -0.0019064292, -0.06761467, 0.027709007, 0.021947632, 0.04287021, 0.037494794, 0.03518489},
			{0.014980711, 0.043706067, 0.0054988414, 0.05064744, -0.06044067, -0.00412485, -0.08407913, -0.01690351, 0.038178124, -0.008900538, 0.05657673, -0.0809364, -0.08182285, 0.0006542987, -0.074664906, -0.047070052, 0.031969227, -0.04345449, -0.0236539, 0.007151733, -0.056992486, -0.047049362, 0.046063125, -0.06919647, 0.016941847, -0.015471943, -0.02421736, -0.016606782, 0.020628722, 0.05443381, -0.079069294, -0.07093029, 0.00034125295, 0.015951972, -0.0067698453, -0.026743153, -0.061994843, 0.06493582, 0.062221855, -0.05620108, -0.024550322, -0.041305393, 0.06445577, -0.042019423, -0.040464707, -0.01189103, 0.07871541, 0.020433348, -0.005974591, 0.09003524, -0.0048990943, -0.04906213, -0.031011049, -0.07347026, 0.062438324, 0.026489653, 0.031543545, -0.017066194, 0.005875998, 0.0061098486, -0.0009825988, 0.012543177, 0.034601636, -0.043343112},
			{-0.07164463, -0.07811319, 0.02458111, -0.014397351, -0.046339475, -0.009558082, -0.029765876, -0.028218906, 0.03262618, 0.017953701, -0.06753353, -0.04454904, -0.035969492, 0.027715348, -0.06776277, 0.06436221, -0.04951261, 0.049473938, 0.10796762, -0.0025378927, 0.058110747, -0.074062966, -0.048068274, 0.045197636, -0.03940751, 0.010576573, -0.021186642, 0.0752335, -0.0077868523, -0.049541984, 0.05257295, -0.0046358583, 0.0643496, -0.08492418, 0.03349955, 0.037892282, -0.057305112, -0.0790316, -0.044206645, -0.016848342, -0.02462551, -0.038329706, -0.005351675, -0.06014796, -0.030049723, -0.052459642, 0.043740675, 0.06247313, 0.07171705, -0.011657495, -0.06987497, 0.06361125, -0.051292203, -0.07524357, -0.08418607, 0.07409317, -0.07467231, 0.0739657, -0.020145189, 0.01443996, 0.06998268, -0.06521639, 0.005812682, 0.04360065},
			{0.033094145, 0.040044367, -0.0061963703, 0.011945148, 0.02509302, -0.019106463, -0.07957153, 0.06303457, 0.047413737, 0.006164737, -0.03923494, -0.113829985, 0.017167103, -0.07804349, 0.018020168, -0.033411253, -0.06736737, 0.06566016, 0.13511802, -0.032444436, 0.023725523, 0.026643805, 0.06344883, -0.078537636, 0.018092792, -0.07790712, 0.048061773, -0.08427681, -0.0043308535, -0.02019654, -0.02496958, -0.012663296, 0.07331352, 0.032947216, 0.014463287, 0.005429469, -0.024401937, -0.058635905, -0.072421625, -0.043394983, 0.058535103, -0.06136573, 0.009608178, -0.00010403246, 0.040302746, 0.070893176, 0.07325481, 0.0012471639, 0.006911829, -0.0448133, 0.00083405647, 0.05032637, -0.021391213, -0.042976953, 0.04095426, -0.011544059, -0.027477987, 0.042595573, -0.049966536, 0.06287177, 0.09780606, -0.07247938, 0.050580636, 0.089002475},
			{-0.0662978, 0.06656295, 0.10479655, 0.05405738, -0.05380023, 0.04302962, 0.0055279057, -0.08047041, 0.03750354, -0.01227916, -0.026816476, -0.048819765, -0.04520091, 0.02325007, 0.053690434, -0.025624331, -0.00052817113, 0.082113214, 0.08733198, 0.0015734948, -0.04665133, -0.0063881576, 0.041638546, 0.04447776, 0.05728091, -0.024638426, -0.051224656, -0.014085068, -0.1181683, 0.032600086, 0.0040062163, 0.007446546, -0.017944453, 0.070100695, -0.027445601, 0.04735346, -0.035431113, 0.031743646, 0.06066469, -0.070957355, -0.065220416, 0.021971343, 0.07069995, 0.024252497, 0.0049908245, 0.006015268, 0.092216216, -0.037841354, 0.019182004, 0.024460852, 0.03422314, -0.051138315, 0.008049339, -0.023385733, 0.028249377, -0.014802833, 0.07563968, -0.0052779173, 0.021469373, 0.015745092, -0.048279192, 0.06372777, -0.03910412, 0.05505037},
			{0.03196618, -0.059741728, 0.08722171, -0.060643133, -0.00082225574, -0.06318659, 0.027960552, -0.0026106657, 0.03077627, -0.036325485, -0.06451851, -0.117124446, -0.032683015, -0.065113105, -0.080194995, 0.07515654, -0.08910146, -0.031059824, -0.02400159, -0.029258365, -0.029072598, 0.025534667, 0.04213369, 0.056853503, 0.016587475, -0.051427964, -0.0091741085, -0.013442126, 0.022631658, 0.035559885, -0.046797194, -0.04236404, 0.09120831, -0.03124945, -0.07605461, 0.02601347, 0.049461514, -0.003246671, 0.044343002, -0.03508925, 0.0644728, -0.07214668, -0.030234696, -0.040254544, 0.04489428, -0.08519439, 0.11157514, 0.019274188, -0.0042786, -0.015880225, -0.08844593, -0.053343505, 0.013993554, 0.03801513, -0.05638676, -0.05990046, -0.06930499, 0.0039651725, -0.025057642, -0.03282355, -0.040728007, -0.07902371, -0.02137389, 0.033027854},
			{0.00047900528, 0.030874647, 0.0314608, -0.037320286, 0.014971035, 0.042219162, 0.06577269, 0.00959482, -0.0740848, 0.052620396, -0.020936005, -0.13632765, -0.06232736, -0.07010372, 0.053181283, -0.056105968, -0.09115407, -0.026306836, 0.08735402, -0.006970603, 0.09664978, 0.01466684, -0.06903584, 0.0077236, -0.0225639, -0.05784963, -0.07139689, 0.020547882, -0.079656824, 0.009304971, -0.013825305, 0.029514987, -0.015947072, -0.045317974, -0.019486288, 0.020532193, 0.05032216, -0.08311712, 0.0040862346, -0.027365508, -0.00943162, -0.05450418, -0.008428696, -0.034686822, -0.011466459, -0.043252338, 0.05532842, -0.022570226, 0.016809732, 0.07427374, -0.05657319, -0.05640467, -0.076023646, -0.07466438, -0.048118033, -0.017265426, -0.039624408, 0.00033991053, -0.07195962, 0.06107688, -0.0017613982, -0.03988032, -0.046758287, 0.07064029},
			{-0.017247688, -0.04016343, 0.008115967, 0.068888344, -0.0062929555, -0.030196466, -0.01688533, 0.06076816, -0.013452046, -0.06532198, 0.03513535, -0.01841411, -0.08224323, -0.021121789, -0.07241201, 0.07276578, -0.017883861, -0.039133795, 0.0048571615, 0.03325893, 0.09335126, -0.03450593, -0.04666204, -0.023690687, 0.014576757, -0.06677509, -0.0204719, 0.03087365, -0.082431056, 0.034109674, 0.062000707, -0.08077445, 0.04960975, -0.052257396, 0.055881873, -0.027230976, -0.044908635, -0.0056907805, -0.082182586, 0.057894576, 0.004681283, 0.057719264, -0.083978206, -0.05789347, -0.061450932, 0.057895143, 0.043558728, -0.027358748, 0.026304878, 0.0411175, 0.034431845, 0.00560171, 0.010810681, -0.06257465, 0.0606537, 0.06085997, 0.070915535, -0.029514791, -0.06442154, 0.0024645578, 0.06345736, 0.066976875, -0.012067966, 0.07163287},
			{0.027296267, 0.0026316196, 0.09787101, -0.034333393, 0.009735163, 0.057927266, 0.06334933, 0.06225854, -0.0014048815, -0.04617128, -0.06403895, -0.06050956, -0.027875507, -0.049679577, -0.041013792, 0.0068143457, -0.07353672, 0.010865777, -0.028643787, -0.022722328, -0.063308224, -0.024041079, -0.07335896, 0.026084363, 0.03561402, 0.03624726, 0.04730922, 0.015712444, 0.0057360744, 0.044728886, -0.06706919, -0.063580945, -0.059686694, -0.010826856, -0.0760288, 0.015411778, 0.06166236, -0.023359297, 0.0022599662, -0.010905895, -0.064908825, -0.048633493, 0.0006640907, 0.048945904, -0.051903587, 0.056466527, 0.0010881035, -0.008997407, 0.026117027, -0.05194813, -0.037259325, 0.0315606, -0.043167856, 0.06887442, -0.054680664, -0.0794935, 0.024107233, 0.078557536, -0.06034892, -0.058292404, 0.0066126026, 0.014841304, -0.05613548, 0.030254006},
			{0.005798891, -0.04863376, 0.07861967, 0.011273424, -0.059267744, -0.05075337, -0.08111648, -0.021239158, 0.027384594, 0.05503972, -0.07195925, -0.032571018, -0.07170901, 0.038267102, -0.045000117, 0.004648015, -0.11152872, 0.065184556, 0.06205226, 0.04485208, -0.017546216, 0.04317587, -0.027150571, -0.0088381665, -0.08050483, -0.094242945, 0.015969865, 0.043744158, -0.11199191, 0.062054753, -0.053985823, 0.055727106, 0.1342901, 0.04996443, 0.057425387, 0.016768796, 0.062284827, -0.03976431, -0.045527585, -0.035019662, -0.04068365, -0.028995376, 0.048105143, -0.01095999, 0.04137465, 0.056953423, 0.14736937, 0.0042685387, -0.023382727, 0.03359195, -0.066147156, 0.06911613, 0.0715065, -0.079708524, 0.062904984, -0.0029501186, -0.060748227, -0.052614592, -0.057803255, -0.024311727, 0.026944825, 0.06504768, -0.018133841, 0.060850274},
			{-0.0456894, -0.02227607, 0.039535943, -0.04011915, -0.07410215, -0.024422552, -0.039991826, -0.01120831, 0.0075950697, 0.026109874, 0.07525255, -0.1427798, -0.054067705, -0.010183727, -0.021665854, -0.0007765889, -0.0032106799, 0.08743898, -0.046445716, 0.016334156, 0.039205726, 0.0561651, 0.055013508, 0.020918192, -0.02937908, -0.014422073, 0.04805422, -0.0024929133, 0.00809678, -0.005619351, 0.06022715, -0.06490792, 0.08196246, -0.063765824, 0.02080665, -0.050765283, -0.01734962, 0.057420205, -0.0023452314, 0.042381708, 0.03817526, -0.0013154207, -0.0024882755, -0.054506443, -0.012201037, -0.026374565, 0.06307225, 0.042855684, 0.010693312, -0.020160994, -0.04620082, 0.02832654, -0.037511405, 0.06474125, 0.00884005, -0.081229165, 0.07344262, -0.022887198, 0.033540327, 0.0916079, 0.043295875, -0.00620639, 0.033717006, 0.004100506},
			{0.04297795, -0.024470385, 0.00809016, -0.046389215, -0.0044370955, -0.016203709, -0.07445666, -0.0060737766, 0.05576271, 0.035243183, -0.02534213, -0.044767935, 0.039035495, -0.06407979, -0.025690721, 0.03259498, -0.095904864, 0.0069800653, 0.04166184, -0.045542445, 0.056881756, -0.03227977, 0.027611986, -0.055151064, -0.08111556, 0.053748053, -0.07221303, 0.031821527, -0.009386785, 0.06745469, 0.058106687, 0.06147777, 0.08786931, -0.05903163, -0.0026604093, 0.037578702, 0.05064471, -0.016117565, -0.06495528, 0.045968007, -0.059394572, -0.0036239084, 0.009889716, -0.05184616, 0.07106782, 0.02309175, 0.10143886, -0.023491124, 0.030636162, 0.05015523, -0.09333594, -0.030856911, -0.042995937, 0.0678188, -0.04644536, 0.05514735, 0.03415133, -0.0043517766, -0.05674485, 0.019580653, 0.069710016, -0.043164004, -0.030581705, -0.052754883},
			{-0.05658813, -0.045430977, 0.112294085, 0.01673012, 0.030267432, -0.069081604, -0.012675552, 0.06925821, 0.0315469, 0.027798764, 0.07451996, -0.17990196, -0.0412612, -0.06477119, 0.071898565, -0.058712944, -0.0022069493, 0.050177854, 0.12639041, 0.03381404, -0.030935382, -0.07164624, -0.043893714, -0.029769722, 0.06642534, -0.09250325, 0.05457975, 0.016748048, 0.015935903, -0.08187843, 0.04590819, 0.0701929, 0.10911077, 0.02402216, -0.016303783, -0.09367901, -0.017267797, -0.043189086, 0.034382742, 0.024041662, -0.083076656, 0.0016002061, 0.06588668, 0.03806164, -0.045755565, 0.06188845, 0.038511366, 0.05141394, -0.027891852, 0.053233437, -0.13887107, -0.06767654, -0.03360441, -0.078568935, 0.028186463, 0.06132677, -0.0033024773, 0.012785993, 0.03494197, 0.11317201, -0.008171806, 0.048550986, 0.0024698973, 0.044023365},
			{-0.007821158, -0.036254764, 0.083402984, -0.016349755, -0.04211542, -0.011633545, -0.031226873, -0.036236532, -0.016281612, -0.034989316, 0.06928374, -0.022359924, -0.07370911, 0.047953803, 0.024738435, 0.074186236, -0.01736235, -0.03346026, -0.024666753, -0.04277887, 0.002873369, -0.012151159, -0.035215367, 0.060572397, 0.042892944, 0.025672931, -0.062960394, -0.021074763, -0.021461235, -0.035968896, -0.00989487, -0.0072065173, 0.09501589, 0.025937475, 0.019952627, 0.048388436, -0.032594133, 0.006358429, 0.02339957, 0.030222733, 0.07120637, -0.024710365, -0.07810316, -0.028202321, -0.01886637, -0.025723143, -0.0042058234, -0.016313786, -0.021363452, -0.020434082, 0.026866239, -0.05676266, 0.072643265, 0.056089662, 0.0559049, -0.043328937, 0.03214799, -0.045877412, 0.040567618, 0.023873985, 0.06989209, -0.011367805, 0.07551387, -0.016298287},
			{0.05538629, -0.06149175, -0.013221182, -0.08358846, -0.025153806, 0.016068012, 0.009205843, 0.06473559, 0.033138007, 0.029041454, 0.045667432, -0.03818416, 0.026184438, -0.051313594, -0.019360192, 0.03070274, 0.009270449, 0.08219262, 0.008763712, -0.066651285, 0.034959074, -0.011812381, -0.07364641, 0.06061942, 0.07035102, -0.10901286, 0.0017371699, 0.02050505, -0.002359341, -0.010069251, 0.050478946, 0.03683293, -0.0083276015, -0.05909011, -0.024738112, -0.06782182, 0.071908996, 0.05383368, 0.064158976, -0.07114395, 0.011694084, -0.05267847, 0.044396583, -0.043468203, 0.033483103, -0.013031837, 0.10570285, 0.023001058, 6.110966e-05, 0.03522984, -0.017962342, 0.03523099, -0.0011253357, 0.030356323, -0.07971819, 0.06579995, -0.0067180917, 0.00017793733, -0.08031141, 0.051032677, 0.04206024, 0.022171546, 0.003126286, 0.011772491},
			{0.07099788, 0.062207103, 0.14989908, 0.052802783, 0.01211242, -0.0020167753, 0.029854108, 0.05292846, 0.07599267, -0.017840132, -0.048276816, -0.16846547, 0.020296022, 0.055120345, 0.044734508, -0.064759575, 0.018931914, 0.061676733, 0.1419199, -0.03956868, 0.042870037, -0.058693588, 0.05235991, 0.04375984, -0.07696528, 0.002203296, 0.064130425, 0.030425219, -0.048724174, 0.063047424, 0.009897572, 0.025603225, 0.10736413, -0.05226374, -0.05646931, -0.0053764055, 0.05935335, 0.014165538, 0.006938403, -0.03547402, 0.028826598, -0.09465202, 0.036969785, -0.024950102, -0.052730646, -0.062179096, 0.11230794, 0.014269872, -0.06697332, 0.116919175, -0.10840607, 0.018076124, 0.06712717, -0.055245485, 0.06554034, 0.03888044, -0.0737508, -0.017552432, 0.057496108, -0.025862936, 0.06411267, 0.033628084, -0.01025486, 0.0665433},
			{-0.034628306, 0.0028132424, 0.03539318, 0.055954356, -0.02052957, -0.011017874, -0.05334283, 0.03630442, -0.0653713, -0.010646269, -0.0007573813, -0.14470674, -0.014092196, 0.012103256, -0.08214636, 0.046938553, -0.06742237, 0.016307019, -0.010915359, 0.028676447, 0.059882518, -0.034094002, -0.03621391, -0.014027357, 0.03895033, -0.07118326, 0.019305974, -0.09616449, -0.011563178, -0.020893767, 0.015114813, 0.02822464, 0.08850803, -0.06944719, -0.032980178, -0.08059369, -0.057780184, 0.02265641, -0.05819296, -0.004797603, 0.03257584, -0.09299693, 0.038526222, 0.06669684, -0.0474329, -0.034877565, 0.0076181404, -0.062964186, 0.047162533, 0.056511305, 0.011186489, 0.068609014, 0.0024276674, -0.06171617, -0.039625548, 0.06185776, -0.07005842, 0.0722925, 0.01264386, -0.04074302, -0.06503279, -0.03641315, 0.005426936, -0.0730355},
			{-0.026846234, 0.029357545, 0.104568854, 0.04972594, 0.041132428, 0.016052268, 0.05304347, -0.018008936, -0.0754925, 0.014538936, -0.06734679, -0.07514177, 0.03661396, -0.031409178, -0.018081682, -0.07262628, -0.058474153, -0.039189827, 0.06382878, 0.06230496, 0.033391684, -0.059704453, -0.026489474, 0.050176565, 0.026918732, -0.049711887, 0.014473736, -0.029342907, -0.07467691, 0.053868964, 0.07381416, -0.029878663, 0.1355259, -0.05688407, 0.019500306, 0.05414614, 0.0019436777, 0.0372756, -0.0108024515, -0.022533393, -0.012047175, -0.0054004174, 0.013459729, 0.047128096, 0.039312143, -0.06583873, 0.0471104, 0.04406101, 0.006292984, 0.034430724, -0.00924567, -0.024699623, -0.05782777, 0.069966316, 0.036677115, 0.011076041, 0.06880829, 0.06958166, 0.0619795, -0.035293043, 0.07036422, -0.039973166, 0.010350041, -0.004851839},
			{0.021006525, 0.074288204, 0.00697309, -0.041194994, 0.055393025, -0.020119242, -0.06541349, -0.0044305017, -0.051163998, 0.0033791661, 0.035769872, -0.04284429, -0.001739273, -0.07183499, 0.013127412, -0.021807808, -0.09596891, 0.015827533, 0.071251996, -0.073281206, -0.015239535, -0.030604087, -0.077182576, -0.054004677, 0.0034791247, -0.046755977, 0.00453414, -0.10928801, -0.025025945, 0.04801233, 0.07730164, -0.03098537, 0.036571153, 0.031093583, 0.04140746, -0.031471573, 0.008120157, -0.0021628863, -0.038902223, -0.04411951, -0.054644626, -0.123663954, -0.0602241, 0.010652587, -0.0034557674, -0.017799508, 0.16064283, -0.033030882, 0.013251759, 0.10991162, -0.008445919, 0.010913402, -0.04956056, 0.052986674, 0.06680516, -0.054169834, -0.008893356, 0.06613388, 0.020096418, 0.033807542, 0.0197616, -0.013357531, 0.052021235, -0.023544779},
			{-0.028895263, 0.0584345, 0.040476676, 0.05320813, 0.008307028, 0.04673697, -0.022674209, -0.036858954, 0.039923087, -0.0035699457, -0.06855951, -0.09453409, -0.084533475, 0.029731143, 0.026821144, 0.0666486, -0.033312235, 0.07326118, 0.014854363, 0.067576334, 0.021726975, 0.025328115, -0.07359967, -0.013746731, -0.02031632, -0.07435037, -0.053039268, -0.06854813, 0.03484701, 0.060909342, 0.025163623, -0.044296067, 0.034536924, 0.057546955, -0.05285751, -0.0012878185, 0.03271468, 0.0052169613, -0.03679822, 0.0016641291, -0.049122132, -0.04262939, 0.07013853, -0.048390612, 0.027391443, -0.012490757, 0.021478241, 0.07303154, 0.058778986, 0.094427764, -0.008114757, -0.006566066, 0.07730608, -0.081479885, 0.035166625, -0.059893824, -0.06470403, 0.058257762, 0.021286221, 0.10934819, 0.042625967, -0.014713386, 0.024805404, 0.018400704},
			{-0.051569663, -0.0489716, 0.08089187, -0.045286678, 0.019806964, -0.06553466, -0.0499791, 0.0009878522, 0.04197593, -0.07004204, 0.0029794425, -0.10390753, -0.036374904, 0.05397096, -0.025575308, -0.0675532, -0.00447839, -0.05552203, 0.1063115, -0.037279263, 0.028002603, -0.024416383, -0.013935916, 0.024656432, 0.01961074, -0.023024356, -0.019549258, -0.01565119, -0.012161256, 0.05804846, 0.045013186, -0.023315411, 0.13880439, 0.06342256, -0.025855018, 0.028450454, 0.07789542, -0.04196767, -0.0046453867, -0.018368248, 0.031346083, -0.031563867, -0.07757438, 0.022820458, 0.0047823386, -0.008100931, 0.10896149, 0.07432097, -0.01766323, 0.022312151, -0.024470992, 0.056825068, -0.064956084, 0.06071542, 0.06049245, -0.052185103, 0.004612766, 0.06348657, -0.082602054, -0.053277336, 0.05600647, 0.023576839, -0.059972372, 0.005955057},
			{-0.046223044, -0.025199104, 0.11271479, -0.08084938, -0.066322, -0.05563443, -0.006351967, -0.08355419, 0.0027599186, -0.05719359, 0.01282268, -0.059098154, -0.026269274, 0.024365976, -0.04482764, 0.052547723, -0.10403721, -0.03671299, 0.20228781, 0.070530064, -0.034066252, 0.0761392, 0.035507195, -0.055069853, 0.00068116456, -0.008933298, -0.06893963, -0.0037791717, -0.048225466, 0.056124832, -0.072275154, -0.010732216, 0.1019464, -0.06880332, 0.03851826, -0.051541965, -0.03554858, -0.009248753, -0.06308494, 0.0071235397, -0.043242786, -0.13881478, -0.02485226, -0.013968274, 0.03930827, 0.010874696, 0.042788174, -0.056196228, 0.04932046, 0.1278393, -0.07988873, 0.06826617, 0.040600523, -0.04980086, 0.006528112, 0.0061044553, -0.044007923, 0.08675101, -0.0748119, 0.003469251, 0.00036474515, 0.020524664, 0.024252757, 0.012261914},
			{0.049939334, -0.014061078, 0.020424437, 0.0196717, 0.0660116, -0.0017181709, -0.08073653, 0.015942708, 0.07839182, -0.042999696, 0.02243305, -0.03819253, 0.016309166, 0.06439591, -0.0039470303, -0.03319045, -0.098546825, 0.06011635, 0.023532905, -0.0056411116, -0.023421206, -0.013841048, 0.032829605, -0.032893486, -0.03944935, 0.030434337, -0.005032748, 0.0040470995, -0.062025517, 0.072539605, -0.07829358, 0.0034147287, 0.017281445, 0.012215992, -0.06392261, 0.07783466, 0.06360112, 0.06128783, 0.013179455, 0.009937121, 0.017608128, -0.034809873, -0.031118164, 0.043123692, -0.06476102, 0.045310162, 0.124318905, -0.0067368858, 0.071862966, 0.11725544, -0.089455165, -0.008461842, 0.010902792, -0.0035359836, 0.0718915, -0.030012833, 0.052823484, 0.0021550248, -0.0018912818, -0.0036537093, 0.033364028, 0.053602446, -0.043694463, -0.07422919},
			{-0.074392, -0.02208171, 0.013658649, -0.067697875, -0.043766655, -0.031329006, 0.05301685, 0.06969582, 0.040604666, -0.030722737, 0.003243886, -0.0856396, -0.08010037, 0.043119382, -0.0620956, -0.066848315, -0.11679446, 0.083951645, 0.08109452, -0.022618465, -0.011712932, -0.034009643, -0.022218984, 0.033632927, -0.015605416, -0.12445815, 0.052334696, -0.039951585, -0.051099617, -0.023512697, 0.005642865, 0.005051681, 0.028934179, 0.028791232, -0.07753738, -0.0020093045, 0.026102073, 0.06331928, -0.05841312, -0.07282531, 0.017127875, -0.05963971, -0.02326663, -0.010460511, -0.06640769, 0.043926008, 0.113044545, 0.035983928, 0.05329041, 0.09296815, -0.088968426, -0.06350625, 0.0722606, 0.0048271683, -0.078963034, 0.0408284, 0.03327056, 0.018759614, 0.017463543, -0.06266259, 0.0897548, 0.010707902, 0.031628795, -0.008092458},
			{0.027745157, -0.043623853, 0.06692963, 0.0052108453, -0.047912713, 0.021533772, -0.03415864, -0.055103116, 0.063330576, -0.06438531, 0.07079056, -0.10300563, -0.07144914, -0.002227321, -0.050424978, -0.039664716, -0.13642953, 0.11196036, 0.060791116, -0.0410865, 0.09483168, -0.0016713738, -0.07366809, -0.08482809, 0.044845466, -0.06781463, 0.016410857, -0.1420706, -0.12192108, -0.031067286, 0.020669924, -0.045576002, 0.08740878, 0.046160184, -0.04063555, -0.011151682, 0.031796724, 0.030827932, -0.04701729, -0.075143576, -0.07454794, -0.038713656, 0.042628214, 0.073577136, 0.05518616, -0.046113435, 0.079317234, -0.0531151, -0.07740216, 0.043084662, 0.008916246, -0.065450594, 0.014219396, 0.07259065, -0.0106906695, -0.026879229, -0.028313525, -0.039913755, -0.026796233, 0.021273965, -0.06437511, 0.012345606, -0.07265509, -0.049950324},
			{0.031579062, 0.07560244, 0.034642883, 0.012702655, 0.0009612928, -0.0010070577, -0.05252688, 0.04890122, -0.019122452, 0.04965049, 0.05092615, -0.12261133, -0.041903432, -0.031629182, -0.083442725, -0.068142086, -0.09247263, 0.02303981, 0.0200045, -0.07859688, -0.0015650861, -0.058838893, 0.01101958, -0.007021824, 0.06676517, 0.0022021444, -0.040041037, 0.015667344, -0.016315483, -0.012923354, -0.06725393, -0.017230054, 0.12179692, -0.0037799738, 0.068509564, 0.00031057734, -0.06793897, 0.05212044, 0.0005773105, -0.084749736, -0.0044508716, -0.06747415, -0.042981606, -0.028512452, -0.062459234, 0.04310654, -0.00017314022, -0.053018663, 0.07071267, 0.072830245, -0.035196174, 0.048404504, -0.042616718, -0.029659811, -0.06949354, -0.04029656, -0.027350064, 0.036083795, -0.026496895, 0.09660024, -0.015008649, -0.07878029, 0.07692206, 0.058551427},
			{0.06720333, 0.04310678, 0.035333574, -0.0024326865, -0.07381444, -0.06926979, 0.048926618, 0.05570202, -0.018749494, -0.02883812, 0.010892376, -0.10570687, -0.0034179892, -0.054338012, -0.048481677, -0.0047018677, -0.0077647064, 0.06856081, -0.022211246, 0.06486632, -0.004504499, 0.02469311, -0.018977672, -0.04860337, -0.021738568, -0.08628578, -0.0056729987, -0.09055098, -0.022314662, -0.057552166, -0.046364646, -0.06744479, 0.10022953, 0.06798355, -0.02846593, -0.066738844, 0.020346306, -0.015211382, 0.017677756, 0.07283008, 0.060806554, -0.038558442, 0.0069128233, 0.049231768, -0.06475508, -0.03641816, 0.056265842, 0.0051183356, 0.06872356, 0.019532463, -0.11492303, 0.042249594, -0.04115934, 0.028455496, -0.081063226, -0.07187122, 0.018163972, 0.044006456, -0.065495856, 0.08058603, -0.02826429, -0.03790744, -0.069909014, 0.022028929},
			{-0.07004531, -0.052138783, 0.03010893, -0.08098816, -0.016935453, -0.050276678, -0.056010418, 0.022723421, -0.042595387, 0.033676505, -0.016953811, -0.061172355, 0.06170963, 0.036009807, -0.0811665, 0.062264994, -0.13505635, -0.049076095, 0.03297856, 0.013161035, 0.046467803, -0.05365964, -0.006743565, 0.060642663, 0.06291807, -0.028533928, -0.06165163, -0.04963526, 0.02771891, -0.033276703, 0.052666273, 0.054375987, 0.10574146, -0.049995057, -0.035301838, -0.05162589, 0.028542623, -0.033991452, -0.030968115, -0.024563454, 0.04946707, 0.012440343, -0.06495629, 0.054237425, 0.0060253516, -0.04243084, 0.108449124, -0.03882182, -0.07841034, -0.037929565, -0.08640008, 0.06550947, 0.009463042, -0.07193138, -0.016289895, -0.056784023, -0.0061584935, -0.0523041, -0.0058567896, -0.04357023, 0.09739131, 0.0022821592, -0.0014518499, 0.044966236},
			{-0.06597289, 0.05239816, 0.051904228, -0.020121833, 0.039786946, -0.013091035, -0.05260451, -0.049744796, 0.0008865893, 0.06289211, 0.063314706, -0.020950964, -0.07863882, -0.0058409274, -0.030128395, -0.046266943, -0.040504463, -0.020639667, -0.04068854, -0.07297761, -0.01562221, 0.036388725, -0.0492851, 0.012579372, 0.015734278, -0.060393207, 0.021529049, -0.018662184, -0.08956106, -0.056065, -0.07515801, 0.053288713, 0.13527627, 0.06962998, 0.023518808, -0.06940379, 0.031974547, 0.029798487, 0.07002036, -0.018116325, -0.047680788, 0.08987073, 0.047268514, 0.05942169, 0.051663626, -0.0788813, -0.022056835, -0.008195915, -0.0420583, -0.03969199, -0.018625297, 0.016258493, 0.0033637807, 0.072022684, 0.014516075, 0.046529043, -0.021653436, 0.037781645, -0.038313188, -0.06346899, 0.052277483, -0.04992098, -0.04103006, 0.031237088},
			{0.071915984, -0.029607411, -0.014033022, 0.041394744, -0.017347602, 0.012804508, -0.03739092, 0.015491559, -0.018726718, -0.0760641, -0.05533032, -0.09727383, 0.050698906, 0.052639928, -0.061268598, 0.005902104, 0.020701304, 0.03127001, -0.056405455, 0.04329551, -0.025452565, 0.059821427, -0.04687722, 0.019990051, -0.051318232, -0.08181825, -0.049553942, 0.060923956, -0.051416554, -0.07042742, -0.012733011, -0.05981053, 0.100087635, -0.06637717, -0.048018657, -0.08243418, 0.04394745, 0.03987983, 0.018119885, 0.00033651764, -0.018087352, 0.06809656, -0.05208871, -0.05460068, 0.0020803371, -0.071754396, 0.10180403, 0.06230286, 0.031459227, -0.032957293, 0.058392014, -0.04008838, 0.016230337, -0.011576773, -0.042677563, -0.025080936, -0.020168088, 0.053032096, 0.011802885, -0.10584049, 0.038329776, -0.0028921117, -0.05794821, -0.043105077},
			{0.058932364, 0.015429258, -0.021456907, -0.08456006, -0.015507406, 0.07720448, 0.041927353, 0.03852716, -0.0081387535, 0.010123067, 0.02674269, -0.031781394, -0.04547858, 0.034202497, 0.010601797, 0.060927168, -0.09538079, -0.010953399, 0.071686976, 0.057173446, 0.0016120721, 0.07511085, 0.007834248, -0.07352077, -0.0558645, -0.018160177, 0.041056454, 0.039082207, -0.1009717, -0.041687723, 0.057356853, 0.012260574, 0.1357063, 0.0059463074, 0.0332145, -0.012811218, -0.0113045275, 0.025390618, 0.028671602, 0.049414374, -0.045972675, 0.088677734, -0.010757886, 0.07703151, 0.03172325, 0.057273082, 0.091295585, -0.072795704, 0.016344078, -0.04109961, -0.09224883, -0.052700054, -0.028102104, -0.0500024, 0.03554214, -0.07349976, -0.02958969, 0.028938953, -0.047648363, -0.025972363, 0.06575586, -0.05952972, 0.0061318427, 0.024395611},
			{0.009853996, -0.06551373, -0.03793834, -0.03633098, 0.057281744, 0.07380396, 0.013404974, -0.05291702, -0.015839137, -0.06686575, 0.039675325, -0.0058044237, 0.0030041167, -0.082606256, 0.070297666, 0.045088, -0.07906492, -0.091398105, 0.0028115457, 0.04477205, 0.048544396, 0.024466157, 0.014001906, -0.08143687, -0.02575633, -0.041583307, 0.063700035, 0.05233961, -0.012964524, -0.063107036, -0.03179605, -0.05256104, 0.104898445, -0.047692053, 0.067318596, -0.029747108, 0.013417058, -0.020754782, 0.030723043, -0.029021282, -0.08230318, 0.07007346, 0.051719114, 0.07370022, 0.06666832, 0.008233766, 0.025556251, 0.008299647, 0.051497012, -0.027243553, -0.068410106, -0.019267209, -0.06867397, -0.0008102703, 0.027995234, 0.0738909, 0.014049225, -0.00401653, 0.040114604, -0.08794741, 0.035579864, 0.04279564, -0.035165768, 0.072843425},
			{-0.011455812, -0.039938677, 0.0143140955, -0.00025333057, 0.003546706, -0.046769027, 0.0241867, 0.0036694163, 0.04751204, -0.023097668, -0.037747335, -0.06268683, -0.06720291, -0.06632505, 0.058460873, -0.020650648, -0.09483831, -0.018512893, -0.07729038, 0.00902684, 0.07955332, -0.036910556, -0.04410188, 0.03866093, -0.044737503, -0.08371603, -0.04941447, 0.03389115, -0.08861723, 0.017008258, -0.051342826, 0.022779906, 0.13091914, -0.048250146, 0.058580313, -0.099927165, -0.0581635, 0.06107312, -0.050083112, 0.0020133997, -0.047473766, 0.05554565, -0.060741562, 0.050552785, -0.036413852, 0.05340832, -0.017497696, -0.049843457, -0.016217418, 0.101669185, 0.016452637, 0.06026318, -0.03669927, 0.0033548628, -0.019273788, -0.021459667, -0.04959299, 0.034034576, -0.042125255, 0.008946928, 0.071858846, -0.05347551, 0.07882203, 0.030350057},
			{-0.07039107, 0.075126946, -0.03575787, 0.023019854, 0.06583608, -0.054073714, -0.06506873, -0.026370756, 0.0032592565, -0.06884782, -0.03652654, 0.008754391, -0.07234836, 0.034803975, 0.05480728, 0.026802704, -0.05497842, -0.045387123, -0.06695843, -0.05609455, 0.08009569, -0.03839786, 0.022099882, 0.052071143, -0.033008598, -0.10284476, -0.0678468, -0.04322077, -0.081548356, 0.038647175, -0.034066495, -0.017734773, 0.09299507, 0.04338033, 0.011538147, -0.063794635, -0.03714797, -0.06834255, -0.062104188, -0.039287873, 0.009798251, 0.044003416, -0.066711284, -0.007295996, -0.02430675, -0.00999954, 0.069045484, -0.02470389, 0.062361345, -0.05380051, -0.14045511, -0.07316112, 0.033348054, -0.035156313, 0.059421383, -0.0760665, 0.034198448, -0.016098978, -0.033411123, -0.07667276, -0.03288824, -0.03556396, 0.05585523, -0.0011187035},
			{-0.07193354, -0.019204874, 0.04765418, 0.037849665, -0.022219457, -0.0044378787, 0.05423298, -0.0063448893, -0.04214488, 0.07290909, 0.016435891, -0.07286227, 0.06528142, 0.058417067, 0.054341976, -0.0014525428, -0.105614275, -0.021201856, 0.010622674, 0.04461393, 0.03313817, -0.06017181, -0.05563255, 0.03423452, -0.056147818, 0.012384721, 0.053332373, 0.051431175, 0.039735854, -0.045666214, 0.010054378, 0.013628356, 0.122135006, -0.04577466, 0.009132033, -0.03498192, -0.014992788, -0.044761483, -0.02100955, -0.019096313, -0.085336484, 0.08482016, 0.06124246, -0.04443821, 0.031472538, -0.008124002, -0.017044986, -0.07441492, 0.06378731, 0.049319208, 0.044774726, 0.053733982, 0.019501612, -0.04771516, -0.017408315, -0.036688507, 0.06239578, 0.038661607, 0.074341856, -0.07738307, 0.057364233, 0.0065874234, -0.0720619, -0.014977161},
			{-0.015780397, -0.062636115, 0.03790172, 0.008447543, 0.048256014, 0.06390621, 0.045900326, 0.04644822, -0.009083517, -0.039546687, -0.0321974, -0.0814871, -0.011896156, -0.06436891, -0.050741922, -0.013275199, -0.08296803, -0.07946223, -0.02340858, 0.014793526, 0.040684856, -0.055513788, 0.07060775, -0.03262175, 0.04038977, -0.081067115, -0.03518567, 0.065314226, 0.028545983, 0.06917755, 0.04899149, -0.053408824, 0.055417426, -0.037753634, 0.056461867, -0.09160617, 0.008714497, -0.011347956, 0.0058242357, 0.024066126, -0.07098615, 0.017750781, 0.054199126, 0.025644548, 0.06838994, -0.00076585915, 0.08466648, -0.07907047, -0.06367701, -0.040035482, 0.010222904, -0.045008812, 0.015525095, 0.05427288, -0.015766324, -0.008658384, 0.02361092, 0.028640259, -0.026955247, -0.08116845, 0.10259937, -0.041038934, -0.073487446, -0.03268727},
			{-0.01258111, -0.006158665, 0.05070593, -0.034861412, 0.061932743, 0.04132366, -0.05729509, -0.008532158, -0.077347286, 0.0032611713, -0.071201585, -0.1060314, 0.033334926, 0.05393707, 0.058183633, 0.06938039, 0.008829256, -0.03061635, 0.0045444784, -0.07712174, 0.101607315, -0.05054144, -0.006438151, -0.009662497, -0.009092194, -0.14373009, 0.038537897, 0.031371918, 0.03594037, -0.040078588, 0.023005493, 0.046332657, 0.07924665, -0.048466895, 0.044690285, -0.026536616, 0.023588143, 0.020457773, 0.03591901, -0.0695762, -0.08460895, 0.12092022, 0.006421864, -0.036413964, 0.066989936, -0.040047977, -0.019137615, -0.07884004, 0.03287439, -0.022694461, -0.028558372, -0.0048019295, -0.03303783, 0.017827386, 0.02872403, -0.059411433, -0.008198023, 0.027071899, 0.01631737, -0.07070423, 0.01222937, -0.05812539, -0.004549414, 0.116769105},
			{0.019141428, -0.03341966, 0.017357597, 0.035139088, -0.037722126, -0.012568243, -0.053331804, -0.02621833, 0.009120502, 0.015652321, -0.0675939, 0.0033200807, 0.061527956, -0.038593233, 0.004514285, 0.024963625, -0.020094309, -0.079997614, 0.013921377, -0.055247117, 0.06921185, 0.067815155, 0.020565495, -0.054392405, 0.056114506, -0.049481228, -0.022326045, 0.044757508, -0.06391578, -0.014418213, 0.034443166, 0.010509768, 0.09383403, -0.007157795, 0.028937412, -0.054415256, 0.032844767, 0.0028654076, -0.07995248, -0.07467916, -0.05235471, -0.007020013, -0.0784632, 0.044552103, -0.035951443, 0.0506979, -0.023585064, -0.03793186, -0.018213894, -0.05276041, 0.008923863, 0.018148918, -0.009016387, 0.006753172, 0.06282829, -0.037976176, -0.06856054, 0.07158685, 0.06991327, -0.049493883, -0.010600945, -0.065250315, 0.0115497485, 0.04396963},
			{-0.04217962, 0.07212484, 0.02670621, 0.022211337, -0.03857964, -0.06922398, 0.006844453, 0.010239991, 0.05735074, 0.017493285, -0.07110088, -0.029703697, 0.0136653725, -0.00037685505, -0.052821275, -0.053952392, -0.073606074, -0.06698238, -0.061042357, -0.06121951, -0.014243693, 0.018726625, 0.009726673, -0.0742841, -0.06412661, -0.011879855, -0.0737192, 0.03145457, -0.017322404, -0.07483295, 0.027816039, -0.035984926, 0.050392266, -0.026402634, 0.046462458, -0.12013756, 0.06694719, 0.06886205, 0.03167565, -0.05268337, -0.013754636, -0.040288236, -0.05777593, 0.008673288, -0.0016989984, 0.049710188, 0.101116285, -0.05088789, -0.05968611, 0.05628017, -0.061057135, 0.012804859, -0.06404329, 0.033308405, 0.0070308507, 0.033932615, 0.07875383, 0.038799044, -0.004238282, -0.033530414, -0.014185917, -0.029005688, -0.032271437, 0.06404888},
			{0.07556732, 0.07389723, 0.0277134, 0.04226896, -0.056949683, -0.032488406, -0.060605127, -0.004699382, -0.019138344, 0.006283708, -0.07425894, -0.071104616, 0.04403001, 0.06325861, 0.05277807, -0.010435306, 0.004666278, -0.11111226, 0.0005152241, 0.04225416, 0.09762835, 0.05485256, -0.04856567, 0.03925958, 0.06818259, -0.17122728, -0.03348753, 0.049763188, 0.059512198, -0.060112022, -0.030384062, 0.024416445, 0.07581116, 0.031927202, 0.018881457, -0.15908583, 0.068474606, 0.06205881, -0.042298246, -0.07934594, 0.03901458, 0.15321276, -0.03618025, 0.0036444366, 0.056310073, -0.0042700986, 0.004934168, 0.04294053, 0.0036715046, -0.068922155, -0.05788624, -0.053210024, -0.041619852, 0.064630605, 0.06597675, -0.011566563, 0.016859159, -0.008423453, -0.06136469, -0.06275683, -0.0050231125, 0.03332876, -0.07266613, 0.024895137},
			{-0.02619734, -0.004753366, -0.017538935, -0.028381197, -0.0766619, -0.016363151, -0.024717443, -0.0729528, 0.05065018, 0.06292234, -0.03665469, -0.031110054, -0.013556524, -0.0525966, -0.052221995, 0.04776226, -0.027374767, 0.035105735, -0.00410028, 0.023731392, 0.040836427, 0.0675495, -0.01711779, -0.009217976, -0.046440005, -0.14729376, -0.029306892, 0.12658991, -0.09576266, -0.056330975, -0.03220855, 0.032275688, 0.16108862, -0.051949013, -0.021777116, 0.021188337, 0.048214793, -0.008343562, 0.06954044, -0.06471867, 0.03303764, 0.08728277, 0.009989319, 0.032905146, 0.033170864, 0.013910324, -0.08374735, 0.039191194, -0.048398495, 0.04042331, -0.051267326, 0.049345143, 0.045158014, -0.060997855, 0.0040247235, -0.056105766, 0.07413378, 0.101117216, 0.06911658, -0.08667994, 0.018266683, -0.049716488, -0.018149886, -0.0031105625},
			{-0.03248355, 0.0018928945, -0.02482191, -0.0071447166, -0.03286282, 0.0038691163, 0.050828345, 0.05371192, -0.06504007, 0.060864568, -0.016387679, -0.014797452, -0.025063198, -0.046127494, -0.057673655, 0.02265367, -0.09266775, -0.006101043, -0.01056816, 0.05175098, -0.022412557, 0.058976695, -0.07565656, 0.02960667, -0.02301917, -0.103786185, 0.0282453, 0.053192385, -0.056966938, -0.0081488695, 0.003505083, 0.06891997, 0.14887138, 0.017204903, 0.036349565, -0.05322397, 0.06767048, 0.061963413, 0.025918288, -0.022117209, 0.03755984, 0.06259027, -0.014006609, -0.004603006, 0.051197212, -0.06266154, 0.079629354, -0.0109136645, 0.012626193, 0.022521801, -0.05150178, -0.07649517, 0.056143194, -0.008820841, 0.042516723, 0.0058222977, -0.011571832, -0.004368224, 0.016718557, -0.12348762, -0.004525422, 0.044777527, 0.05812861, -0.044474382},
			{-0.012124054, 0.046533212, 0.1613824, -0.026142007, -0.08212645, 0.07098921, -0.00071215385, -0.07646718, -0.057974823, -0.06838063, -0.007435754, -0.095005445, -0.026343923, -0.037023384, 0.013288406, 0.049394086, -0.03995686, -0.04562253, 0.11940553, 0.008550588, -0.10191655, 0.037505142, -0.024949744, -0.052134484, -0.00011031598, -0.01804541, 0.05248706, 0.0482758, -0.08348318, 0.042229943, -0.07989046, -0.0809717, -0.013975699, 0.0424584, -0.06868363, -0.025343116, -0.051856093, -0.070057064, -0.07192206, 0.011701197, 0.058389302, 0.04990089, 0.015755652, 0.011155352, -0.020897815, -0.032032892, 0.033680283, -0.0065908832, 0.024295963, 0.010452939, 0.0015421734, -0.02195161, -0.016947847, -0.015631529, -0.003562681, -0.04405799, 0.0674559, 0.010129007, -0.04608403, 0.03118637, 0.032556977, -0.048264373, -0.006304361, -0.0030990476},
			{-0.008677758, -0.06393937, 0.09193803, 0.003758268, -0.07005751, 0.029858403, 0.062882036, -0.0018723715, -0.034600936, -0.07065636, -0.05256459, -0.023350816, 0.00048188886, 0.019623965, 0.020586131, -0.071277596, 0.020826768, -0.014830048, -0.007041622, -0.015748322, -0.07220099, 0.04833661, 0.040614277, 0.03887249, -0.07302629, -0.0520987, 0.0038955435, 0.10496176, 0.035463147, 0.011808609, -0.032608006, 0.055636745, 0.021591622, 0.013195704, -0.033345595, -0.033211496, 0.032424323, 0.02220128, -0.058588542, -0.07225809, 0.0353256, 0.10840755, -0.07735944, -0.0720198, -0.061743807, 0.0037205736, -0.013710265, 0.048889797, -0.062190786, -0.01634102, 0.044168204, 0.064176224, -0.07758175, 0.017591823, -0.0072606103, 0.07081194, -0.06199048, 0.06591041, -0.07355515, -0.033214357, 0.109441385, -0.062295295, -0.010141969, 0.05458946},
			{-0.023833234, 0.040042825, 0.11299441, 0.048745483, 0.035467483, -0.04589256, -0.01717873, -0.034073535, 0.012262911, -0.028687775, 0.037384026, -0.16076516, -0.050275613, 0.039572682, -0.08254715, -0.069003716, -0.14964733, 0.06766132, 0.021933524, -0.021854576, 0.026770514, -0.03233046, -0.035931125, 0.0064499746, -0.031655557, 0.021971699, 0.03129112, 0.13253923, 0.0093719475, 0.019980697, -0.02902558, -0.049941696, 0.071268216, 0.053599365, -0.036630884, 0.015201111, 0.05532235, 0.020006804, -0.04680085, 0.066444516, 0.032312002, -0.023297196, 0.053905662, -0.077317625, -0.065469876, -0.0471092, -0.0012057325, -0.030319901, 0.055300325, 0.023934089, -0.026843749, -0.00492641, -0.017118014, -0.04446563, 0.042973224, -0.017952934, 0.029387094, 0.13809155, 0.01136446, 0.041405357, 0.13553956, 0.023075383, 0.076652035, -0.06139744},
			{0.0396593, 0.034982942, 0.09963989, 0.07129646, -0.008745985, -0.07726829, -0.06437477, 0.012305149, -0.028197546, 0.0018819273, -0.07039005, -0.16840012, -0.05570005, 0.046879586, -0.055195857, -0.04176504, -0.0191337, -0.08798232, 0.12352614, 0.05819493, -0.051872045, 0.014949791, -0.014291152, 0.021711951, -0.04522173, -0.13007008, -0.013477646, 0.05368165, -0.08161896, 0.06812822, -0.066641256, -0.050231636, 0.011484429, 0.016829029, 0.023607567, -0.039493844, 0.042430878, -0.080004096, -0.043065183, -0.05650094, 0.014624584, 0.01973176, -0.05070874, 0.07697791, -0.06433001, -0.07834974, -0.0069815135, -0.073289454, 0.06974281, -0.05021424, -0.07736666, -0.06454309, -0.06721732, -0.05902872, -0.022289934, 0.054741897, 0.074331895, 0.09372159, -0.02518954, 0.026763214, 0.04849237, -0.07021193, -0.036708653, -0.033647586},
			{-0.012165323, -0.025478669, -0.01570907, -0.059542816, -0.017290462, -0.02830632, 0.023316782, -0.023494618, 0.045626126, -0.0628488, -0.059625283, -0.02192315, 0.04836314, 0.021244619, -0.043557134, -0.041199647, -0.049827658, -0.100195214, -0.048306644, -0.04004471, 0.014084506, 0.03589616, -0.07144182, 0.021013897, 0.025929337, -0.06993741, -0.03788831, 0.16299854, 0.037157148, 0.02606437, -0.039776664, 0.05834143, 0.099901296, 0.05256524, -0.040280517, -0.005536587, 0.0076250136, 0.06218441, -0.047956675, -0.0021550884, 0.020089934, -0.024102036, 0.044450745, -0.041641388, -0.027243286, -0.08489314, 0.05164589, 0.05125939, -0.012488827, 0.002191664, -0.072404966, 0.018873865, 0.0020269677, -0.0119050415, -0.06145582, 0.068990685, -0.047248047, 0.109500356, 0.03282713, 0.009842282, 0.10874716, 0.00075314875, 0.002107419, 0.06159267},
			{-0.015391678, 0.04901661, 0.09265544, -0.084259674, -0.062303104, 0.032930464, 0.0090422155, -0.04057722, -0.0032007769, -0.055748813, 0.025972493, -0.05330197, 0.06387001, -0.04891279, 0.026877897, 0.011296064, -0.078697346, -0.031009316, 0.050169054, 0.049899507, -0.0046123015, -0.069539845, -0.072342776, -0.00925372, -0.058534738, -0.09376848, 0.03383287, 0.12630437, 0.012714204, 0.04103362, -0.05426164, 0.0389602, 0.045958403, -0.028360695, 0.021707168, -0.046719737, -0.07498322, 0.029720027, 0.062049393, -0.05332451, -0.014793267, 0.018189352, 0.016218502, 0.02775827, 0.013987394, 0.071222335, 0.11050076, 0.018130481, 0.077028304, 0.03893032, -0.011792142, -0.021432586, -0.0043164566, -0.053847086, 0.07153334, -0.0041394676, -0.07432641, 0.03121186, -0.00028920674, 0.0345586, 0.08316101, 0.017590823, -0.057305075, -0.088989764},
			{-0.05826921, 0.011222087, 0.11124204, -0.07887994, 0.06145241, 0.05452299, -0.0706926, 0.06322216, -0.05240514, 0.054265454, -0.03358071, -0.10078916, -0.064812385, -0.009545518, -0.038848042, 0.03145439, -0.009768264, 0.04665188, 0.096053645, 0.01479482, -0.094085336, -0.018331606, 0.0451373, 0.0031368406, -0.040447272, -0.0016690608, 0.031706907, -0.0013639939, -0.1434299, 0.02731161, -0.0026330678, -0.01689492, 0.061094437, 0.012998266, -0.056934197, -0.06580383, -0.062390897, -0.02534822, -0.01218334, 0.01743184, -0.02234038, 0.050976686, 0.0024299074, 0.02193936, -0.04367688, -0.057924047, 0.008483334, -0.028297037, -0.062886775, -0.005277965, -0.1101133, -0.0030917022, 0.06250936, -0.023255533, -0.032597248, 0.010720082, -0.057380497, -0.017972076, 0.0319923, -0.041765943, 0.0026730977, 0.059883535, 0.052940026, 0.010122353},
			{-0.054424867, 0.02462846, 0.08333968, -0.0101181455, 0.051435336, -0.001201421, 0.053590454, 0.032508627, 0.075669855, 0.020073742, 0.047931716, -0.07285005, 0.04574372, 0.03068796, 0.01765293, -0.05292786, -0.0023632112, -0.05222774, -0.00085102627, 0.015518532, 0.014772956, -0.0040316805, -0.043763533, -0.05393644, -0.0306932, -0.11440623, 0.00024232268, 0.12587294, -0.06838308, 0.06657063, 0.07146002, 0.07051667, 0.10404026, -0.0734027, -0.018267378, 0.044122156, 0.052439466, 0.013941273, -0.07508274, 0.028958447, -0.051253125, 0.06468613, 0.04147617, -0.0038650483, -0.019900352, 0.054161385, 0.03485568, 0.040386975, -0.054713592, 0.049509864, -0.015612834, 0.06055212, 0.048462734, 0.049244486, 0.0030243678, 0.006277506, -0.023392525, 0.12147028, 0.061054554, -0.059338197, 0.08039668, 0.032483887, -0.019536298, -0.07334959},
			{-0.018040735, -0.028607685, 0.098678276, 0.042118724, 0.054561164, -0.04742087, 0.05526471, 0.043213908, 0.05836901, -0.04545859, -0.048486933, -0.08530874, -0.07671285, 0.070095085, 0.016037527, -0.048033573, -0.05007145, 0.06901304, -0.023297155, 0.025519636, 0.02513304, 0.019984022, 0.013797328, -0.05189999, -0.07117546, -0.08375275, 0.0066176504, 0.09048714, -0.0295622, 0.01977989, 0.046325635, 0.03013576, 0.07001805, -0.018507348, 0.017806888, 0.04781526, 0.060041457, 0.06279856, 0.04346697, 0.044915773, -0.07889486, -0.06657907, -0.00012591318, -0.021494083, 0.062720485, -0.019222114, 0.08020405, -0.0008037093, -0.05565755, -0.023831317, 0.009871155, -0.005548669, 0.020528257, 0.004641565, -0.06822868, 0.023314893, 0.061690345, -0.014409016, 0.005424281, 0.08831371, 0.111891694, 0.0018791201, -0.07629569, 0.0031677997},
			{0.01149755, 0.015805505, 0.029069798, -0.03715639, 0.029575275, 0.0044597536, -0.049868327, -0.005338062, -0.00036036968, -0.0020119026, 0.031865865, -0.14625159, -0.007384454, 0.023952566, 0.058754526, -0.025021542, 0.01600049, 0.088125125, 0.08084343, -0.0679738, 0.058558855, 0.017807439, -0.05497928, -0.036829136, -0.042674262, -0.12292342, 0.0434815, 0.06381407, -0.12172177, -0.021918042, 0.0052351076, 0.0019839096, 0.071028836, -0.013257934, -0.047546867, -0.026362674, 0.033336803, 0.06280576, 0.06867278, -0.07704225, 0.038496174, -0.025030438, 0.061073866, 0.054105923, -0.007038175, -0.042840354, 0.07414581, -0.05108757, 0.030512221, -0.009143285, 0.021311322, 0.030498588, 0.0041540414, 0.07274741, -0.08250271, 0.025203211, -0.054457974, 0.048071995, 0.030580238, 0.03106962, 0.07146868, -0.0526603, 0.07030605, 0.040828202},
			{0.0035671443, 0.048167348, -0.016480438, 0.023323935, -0.051315118, -0.06821436, -0.036783513, -0.07368788, 0.027284741, -0.003953077, -0.076171435, -0.043276675, 0.015008971, 0.023319948, 0.055985596, 0.054918036, -0.077280834, -0.035367038, 0.065314665, 0.023438575, 0.027066955, -0.031425837, -0.017830428, -0.05323622, 0.042050093, -0.0594057, 0.06878148, 0.07380504, -0.098822646, -0.07689167, 0.06707589, 0.05245447, 0.03111236, 0.018769987, -0.062196083, 0.04131244, 0.056368545, 0.038065396, -0.06876242, 0.02295368, -0.028047705, -0.07886042, -0.058875103, -0.05171331, -0.029977519, 0.027346507, 0.03825506, 0.0559694, 0.004581332, 0.019806743, 0.03276873, -0.018178187, 0.03134291, -0.068697214, -0.04132855, -0.045944054, -0.011754379, 0.011478534, 0.05733434, 0.06500838, 0.0159831, -0.05861358, 0.035969198, 0.0072120144},
			{-0.007322125, 0.028104998, 0.04699189, 0.040304583, -0.020395609, 0.0042014197, 0.030083433, 0.025503384, 0.0019281209, 0.027186006, 0.07806802, -0.024314985, -0.021322064, -0.070458226, -0.04142878, -0.012215868, 0.043028053, 0.018870972, 0.046599906, 0.06081314, -0.016182862, -0.0123318285, -0.00816118, -0.08435997, 0.026556998, -0.009168244, -0.05092907, -0.020034216, -0.12984636, -0.029900836, -0.0013865492, -0.07701436, -0.062261004, 0.036241293, 0.06932642, 0.01938635, -0.045137208, 0.00971383, 0.06386596, -0.0073928027, 0.04791163, -0.05266398, -0.00018398017, -0.06180169, 0.0038387368, 0.029911969, 0.0395226, -0.05628667, -0.05886139, 0.0485729, 0.030286454, 0.012620021, -0.031948254, -0.055539623, -0.059343513, -0.02723864, -0.062301457, 0.08266235, -0.003535083, 0.10285572, -0.0012376164, 0.005242177, 0.022423632, 0.039085843},
			{-0.0033017471, -0.030516569, 0.10984217, 0.059355553, -0.009469378, 0.004506603, -0.012221805, -0.019842096, -0.07794182, -0.07486009, -0.04410673, -0.086773194, 0.008953357, -0.03597174, 0.05127014, 0.057988256, -0.0076019205, -0.024455842, 0.101645276, -0.0063129063, -0.06820757, -0.018435791, 0.008991674, -0.08441694, 0.006684627, -0.12479611, -0.010998704, -0.040344898, -0.070282154, -0.040154982, 0.037607558, 0.019197527, -0.024725404, 0.013019799, -0.08311684, -0.023894135, 0.038642496, 0.049917147, -0.031624038, 0.008923443, -0.021165606, -0.07222709, -0.026819909, 0.06692825, 0.040577456, 0.049703058, 0.004998177, -0.07640192, -0.049979433, -0.01592756, -0.11449883, 0.014343728, -0.069176935, -0.04234086, 0.042057388, 0.0651157, 0.036196396, 0.044344213, -0.053933255, 0.053607203, 0.059288565, 0.043725267, 0.0367847, -0.03136901},
			{-0.04554906, -0.0070093423, 0.08799569, -0.0032551032, -0.026132653, 0.04116963, 0.020500444, 0.07159081, -0.012025833, 0.016902402, -0.033176646, 0.002436539, 0.05187272, -0.051683415, 0.0659848, 0.07510604, -0.07624051, 0.061537024, 0.083479665, -0.011992727, 0.029663775, -0.01978302, -0.022892926, 0.050203137, -0.07266046, 0.061115034, 0.04255425, -0.021316575, -0.041303895, -0.033889797, -0.043022607, 0.0265814, -0.13864912, 0.060630206, 0.014090367, -0.05223733, -0.07252024, 0.04161224, 0.045677934, 0.036987692, 0.0149160065, -0.086703956, 0.057653107, -0.034717143, -0.040147588, -0.0146182375, -0.041922364, -0.07046257, -0.052243926, 0.022764593, 0.033519767, -0.035118956, 0.014079548, -0.022118157, 0.05949775, 0.01975437, -0.050386354, 0.06569503, -0.059723716, 0.010720566, -0.01707274, 0.050835516, 0.014479078, 0.07540689},
			{0.016870238, -0.03301968, -0.013388554, 0.053381592, -0.072302476, -0.050473668, -0.053770047, 0.022692595, 0.061607763, 0.046817794, 0.059789598, 0.020902505, 0.0038379256, -0.029100401, 0.029262803, -0.008749612, 0.037223507, -0.022826893, 0.039467186, 0.061619416, 0.027695172, 0.028319128, -0.042206068, -0.048158757, 0.00087600894, 0.06985422, -0.03753456, -0.031387582, -0.11551438, 0.006398345, 0.0510431, -0.059043303, -0.15688902, -0.06973092, 0.050314922, -0.056676656, -0.05591872, -0.030555174, 0.06108199, -0.0703237, 0.030703735, -0.033362444, -0.06586524, -0.03489871, -0.051904358, -0.026411492, 0.07089961, -0.039475575, 0.03184183, -0.05802667, -0.087627456, 0.027750278, 0.0074256733, -0.07706383, -0.05249017, 0.07324985, 0.063685104, 0.025969695, 0.008737287, 0.016586708, -0.023088647, -0.038145725, 0.037915587, 0.028240034},
			{-0.00035508722, 0.045367777, 0.10895894, -0.028078092, 0.06840121, 0.0012135357, 0.0019630576, 0.0047729774, -0.06864293, 0.005747542, -0.045489624, 0.04434608, 0.06089373, -0.026369479, -0.059291482, -0.076213114, -0.12346162, 0.10526445, 0.058055855, 0.05304616, -0.0419752, 0.030736849, 0.045263663, -0.030167999, 0.030703101, 0.047929693, 0.04675433, -0.052426003, -0.05926257, 0.051644314, 0.028540814, -0.017567746, -0.11767246, 0.03502248, -0.06431317, 0.108748965, 0.05310519, -0.052836407, -0.017745802, 0.057861716, 0.003243501, -0.120509, 0.04176816, -0.016463596, 0.038540594, -0.08349899, 0.07611686, 0.07158696, -0.017389324, -0.046136443, 0.013052489, 0.08380102, 0.03524232, 0.02989724, 0.0089157885, -0.026455695, -0.071021914, -0.026714632, -0.020931674, 0.15480459, 0.10440703, -0.0075277565, -0.016028248, -0.063532665},
			{-0.041120723, -0.015026607, 0.068985224, -0.049214453, -0.04473893, 0.048243538, 0.016527174, -0.06165563, -0.0017335415, 0.062931105, -0.06652831, -0.012250212, 0.0646918, 0.01092331, 0.061459415, -0.04151668, -0.04472331, 0.045759562, 0.14798993, 0.039930403, 0.022081302, 0.018224373, -0.07131551, -0.058022365, -0.023924174, 0.063909546, -0.0741803, -0.029594881, 0.028351571, -0.06513448, 0.061073083, -0.034688782, -0.03920254, -0.053805977, -0.038190927, 0.11824931, -0.013647288, 0.014929098, -0.066308066, 0.06015723, 0.052380916, -0.105526656, 0.0047771013, -0.07258158, -0.00899807, 0.03181413, 0.038284916, -0.030698264, -0.030733176, -0.012062832, -0.038721066, -0.004436817, 0.03964389, -0.06406795, -0.010528819, -0.0062975455, -0.061642036, 0.03181163, 0.050345745, 0.039856855, -0.027654096, 0.037536647, -0.072141856, -0.0112505965},
			{0.0009960756, 0.030599892, 0.009382136, -0.035200533, 0.07079345, 0.077228025, -0.016218333, 0.047629423, -0.074143395, -0.05610719, 0.05893697, -0.0417759, 0.06894903, 0.040728237, -0.040504113, 0.011642873, -0.047668062, 0.0008720789, 0.114147484, 0.018210128, -0.07121696, -0.05331808, -0.0138383135, 0.049884193, 0.04707148, 0.025143947, 0.0573131, -0.09090986, -0.06137157, -0.014793694, -0.015128609, -0.037177857, -0.006725198, -0.070661716, -0.006506845, 0.0011895375, 0.005207598, -0.06461133, -0.011524036, 0.029058792, 0.04103636, -0.10961152, 0.058906633, -0.03653621, 0.03783411, 0.04904544, -0.019637689, 0.07303776, 0.06500983, -0.06561095, 0.049510036, -0.03256942, 0.024818853, -0.03703143, 0.06217377, 0.07416895, -0.03728253, -0.039420657, -0.04127723, 0.119414814, 0.040270362, 0.063840896, 0.06330308, -0.024195425},
			{-0.024131853, -0.019204516, 0.08798458, 0.0037731838, 0.026347147, 0.023636162, 0.06774678, -0.0023502784, 0.031504557, -0.042276435, -0.039008737, -0.009353492, -0.059705283, -0.08394486, 0.058123324, 0.0038977787, 0.004712466, 0.014949592, 0.08602516, 0.022657076, -0.026983628, 0.034617655, 0.045783937, -0.04108224, -0.0057402304, -0.049207017, -0.05995631, 0.012970498, -0.028573425, -0.028193846, 0.015578312, -0.055932567, 0.042690754, -0.03234073, 0.057324294, 0.054828312, -0.057975575, 0.050250027, 0.023739178, -0.05269627, 0.020922331, -0.09390504, 0.006593002, -0.010384269, -0.057534736, -0.04768092, 0.006430884, 0.030371487, 0.030758046, 0.008063352, 0.06356351, 0.033338625, -0.05673947, -0.055035643, 0.060699835, 0.023148498, 0.07758273, -0.02679703, 0.06881049, 0.028500423, 0.044889577, 0.0666264, -0.02520815, 0.036614403},
			{0.06742768, -0.063262194, -0.00393916, -0.044338003, -0.039406523, -0.03728571, -0.04487885, 0.034836456, 0.028821155, 0.0651242, -0.07283944, -0.07183143, 0.050223816, 0.019355465, 0.057786796, -0.0699918, -0.060001202, 0.021595374, 0.16169599, -0.05003859, 0.0023419522, -0.03719644, -0.06949098, -0.028227543, -0.046424657, 0.04194627, -0.029061295, -0.08876211, -0.043877028, -0.058407836, -0.060214024, 0.029376945, -0.019105215, -0.05935721, 0.033585083, 0.10994616, -0.008373879, 0.062185656, 0.036085326, -0.032166995, -0.039072964, -0.11539038, 0.004530074, -0.05740279, -0.048127886, -0.05801203, 0.07083199, 0.03324312, -0.07030887, -0.0078038406, 0.040966526, 0.017582532, -0.06670156, -0.070087016, 0.057841968, -0.028560529, 0.043556064, 0.07745178, 0.039065156, 0.1060176, 0.102067806, -0.01125744, -0.071609415, -0.060513455},
			{0.07458608, 0.037513927, 0.08875366, -0.015963128, -0.037669867, -0.051102057, -0.080968685, -0.02466941, 0.025913805, 0.0048085377, -0.009684518, 0.0090048285, 0.02283804, 0.043344732, 0.028725091, 0.07623316, -0.05385409, 0.025388213, 0.13918684, -0.06519851, 0.052223723, -0.045540523, 0.07510166, 0.014875043, 0.027071035, 0.0027565327, 0.068419084, 0.006374248, 0.034317423, -0.059722878, 0.06286649, 0.06866031, -0.08554042, -0.031405795, 0.03864772, 0.12933663, -0.061502583, 0.06298788, -0.07558236, 0.054149486, 0.045425616, -0.06706973, 0.025491273, -0.016130723, 0.03656256, 0.031616874, 0.056325566, 0.009713123, 0.0652155, 0.020499988, -0.03994224, 0.018703101, -0.0126819685, 0.023288716, -0.021232972, 0.023005525, -0.038154576, 0.015028092, 0.055846836, 0.09129325, -0.00094711775, 0.05211146, 0.07782467, -0.042588644},
			{-0.027649794, -0.0632229, 0.077764824, 0.067213245, 0.013629959, -0.008272454, -0.011672775, -0.0033285217, 0.027222328, -0.05659415, -0.012051411, 0.04090882, 0.05488186, -0.0028388668, -0.06353021, -0.05025027, -0.064832985, 0.07293652, 0.088094704, 0.044261467, -0.004593908, 0.031649277, 0.03662266, -0.039659217, -0.037468627, -0.07988869, -0.062502906, -0.09520229, -0.04929188, -0.083203316, -0.011940928, -0.01362008, -0.044359513, -0.02161431, -0.03963025, -0.020128727, 0.0052753687, 0.052101955, 0.07320111, -0.009746637, 0.06641215, -0.039292607, -0.069316134, -0.014587671, 0.02690245, -0.06019853, 0.120230906, 0.06707757, 0.006273158, -0.023110462, -0.05462086, -0.014595954, 0.014019474, 0.027721196, 0.04057437, 0.033884667, 0.011043981, 0.006904273, 0.07189366, 0.1226362, 0.11552999, 0.0077580474, -0.077358425, 0.00093468337},
			{0.031992853, 0.02357541, 0.033950306, 0.056067828, -0.06801488, 0.0074995905, -0.05264395, -0.073261306, -0.028991137, -0.006378226, -0.06726293, 0.015588626, -0.029396791, -0.0779524, -0.08017119, 0.07836434, -0.11148864, 0.10163228, 0.13819318, 0.042205554, -0.010555621, 0.023234561, 0.054073513, 0.058779098, -0.032732558, -0.019702837, 0.070319116, -0.07421058, 0.03055252, 0.00014479537, 0.06961245, -0.047549948, 0.010394109, -0.061863888, 0.011438754, 0.008879484, 0.027618587, -0.035280265, -0.044468872, 0.061346777, -0.07277953, -0.08037369, 0.055653606, -0.022827111, -0.032315202, -0.05926189, 0.10582046, -0.07581747, 0.023291215, 0.037496656, -0.08046982, 0.06417586, -0.0654819, 0.05258483, -0.021316322, 0.036766794, 0.05673921, 0.0364764, 0.05978864, 0.040682044, -0.041197468, 0.009711155, 0.028690994, -0.052854232},
			{0.045376353, 0.06464085, -0.008712163, 0.015696185, -0.04928524, -0.054150082, 0.029000236, -0.028197093, 0.0117881745, -0.06461828, 0.055568412, -0.029728368, 0.036856733, -0.00404064, -0.033462938, -0.035074204, 0.055853225, 0.12744899, 0.08921999, 0.043930784, 0.044821184, 0.054211557, 0.031748965, -0.07869058, -0.024933754, 0.06964917, -0.034973327, 0.022026591, -0.06902629, 0.05983855, 0.014660141, -0.081026554, -0.010602118, -0.0653724, -0.032211725, 0.02148037, 0.06008245, 0.02580826, 0.0062362743, 0.035873454, 0.054790374, -0.11436708, -0.03187096, -0.033063486, -0.07248969, 0.06708292, 0.05965972, 0.031398192, -0.013588697, -0.034045957, -0.06958031, -0.0390593, -0.010259941, 0.072032295, -0.013441762, -0.043192014, -0.04233877, -0.059694156, -0.04280476, 0.027118053, 0.06864124, 0.01743719, 0.008160576, -0.06046933},
