#include "ap_int.h"

#define n_inputs 900
#define n_layer1 32
#define n_layer2 24
#define n_layer3 4

void hwmm_layer1(float input[n_inputs], const float weights[n_inputs][n_layer1], float output[1][n_layer1]);
void hw_act_layer1(float input[1][n_layer1], float output[1][n_layer1]);
void hwmm_layer2(float input[1][n_layer1], const float weights[n_layer1][n_layer2], float output[1][n_layer2]);
void hw_act_layer2(float input[1][n_layer2], float output[1][n_layer2]);
void hwmm_layer3(float input[1][n_layer2], const float weights[n_layer2][n_layer3], float output[1][n_layer3]);
void hw_act_layer3(float input[1][n_layer3], int &pred);
int nn_inference(float input_img[n_inputs]);


namespace weights {

	const float layer3_weights[n_layer2][n_layer3] = {{0.45644054, 1.0905492, -0.20379138, -0.9233646},
			{0.39801773, -0.6547587, -1.0682392, 0.5383441},
			{0.4071881, -0.28315538, -0.034006882, -0.39927313},
			{0.5373304, 1.1140181, 0.70745325, -1.3796206},
			{0.28853086, -0.97670496, 0.7852795, -0.63945633},
			{-0.5918985, 0.5781941, -0.21172583, 0.7117279},
			{-1.0482535, 0.7704021, 0.581453, -0.3318227},
			{0.19024545, -0.28233412, 0.110958755, -0.55644214},
			{-0.48989493, -0.0686753, -0.11847234, 0.49996156},
			{0.0026969658, -0.00022702738, -0.16716446, 0.41054085},
			{-0.24509785, -1.0806979, 0.62465006, 0.15694067},
			{-0.17452948, 0.6487366, -0.61979973, 0.16775236},
			{0.84466136, -0.20508689, -0.96778107, 0.16507256},
			{0.2759447, 0.010557239, -0.23441689, 0.11214293},
			{-0.42655435, -0.040407404, 0.43822086, -0.2016228},
			{-0.11048727, 0.49912092, -0.8273411, 0.106064856},
			{-1.4831458, -0.06922092, 0.5905367, 0.47163126},
			{-0.08347813, 0.8274545, 0.38860953, -0.041628167},
			{-0.31692404, -0.29795194, 0.20299958, -0.15045609},
			{0.7787352, 0.2070607, -1.2457635, 0.31051156},
			{-0.017703962, -0.6516404, 0.5299776, 0.67503744},
			{0.29507297, -0.12175314, -0.21492983, -0.30409333},
			{0.36676082, 0.17365807, 0.20493734, 0.32023644},
			{0.25428468, 0.20665963, 0.20283112, -0.021126058}};

	const float layer2_weights[n_layer1][n_layer2] = {{-0.19461338, -0.017138451, -0.2263738, -0.117464125, -0.30527514, 0.30667144, -0.1679253, -0.22773898, -0.07043043, 0.15680972, -0.30502948, -0.1785451, 0.24140811, 0.22144222, -0.26289955, -0.11173351, -0.20406857, 0.27847034, 0.07926956, 0.06430906, 0.037505478, -0.16032593, 0.18214858, -0.012319744},
			{0.11652693, -0.19359487, -0.072632104, -0.2064496, 0.20170408, -0.121227175, 0.09371561, 0.14713189, -0.26573813, 0.0041598976, -0.16384229, 0.10685402, -0.27640367, 0.009852648, -0.2566897, -0.10540916, -0.097982794, 0.13998842, 0.27105987, 0.25175273, 0.30688792, 0.0140607655, -0.086833194, -0.16249093},
			{0.397669, -0.52861804, -0.058583677, -0.0018665015, 0.3999351, -0.25790113, 0.13831474, 0.09036487, -0.092417434, -0.099034496, -0.082498565, -0.29156306, -0.025723316, -0.26536748, -0.31265524, -0.03756064, -0.2830134, 0.08534805, -0.2405945, -0.32891253, -0.23352513, 0.071825266, -0.10834238, 0.011710228},
			{-0.0018671155, -0.26491785, 0.14438376, 0.02199316, -0.022903264, -0.32047182, 0.17796218, -0.15976599, -0.02201733, 0.22301888, -0.22566682, 0.23736101, -0.2898028, -0.32474744, 0.047311753, 0.0956009, -0.24094082, -0.093362466, 0.23126596, -0.32721898, -0.174698, -0.0090996325, -0.24169695, 0.17385024},
			{0.1822328, 0.066291235, 0.06294091, -0.16837294, 0.26852584, 0.082997575, -0.0835693, -0.004773054, 0.18984513, 0.29293218, -0.11319897, -0.14344567, 0.21792513, 0.17248508, 0.16207865, 0.29963654, -0.31482977, -0.12461702, -0.16250366, 0.17561758, -0.06893419, -0.028177625, -0.28986523, 0.036870606},
			{0.31116277, -0.19107017, -0.22631082, -0.021576554, -0.28078103, 0.012096018, -0.0073551238, 0.21748286, 0.26129717, 0.033005416, -0.030474007, 0.21394736, -0.048485726, -0.03671828, 0.035763353, 0.26426035, -0.253085, -0.22529021, -0.3089241, 0.21011299, -0.016612947, 0.29778808, 0.27494544, -0.12234019},
			{0.32511628, 0.064488135, -0.16620259, 0.24707593, -0.24481887, 0.30974174, -0.23532805, 0.2777406, 0.24795526, 0.046540227, -0.44693658, 0.4601152, 0.25206497, 0.21813358, -0.32151437, 0.48447695, 0.23178156, -0.065581396, -0.085456274, -0.14381514, -0.2119683, -0.02176012, -0.28730756, -0.105002746},
			{0.16553855, 0.16150399, -0.09845121, 0.15714106, 0.018726023, -0.06300656, -0.311266, -0.032452572, 0.05420212, -0.114727706, 0.20376962, -0.27040496, 0.18972506, 0.2009921, 0.08546677, -0.052879393, 0.14514497, 0.23942967, 0.17653602, 0.066432625, 0.10492648, -0.22683752, -0.06408274, -0.044562224},
			{-0.4882538, -0.32402328, -0.14155616, -0.065916374, 0.22697696, 0.22241923, -0.13138404, -0.0834939, -0.13100287, 0.20309804, 0.2657542, -0.19056478, -0.42116636, -0.13939442, 0.23738126, -0.004450581, -0.13275127, -0.35059458, 0.0011044828, 0.32089075, 0.40614584, 0.045047775, -0.09475379, -0.23323897},
			{-0.062272966, 0.16323334, 0.18411338, 0.07334578, 0.2032727, -0.3134124, -0.07085934, -0.2627189, -0.29254732, 0.14054921, -0.013933808, -0.08863734, -0.27887106, -0.2348271, 0.018536627, -0.25423732, -0.14793491, 0.14004445, 0.026224375, -0.036716163, 0.17431265, -0.03231442, -0.095050186, -0.21912701},
			{-0.12164097, 0.27027377, -0.23122206, -0.007920961, -0.27488568, 0.11853417, 0.43784752, 0.12653276, -0.15264295, -0.2974307, 0.020719992, 0.48621634, 0.47204477, 0.004926079, 0.09931397, 0.29043338, 0.023657128, 0.46700302, 0.21636252, -0.13804528, -0.22890468, -0.15436172, 0.20069125, -0.037859503},
			{-0.025568962, 0.06169328, -0.32036787, 0.08656964, -0.18129385, -0.0009685755, -0.18460059, 0.08207175, 0.26172638, 0.22613758, -0.30170503, 0.32068706, -0.055211604, 0.16527715, 0.049188882, -0.17132266, -0.07020113, 0.25985855, 0.28403735, 0.14427066, 0.32295555, 0.17124328, -0.15338802, 0.22291732},
			{-0.13316199, 0.2456539, 0.14859189, 0.2961003, -0.13361706, -0.27423316, 0.009330981, 0.17155628, -0.14718275, 0.22961146, -0.057176612, 0.16346654, -0.3065125, -0.0036262572, 0.16169655, -0.24731456, -0.051360607, 0.07396123, -0.18840899, -0.089431, 0.26667374, -0.27917224, 0.009361625, 0.23151293},
			{-0.022857321, 0.075314954, 0.26599786, 0.14878973, -0.0056180847, 0.28490037, 0.4250495, 0.2521718, 0.25728372, 0.1264259, 0.023278065, -0.09686972, -0.35577184, -0.092811346, -0.077314526, -0.046500433, -0.22362319, 0.38408405, 0.12269231, -0.1570872, 0.29514822, -0.10437174, -0.14001705, -0.17866035},
			{0.8250193, -1.0763862, -0.26653582, 0.10505869, -0.91957915, 0.85747933, 0.3243687, -0.81608814, 0.43431583, -0.23905274, -0.2732087, 0.7150864, -0.83509856, -0.019328743, 0.13930835, 0.43181744, 0.09163406, 0.30370888, -0.14431562, 0.6550517, -0.23708689, -0.0043113525, 0.17336027, -0.318707},
			{-0.25789776, 0.0467726, 0.27618122, -0.39249542, -0.45950845, 0.71085924, 0.14520596, -0.49893466, 0.3726009, -0.3255101, 0.30794132, 0.52213, -0.61384475, -0.0968633, 0.28025666, 0.4289209, -0.41610107, 0.23939742, -0.18970963, -0.30590737, 0.15550521, -0.16485587, -0.0057909484, 0.06612947},
			{-0.1740256, 0.15144208, -0.17820515, 0.2302109, -0.2783731, -0.025919765, -0.12206064, -0.16387202, 0.32029837, -0.16348314, -0.1880429, 0.22456682, -0.15238816, 0.1537872, 0.115125, 0.27211648, 0.2219168, -0.14112742, -0.049074322, 0.20638984, 0.056344986, 0.043281496, -0.22557576, -0.28801832},
			{-0.31598464, -0.31117353, 0.045233063, -0.21114594, -0.118370175, 0.26840004, -0.03620733, 0.04989803, -0.29946628, 0.25096086, -0.106927395, -0.24201398, 0.025217306, 0.08698061, -0.08499814, -0.20788163, -0.11862165, 0.13513039, -0.13990743, 0.12076653, -0.15963061, 0.3156613, 0.16616362, 0.10528118},
			{-0.15656608, 0.2720126, -0.19480504, -0.047642328, 0.419393, -0.28658703, 0.03423876, 0.28539798, 0.03448256, -0.33600098, 0.1644447, 0.079985335, 0.43831483, -0.16483562, -0.29138684, -0.1375255, 0.27206275, -0.24646634, 0.16225378, 0.265763, 0.11041421, -0.3005006, 0.054949287, 0.037061613},
			{0.51634216, 0.27319497, 0.06539486, -0.5961413, 0.6389754, -0.42894685, -0.67545277, 0.34078178, -0.44394395, 0.28631517, 0.2473763, -0.6027125, 0.65809083, -0.03435131, 0.14194803, -0.29128945, -0.19469278, -0.42754194, -0.0266545, -1.1245041, 0.4298404, 0.24026662, -0.19990577, 0.23990677},
			{-0.14608668, 0.12941879, 0.0013702512, -0.1339877, 0.17812711, -0.15294819, 0.008184522, -0.18889135, -0.2301669, 0.25118876, -0.10007352, 0.32687116, 0.013053566, -0.04233542, -0.061466813, 0.24397331, -0.0882515, 0.23669577, 0.17290002, 0.03129819, -0.32562828, 0.14292306, 0.0123384, -0.2911056},
			{-0.25898415, 0.16073269, -0.26410902, 0.085903645, 0.18230855, 0.09028524, 0.1888969, 0.2361905, -0.18276219, -0.16993572, -0.09560396, 0.21785069, 0.15492776, 0.21818566, -0.26078057, -0.1635835, -0.17351693, -0.1272431, 0.3033045, 0.17583811, 0.302325, -0.18739164, 0.15786234, 0.26108384},
			{-0.12271869, 0.020955354, -0.2911344, 0.22982591, -0.20321137, 0.23742384, -0.22187874, 0.067602515, -0.2881851, 0.06431663, -0.25660518, -0.19396307, -0.29611465, 0.07200536, -0.247216, 0.20044625, 0.28677887, -0.15151277, -0.04500106, -0.14101005, 0.26119953, -0.1990347, -0.19669724, 0.08052641},
			{-0.05944392, -0.28965354, -0.21710885, -0.19228707, 0.18963213, 0.31368253, -0.19432567, 0.2051203, -0.01545301, -0.0036042852, -0.010430497, 0.114739574, 0.26742914, 0.18665922, 0.2983836, -0.09638442, -0.062140524, 0.05614404, -0.2895934, 0.013743609, -0.106067516, 0.10927936, -0.28436685, -0.27324325},
			{0.20375144, 0.09563706, 0.27238142, 0.20243733, 0.09884431, 0.22920194, 0.18517153, -0.047653213, 0.20146847, 0.14589524, 0.3317828, -0.048800364, 0.1853856, 0.105958104, -0.22349271, 0.20899302, 0.08281748, -0.040185485, -0.1583761, 0.048401278, -0.26563713, 0.08013337, 0.0721613, -0.011465307},
			{-0.3358356, -0.4643522, -0.26659146, -0.14123794, 0.10000587, 0.30856276, 0.4714702, 0.025531787, 0.42410764, -0.22716066, -0.5075652, -0.0029927709, -0.8717874, -0.30591127, -0.22317342, -0.1711245, 1.0696898, 0.264407, -0.2760747, -0.17720611, -0.0009460205, -0.09229472, -0.29151586, -0.20071727},
			{-0.16537414, 0.17129269, 0.12450683, -0.32448, 0.097103834, -0.23751795, 0.17470509, -0.12904929, 0.0712066, -0.11463085, -0.30119362, 0.2164073, 0.051576465, 0.10837254, -0.26961076, 0.09568238, -0.23320588, 0.23859173, -0.1410404, -0.28868276, -0.07716322, -0.1890639, 0.17576927, -0.30252358},
			{0.29545534, 0.24413992, -0.17222051, -0.10313623, -0.19669127, 0.27812126, -0.25796264, 0.037893556, 0.10193331, -0.27478805, 0.11576788, 0.19863604, 0.1252999, 0.042127132, -0.20737751, 0.12273586, -0.06626358, -0.2780018, -0.19573554, -0.19779842, 0.09456511, 0.32088768, -0.013903914, 0.3014707},
			{0.016531616, 0.16104296, -0.065338105, -0.17816074, 0.026821524, 0.11021593, 0.2721715, 0.20312136, 0.18235022, -0.01143086, -0.11213635, 0.27789104, 0.14593005, -0.2878002, -0.08378203, -0.28760868, 0.19109333, 0.022480905, 0.26411408, -0.0013843775, -0.11582893, 0.08870992, -0.09765978, 0.13376576},
			{0.0003748238, -0.0730941, -0.16648771, 0.11341217, 0.1959886, 0.0043645203, -0.24343938, -0.19382237, -0.23300603, 0.22724414, -0.08478789, 0.30923188, 0.05208543, 0.29635048, 0.08836216, -0.083418354, 0.0342063, -0.21515137, 0.119336784, -0.19146974, -0.2442862, 0.25513887, -0.12189902, -0.29171658},
			{-0.2879266, 0.71203464, -0.14795266, -0.6464603, -0.117688276, -0.028172808, -0.35865465, -0.10810644, 0.30693817, 0.23640616, 0.35853484, -0.33934513, 0.67381424, -0.28693, -0.108682744, -0.15653124, -0.32597908, 0.020358587, -0.33693093, 0.11572832, 0.49166417, -0.122896515, -0.21956475, -0.05719835},
			{0.29243436, -0.140321, 0.15784185, 0.30346325, 0.23552094, -0.27881813, 0.42482245, 0.3099826, -0.2539766, -0.11208563, 0.047260087, 0.023379784, -0.37920672, -0.18034267, -0.31854358, -0.45441383, -0.41795632, 0.36783448, -0.08417509, -0.1627529, 0.42525566, 0.31725928, -0.33613625, -0.039440494}};

	const float layer1_weights[n_inputs][n_layer1] = {{-0.0021058917, -0.005541198, 0.13366094, 0.000759393, -0.0771381, -0.047393024, 0.003169437, -0.052634474, -0.03803632, 0.057170853, 0.09722216, -0.029811926, 0.04494061, 0.18783408, 0.12859753, 0.096363485, 0.02336526, 0.011572793, -0.027860086, -0.22520657, -0.016468875, 0.021269016, 0.06733361, -0.010663857, -0.031418867, 0.12925525, -0.06713121, -0.008839545, -0.042239297, 0.04539424, -0.14866541, 0.053931586},
			{0.016867638, 0.03648801, 0.06616133, -0.038417663, 0.04953561, 0.0045720115, 0.042623892, 0.027161235, -0.026868882, -0.065377794, -0.01955725, -0.021835938, -0.019971963, 0.12986465, 0.06276856, -0.0058323108, 0.05433938, -0.032736603, 0.0024479353, -0.11928454, 0.04786934, 0.03723415, 0.034762345, 0.047709834, 0.04360659, 0.06676665, 0.07462403, 0.020850208, 0.013600685, 0.01833111, -0.047056563, 0.10226798},
			{0.023236059, 0.048823923, 0.005985334, 0.029670656, -0.051914737, -0.018476654, -0.025369085, -0.037897643, 0.044775587, -0.013168298, 0.0011612147, -0.06669564, -0.07813763, 0.1601461, -0.007026412, 0.17973559, -0.06112863, -0.003415608, -0.072189875, -0.14100976, -0.029738143, 0.054030582, 0.056571037, -0.013933174, -0.010294667, 0.026632568, -0.010546669, -0.03696338, -0.051748373, 0.0020904914, -0.02795162, 0.06761079},
			{-0.03072581, 0.02937793, 0.10235356, 0.016279839, -0.07871098, 0.035492122, -0.101515986, -0.060617413, 0.02888827, -0.0013020262, 0.065247074, 0.024260625, -0.02396997, 0.14927953, 0.108783446, 0.07982922, -0.009342991, -0.009424801, -0.101452634, -0.20124622, 0.024792276, 0.0030399933, -0.04074546, -0.08184579, -0.03503554, 0.20477945, 0.04178816, 0.031948775, 0.01937192, -0.07378939, -0.14215936, -0.013021062},
			{0.063256964, -0.051282205, 0.010221123, -0.0075128004, 0.033124965, -0.010228947, 0.040085413, 0.06512919, -0.045270488, 0.07836044, 0.04396852, 0.0106951, -0.0018066921, 0.053184915, 0.04909906, 0.09432844, 0.051949367, -0.022818213, 0.030750547, -0.11616132, 0.0012700558, -0.03856565, -0.07675787, 0.05123503, -0.068706095, 0.13854921, -0.032688342, -0.074260764, 0.037936382, -0.0764046, -0.12159054, 0.009707845},
			{-0.0017618462, -0.07599639, -0.05858096, -0.044394407, 0.011637794, 0.023091957, -0.031159224, 0.0736417, 0.08472609, 0.046037957, 0.024608234, -0.060061235, -0.022384893, 0.14125831, 0.11371943, 0.13478042, 0.009797901, 0.0024776687, -0.024705334, -0.08582558, 0.06297988, 0.053333282, -0.05156268, -0.05085847, -0.049297743, 0.09933113, -0.06240531, 0.04437521, 0.04075548, -0.030340575, -0.050917562, -0.06280501},
			{-0.04718361, 0.007771872, -0.011714608, 0.055337965, 0.063224435, 0.056889176, -0.01932587, -0.013167239, 0.0965666, -0.01598528, -0.035534684, 0.07740335, -0.0095303105, 0.14431423, 0.074352145, 0.058171768, -0.07959685, -0.038016863, 0.05516776, -0.2185499, -0.05066883, -0.037432235, -0.012100153, -0.05104791, -0.06993347, 0.10802467, 0.017730862, -0.05344173, 0.07484324, -0.017875254, -0.085514076, 0.13654695},
			{0.055247903, 0.025412656, -0.01615013, -0.071851835, 0.02285396, 0.011489078, 0.06558214, -0.070978984, -0.07180749, -0.05686581, -0.044061534, 0.048365995, 0.037606142, 0.11238044, 0.1255312, 0.06623557, 0.05337748, 0.0046796775, 0.03309043, -0.10500482, -0.010947958, -0.07061552, -0.004753746, 0.024471216, -0.037147462, 0.12939964, -0.055216737, -0.013709588, -0.029659156, -0.0043955594, -0.14615296, 0.0030133426},
			{-0.07213691, 0.05144222, 0.08083354, 0.009436101, -0.007375898, 0.07845792, 0.06779205, 0.01520957, -0.015935352, -0.07550608, 0.04431944, -0.032256376, -0.027063545, 0.14964832, 0.0398168, 0.13506503, -0.061581813, -0.0707482, -0.066526145, -0.13456275, -0.05403378, -0.026486326, -0.05726754, -0.0769792, -0.055590156, 0.09211364, 0.04723823, 0.020081608, -0.046006925, -0.07789098, -0.007262126, 0.059871368},
			{0.050953433, -0.02638559, 0.08714732, -0.07052236, -0.035880644, -0.062279187, 0.013365607, -0.036691923, -0.016674327, 0.011068493, -0.022568502, -0.015591823, -0.030915275, 0.12989573, 0.042569183, 0.025155533, 0.013155349, -0.0212925, -0.028290583, -0.1296532, 0.050700754, -0.034091868, -0.004930809, -0.032211382, -0.07501088, 0.08204141, -0.05242788, 0.03935479, 0.061824843, -0.027289506, -0.13239858, 0.12138801},
			{-0.04363892, -0.02164403, -0.038393516, 0.02637574, 0.04126644, 0.04747808, 0.026330797, 0.035369113, -0.032480657, -0.033897854, -0.024227766, 0.05917333, -0.026513487, -0.012248311, 0.11355594, -0.004813443, -0.0009154305, -0.08049682, 0.051971905, -0.0830992, 0.07415956, 0.008907199, -0.07104187, -0.05278335, 0.040428545, 0.07569871, -0.07817163, 0.056397315, 0.039564088, -0.030157484, -0.098763615, 0.012861553},
			{-0.050739914, -0.05925169, 0.051415164, -0.052352816, -0.039062027, 0.02308283, -0.070305414, -0.07016618, -0.0024695648, 0.010907665, 0.08669086, -0.05161047, 0.060640227, 0.10298808, 0.062300995, 0.10842549, -0.051270135, -0.0010127102, -0.09803901, -0.038775943, -0.025373094, -0.026395805, 0.03933753, 0.026908703, -0.03201831, 0.113526605, -0.019681688, 0.06853494, -0.07775034, -0.0791987, 0.0013171677, 0.02571254},
			{0.052926898, -0.040353913, -0.0036298546, 0.06998734, 0.07344396, -0.06168349, -0.0012441333, -0.050335605, 0.07406114, -0.028397862, -0.014684398, 0.03809829, 0.023211475, 0.089343384, -0.026354628, 0.13781968, 0.04942617, -0.019780684, -0.027881237, -0.116974786, 0.041967712, 0.00520318, -0.016711555, -0.030470269, -0.03681814, 0.028213186, -0.07549164, -0.08949694, 0.0785431, 0.018759541, 0.037221573, 8.46551e-05},
			{0.06696296, 0.022579819, 0.05229473, -0.07327063, -0.04846128, -0.046717707, 0.053818118, -0.002464175, -0.06021387, 0.05320032, 0.05447488, -0.023349766, -0.06827438, -0.06273063, 0.08947714, -0.019349001, 0.033904247, 0.023819035, -0.044604458, 0.00225502, -0.07529089, 0.014842682, -0.029546198, -0.02981431, 0.036078, 0.081468016, -0.017211989, -0.04884552, -0.021415949, 0.078613296, -0.0267105, -0.053583965},
			{0.0059845895, 0.040127076, -0.02593967, 0.054351613, 0.022770226, -0.052454874, 0.098095596, 0.07223632, -0.04151061, 0.0773204, 0.077136226, 0.049044624, 0.042298634, -0.025409624, 0.090219006, 0.11102778, -0.075889304, -0.0773305, -0.11342206, -0.05306501, -0.029709488, 0.017914549, 0.03438939, -0.060996756, -0.062277474, 0.104670376, -0.067910984, 0.0033231797, -0.020195052, -0.033887297, -0.09512263, -0.115733765},
			{-0.072980694, -0.06613028, -0.014378617, -0.07939102, 0.0034698062, 0.010215402, 0.058723908, -0.018900258, 0.019106388, 0.055630922, 0.15097478, 0.04141961, 0.03475884, 0.081058905, 0.07135109, 0.19471084, -0.051090315, 0.07343106, -0.011445211, -0.13055356, 0.025168657, -0.007305227, 0.0114730075, -0.06811916, -0.057821084, 0.08068332, 0.03707975, 0.06511147, -0.010174349, -0.062989354, -0.037948813, -0.07405015},
			{0.027599156, 0.017018758, 0.004317467, 0.05909261, -0.04449914, 0.07827872, 0.13249221, -0.061791796, -0.022914022, -0.08007446, 0.025727464, -0.041344296, 0.062281214, -0.017705178, -0.01906673, 0.14691985, -0.056256875, 0.0014359284, -0.11023585, -0.054639693, -0.055352844, -0.025831748, 0.061792582, -0.035037056, -0.011686027, -0.0042546075, 0.072898075, 0.06321808, -0.025282916, -0.013920307, -0.07410559, -0.06301906},
			{-0.03940778, 0.044519685, -0.07185275, -0.028053489, 0.025117466, -0.060547322, 0.0656268, 0.06664898, 0.058577385, 0.028530508, 0.121170804, 0.03402652, 0.07138818, -0.0348508, 0.039291892, 0.049390912, 0.0009654537, -0.019390384, -0.023310987, -0.09850461, 0.0715785, -0.066628456, 0.051011667, 0.016856609, -0.028138366, 0.057952333, -0.07335438, -0.049255073, -0.026100136, -0.052659236, 0.01640133, -0.15942016},
			{-0.009878263, -0.03626064, 0.00052178296, -0.06941324, 0.040718343, 0.059341475, -0.08202492, -0.023484152, 0.05522189, -0.01856507, 0.049071364, -0.021331854, 0.052035112, 0.010828753, 0.08655426, 0.108453535, 0.040895224, -0.013990944, -0.057254348, -0.039279748, 0.07209431, 0.04558651, -0.066775754, -0.049358793, 0.022491375, 0.070042744, -0.0073409975, 0.06372918, -0.06277036, -0.04923217, -0.013807803, -0.04810757},
			{-0.027374383, -0.042830862, 0.058210675, 0.0128353685, 0.019033665, -0.027468905, -0.033464216, -0.060601372, -0.030404098, -0.047616113, -0.09135065, -0.0424317, -0.08255515, 0.077723294, 0.046921518, 0.102595575, 0.016143732, 0.032413248, 0.09318569, -0.040827487, -0.0631251, 0.0144480765, 0.028334424, 0.04876588, -0.08039512, 0.024758546, -0.07685308, 0.026455829, -0.039017588, 0.03167072, -0.0021350111, -0.0031915952},
			{-0.031752117, 0.06209442, -0.09988219, -0.061467513, -0.007964286, 0.01842215, 0.058799922, -0.040321335, 0.095148236, -0.06802443, -0.02057323, -0.06447231, -0.025632713, 0.086119816, -0.04445411, 0.124262, 0.051783845, -0.077777006, -0.03188772, 0.0048799627, 0.01097738, -0.07056379, 0.004716918, 0.049140625, 0.00022160678, 0.061892327, -0.05960589, -0.08314245, -0.03701318, 0.020570375, -0.022393322, -0.092062466},
			{0.029411279, -0.058467045, 0.047140118, -0.015903711, 0.02330174, 0.013083309, -0.047378793, 0.017543161, 0.09141026, 0.043480717, -0.026427243, -0.06784269, 0.050732475, 0.053463537, -0.043601684, -0.024201613, 0.032375537, -0.07220146, -0.004526718, -0.167523, 0.059813485, 0.06475183, 0.060969993, -0.059134644, 0.050351616, 0.1434168, -0.06475662, 0.060861025, 0.0014003515, 0.054057285, -0.06910492, 0.085214324},
			{-0.0442715, 0.03485973, -0.016762508, -0.049281374, -0.03812625, 0.051142156, 0.04489042, 0.034063026, 0.12665704, 0.07499516, -0.06645833, 0.00447914, 0.013463733, 0.032677654, 0.059477933, 0.045105036, -0.07212891, -0.019306721, 0.10169952, -0.061534278, 0.0027728453, 0.068004236, 0.03055498, -0.015586766, 0.04134303, 0.10434993, -0.0132859275, 0.023198934, -0.053227805, -0.035987925, 0.038454723, 0.012789913},
			{0.03984981, 0.057115227, -0.07117718, 0.012362771, -0.058918323, 0.06895174, 0.020612389, 0.043658894, 0.1323182, 0.0016143322, -0.028968304, 0.051054195, -0.023308786, 0.11361072, 0.020722738, 0.063067034, -0.040032554, 0.014378286, -0.011243748, -0.09912553, -0.023754168, 0.0269714, -0.03494733, -0.07167962, -0.044666544, 0.15224528, 0.039035015, 0.014612456, -0.053162325, -0.024839703, -0.0003208801, 0.05075768},
			{0.06387116, 0.07965925, -0.044200998, -0.03230158, -0.035731517, -0.047768023, -0.12127259, -0.01504506, 0.06943132, -0.034981303, -0.11599748, -0.047099497, 0.041142352, 0.09015293, 0.0098248515, 0.097900614, -0.03267038, 0.074655026, -0.019906374, -0.12151686, -0.043727223, 0.05980335, -0.070525095, 0.028182356, 0.029315338, 0.16363858, 0.0007777363, 0.01757997, 0.023731038, 0.07668793, -0.03585482, -0.033484105},
			{-0.029350061, -0.050577693, -0.022759434, 0.012475438, 0.015205952, -0.051789887, -0.06814368, 0.051514864, 0.051119164, -0.07495846, -0.033154745, 0.030017838, -0.053776357, 0.05303511, 0.08994691, -0.006691671, 0.023601152, 0.056523692, -0.0013323082, 0.014350968, 0.034983754, -0.01156795, -0.021658953, 0.03535489, -0.006742215, 0.0837703, 0.02967123, -0.04778045, -0.024017852, -0.02231529, 0.052928846, -0.030629963},
			{0.033521615, -0.037823286, 0.014028612, 0.018190876, -0.028819824, 0.033511855, -0.018816259, -0.0075507946, 0.032368373, 0.074331045, 0.032205462, -0.04145756, -0.0075256666, 0.017306687, -0.05800897, 0.09217654, -0.007949911, 0.044002187, -0.042849123, -0.06581312, 0.000917539, -0.040427085, 0.007488966, -0.010641087, -0.023354739, 0.05075269, -0.079333246, -0.089717284, -0.03445187, 0.070583135, -0.03345351, 0.03019751},
			{0.06949465, 0.072502315, -0.0033046654, -0.06727261, 0.026445553, -0.017163247, -0.016156558, -0.08362009, 0.07004945, 0.059563264, -0.14243066, -0.046978235, -0.030440079, 0.05956667, 0.08090011, 0.026403688, 0.031763785, 0.07391499, 0.059322406, -0.115410335, -0.047237977, -0.02546329, -0.046732802, -0.038062595, -0.066434175, 0.06449034, -0.030318655, -0.028080774, -0.06210549, -0.04612396, -0.088037275, -0.0023853504},
			{0.0029845163, 0.06661983, -0.042330068, -0.076604374, 0.07176105, 0.05111943, -0.056989413, -0.022602271, 0.009170938, 0.027527139, -0.07585662, -0.006440811, 0.0075000767, -0.018254817, -0.0238802, 0.08891532, 0.07300703, 0.058294766, -0.01280531, -0.0037313257, -0.0009674281, 0.06643319, 0.07362904, -0.06285799, 0.010042263, 0.0880801, -0.062279627, 0.0020179409, 0.009313248, -0.022416584, 0.03855416, 0.011852901},
			{-0.0632097, 0.045730576, -0.023622867, -0.061645154, -0.053762797, -0.07151827, -0.029434333, 0.04177666, 0.040776737, 0.0771814, -0.033940297, -0.026595425, -0.018015211, -0.007844394, -0.069931954, 0.07205482, -0.05471185, 0.007129077, 0.07195146, -0.08618632, 0.065794274, 0.0134185925, 0.06568174, 0.071345024, -0.07799248, 0.038357493, 0.046826422, 0.024445834, -0.012833722, -0.049793243, -0.07412877, 0.06202221},
			{0.040610366, 0.058362827, -0.07418126, -0.021868978, -0.07443934, -0.04953616, -0.023263548, -0.05213716, 0.106435, -0.066926, -0.015355978, 0.037906885, 0.004994406, 0.09402468, -0.051915742, 0.12400008, 0.04976493, -0.029373208, -0.09653648, -0.11472417, 0.070996016, 0.027573235, -0.049452446, 0.07009343, 0.047074445, 0.12195972, 0.0134111345, -0.075775295, 0.06910753, -0.0073072165, -0.008872111, 0.041019913},
			{-0.07021263, 0.038022384, 0.06971909, -0.004768476, 0.044360418, 0.016308129, -0.076822385, 0.055541676, 0.11909345, 0.031300753, -0.12950641, -0.019716274, -0.08075579, 0.002246736, -0.05183475, -0.0068956753, -0.010483526, 0.012079451, -0.03140084, -0.04268273, -0.06982344, 0.04909174, -0.023532704, -0.08168703, 0.039732933, 0.02693968, 0.07648119, -0.07646317, 0.008781195, 0.039900213, 0.050394066, 0.059357263},
			{0.05128485, -0.047674347, -0.0016450082, -0.07625767, -0.07854533, -0.028619688, -0.0013583156, -0.017893925, 0.07168113, -0.04693179, -0.03305736, -0.03156436, 0.052054785, 0.06387185, 0.030988807, 0.090054356, -0.0582883, -0.04254237, 0.039173465, -0.09245388, 0.008709379, -0.037085626, 0.035234466, 0.027523974, -0.061614435, 0.119835384, -0.061552353, 0.010569143, 0.033992015, 0.03494911, 0.06172591, 0.07343957},
			{-0.06773578, 0.059745476, 0.0035741688, -0.07914916, -0.02716484, 0.066082776, -0.03540243, -0.040931925, 0.06105642, 0.011980958, 0.007546627, -0.010457933, 0.0266435, -0.0040893382, -0.0024556224, 0.105643906, -0.026035286, -0.06980681, -0.11187981, -0.21043819, 0.025221355, 0.07804112, -0.07396788, -0.0852654, 0.04655938, 0.03443662, -0.07792482, -0.010446889, -0.04927133, -0.043454453, -0.090699054, -0.032867316},
			{-0.048691947, -0.072919175, 0.007080594, 0.04060608, -0.037638973, -0.06693944, 0.05518644, -0.04934003, 0.12772542, 0.067485884, -0.010543212, -0.06292868, -0.04722318, -0.040018056, 0.052645933, -0.0010242524, -0.06059549, -0.01651248, 0.015205585, -0.080686465, 0.0053914115, 0.0761074, 0.0019996092, -0.04633125, -0.01585306, 0.14192897, -0.07515284, 0.0021945012, 0.03537128, -0.005670309, 0.040445305, 0.069780834},
			{0.05101031, -0.046075102, 0.07067897, 0.010124229, -0.058450222, -0.046634227, 0.0062037655, -0.048158735, 0.032532167, 0.018981889, 0.043430563, -0.012305342, -0.018078724, 0.038034033, -0.035818018, 0.12663718, 0.049133047, 0.021114545, -0.05889259, -0.14848123, -0.037487637, -0.042711206, -0.06747766, -0.005932899, 0.0019575881, 0.122591354, 0.055114046, -0.07500891, -0.07359993, 0.046558037, 0.040752623, -0.048666652},
			{0.037073992, 0.044375047, -0.061967492, 0.019900702, -0.013033709, 0.06407623, -0.05637057, 0.03464068, 0.021528663, -0.04834809, 0.012488067, -0.037095822, 0.0011369934, 0.04794611, -0.0067857187, 0.10931813, -0.035269223, -0.08294426, -0.06365052, -0.06845024, -0.017954297, -0.071030274, 0.0074468628, -0.081753865, -0.02457787, 0.1106235, -0.016516417, -0.07303636, 0.06209241, -0.038195338, 0.009977948, 0.012601755},
			{0.07516992, -0.048176747, -0.079765245, 0.06910068, 0.06164223, 0.030614287, -0.049684197, 0.0166915, -0.023823323, -0.07161705, -0.067435496, 0.008407474, -0.04622834, 0.02943548, 0.003754049, 0.09132796, 0.058466583, 0.03256307, -0.031694774, -0.13794045, -0.057163663, -0.028998151, -0.06958803, -0.07845747, 0.06038562, 0.02094401, -0.037028544, 0.06439096, -0.06444993, 0.0072956383, -0.015716972, -0.08829853},
			{0.0023159385, 0.043870002, -0.06618673, -0.06090317, -0.014360892, -0.060989253, -0.040337063, -0.036433283, 0.10803482, 0.058533773, 0.02439169, 0.07458192, 0.023173919, -0.004360851, 0.07096264, 0.06084955, -0.04553511, -0.010221561, 0.000443647, -0.064209886, 0.0425412, -0.06037699, -0.026507713, -0.027141998, -0.03892472, 0.08524468, -0.038055826, -0.05034123, 0.01008144, -0.065268815, -0.106691286, -0.048454367},
			{-0.06758909, -0.068134, -0.08753436, 0.074224725, -0.023030182, -0.0468683, -0.00816065, -0.0687323, 0.063911445, -0.040803537, 0.0014202885, -0.07136612, -0.02597108, -0.009982428, 0.051371068, 0.1330377, -0.055076845, -0.007866676, -0.104245, -0.1621617, -0.075275265, 0.06105694, -0.025518633, 0.04218783, 0.026959708, 0.03168775, 0.012998164, 0.06845891, 0.032477267, -0.04097274, 0.013449907, 0.036000066},
			{0.039307557, -0.061785012, 0.059665892, 0.01292824, 0.052245162, 0.003814131, 0.009862973, -0.07315932, 0.040604487, 0.057011694, -0.07755368, -0.035314333, 0.0007729954, -0.062038388, -0.005423845, 0.13615662, 0.06974855, 0.069018416, -0.048236035, -0.06123714, -0.071904406, 0.032653928, 0.0009536892, -0.05196031, -0.0050951503, 0.050792757, -0.038495924, 0.06599536, -0.06074895, 0.011074826, -0.07005935, 0.008560583},
			{-0.069185406, -0.06721716, 0.022072742, -0.031897902, -0.049891632, 0.034305967, 0.01606074, 0.06824709, -0.0037978727, 0.030877411, -0.035407033, 0.002810344, 0.067711815, 0.009700104, -0.021779208, 0.1274215, 0.045473263, -0.053243235, -0.0059900144, -0.12807435, 0.04926224, -0.06957664, -0.050028443, -0.016187605, -0.071151525, 0.06674779, 0.00387007, -0.054772895, -0.05270727, 0.0033857822, -0.03234138, 0.047673106},
			{0.029497929, -0.03132346, -0.039485134, 0.010181963, 0.008753299, -0.0038415864, 0.010671692, 0.050504193, 0.028268723, 0.011654377, -0.12034409, -0.004079044, 0.0712954, 0.08243913, 0.043086, 0.12119294, -0.021064248, 0.06070677, -0.08667242, -0.15369335, 0.041047245, 0.0703848, -0.0010766536, 0.019167377, -0.05678076, 0.13753241, -0.015249364, -0.050036523, -0.0065910593, 0.0014802739, 0.036114708, -0.036836784},
			{-0.043894015, 0.05800371, 0.06194666, 0.07207677, 0.055922873, -0.061997563, 0.051609635, 0.047992382, 0.081228875, -0.0665369, 0.011632946, -0.012445979, -0.009370202, 0.075430855, 0.06891953, 0.061755404, -0.07729507, 0.063242994, 0.018448327, -0.051499534, -0.042832583, -0.05873532, 0.060099527, 0.044761363, 0.030682202, 0.12344878, -0.041045777, -0.05067806, -0.07893097, 0.053477466, -0.04141891, 0.022122711},
			{0.027304374, 0.06789623, -0.03675616, -0.008369431, 0.06958681, -0.0021931827, -0.0219876, -0.04751416, 0.0042824326, -0.034981877, -0.07868588, -0.047185905, 0.017985415, 0.108676925, -0.074934974, 0.062132705, -0.01955551, -0.01845909, -0.1119893, -0.12253477, -0.04983839, 0.012796417, -0.066176325, -0.020722914, -0.014262315, 0.0154283, -0.039487395, -0.018030636, -0.041814905, -0.048560124, -0.09445593, 0.06035004},
			{0.060431287, -0.064450085, 0.025835492, -0.023106534, -0.020852631, 0.056178257, -0.043778174, 0.0002532915, 0.07521411, 0.027272172, -0.09766144, -0.04486634, 0.025022808, 0.107720025, 0.026039159, -0.054039013, -0.0090672, -0.025569212, 0.040956315, -0.17598376, 0.065329, -0.032432273, -0.01775885, 0.06920836, 0.043777086, 0.022012765, 0.071595386, -0.01900087, 0.033863768, 0.041556843, -0.062006764, 0.019823186},
			{0.005866714, 0.036802948, 0.07446041, 0.028969243, -0.048103876, -0.037303034, -0.020325698, -0.084159076, 0.05667113, -0.062273927, 0.06780898, 0.031679675, 0.030130202, 0.0898293, 0.08304549, 0.0543234, 0.02963867, 0.046035748, -0.05966608, 0.0025511028, -0.05678656, -0.07002981, -0.043673545, -0.027925272, -0.0060215774, 0.028652852, -0.06025808, 0.0070254556, 0.06112437, -0.06434309, -0.04174807, -0.025543207},
			{-0.06600672, 0.045641527, 0.10649669, -0.0009999648, -0.0004921184, -0.07803816, -0.02158962, -0.05463597, -0.050745185, -0.04894993, -0.03287331, 0.061970666, -0.023709299, 0.06506265, -0.01050288, 0.087106325, 0.046352923, -0.042992856, -0.08448578, -0.085836515, -0.01471331, -0.06321086, -0.05050108, -0.072785504, -0.041725162, 0.046245605, 0.040265553, 0.06558916, -0.052983634, -0.046946403, -0.03719307, 0.09510362},
			{0.008253045, -0.075869486, 0.08493687, -0.06579783, -0.054205984, 0.055392325, -0.06907521, -0.069276646, 0.051287953, -0.07863346, -0.08926417, 0.029363163, -0.020417245, 0.07588889, 0.012474014, 0.012915441, 0.02742181, 0.030150233, -0.08476551, -0.0690674, 0.0016687587, -0.00409285, 0.06761174, -0.021339204, -0.015111579, 0.02570162, -0.00016715378, -0.029648282, -0.037970718, 0.016532123, -0.053381186, 0.07812113},
			{0.008971594, -0.063675046, 0.0074993963, -0.017574497, -0.037556168, 0.021512896, 0.07835121, -0.024394387, -0.04894583, 0.05921547, -0.048470628, 0.075825855, -0.08608292, 0.09549946, 0.03881443, 0.06416761, 0.02237165, -0.0200238, 0.04579375, -0.089666955, 0.057743907, -0.018220067, 0.0011662245, 0.020226454, 0.0024451613, 0.0059661902, 0.055010602, -0.002925703, -0.051561955, -0.011479937, -0.031516746, -0.0045108916},
			{-0.036488358, 0.077470586, 0.058654655, 0.01802209, 0.0021281657, 0.045502737, -0.05686933, -0.022127926, 0.06596227, 0.006442651, -0.043312967, 0.04340049, -0.03396606, 0.09572245, 0.012132932, 0.051256474, 0.057042554, 0.023193492, -0.0065985536, -0.07003113, 0.00097542256, 0.07984094, 0.026685484, -0.0072565256, 0.036868785, 0.13211678, -0.06365689, -0.059260063, 0.073828086, -0.038429696, -0.17508094, 0.040484395},
			{0.050997645, 0.07015742, 0.05858853, -0.057094567, 0.038950693, 0.03606397, -0.0012443408, -0.0495966, 0.06370909, 0.0154147, 0.04967399, 0.05288884, 0.013566705, 0.054460566, -0.010481233, -0.054102667, -0.049207166, 0.024657806, 0.0072025605, -0.15779452, -0.05955669, -0.054141633, -0.02775713, -0.06637544, 0.05764311, 0.08784346, 0.037640505, 0.045731444, -0.0722949, -0.049396798, -0.10507598, 0.06896267},
			{0.05279115, -0.068613924, 0.04775782, -0.01929437, 0.011648182, 0.023218557, 0.039084, -0.03158948, -0.05385583, -0.072581954, 0.029572802, 0.021105208, -0.0038122209, -0.043027468, 0.030730013, -0.0022566717, 0.0474073, -0.07866813, 0.003139217, -0.11309939, 0.027256817, 0.0738672, 0.005123444, -0.04705686, 0.028425954, 0.022220787, 0.0051262006, -0.07608413, -0.04473501, -0.07767608, -0.0249531, 0.0707088},
			{-0.005259268, -0.07435758, 0.13489377, -0.025409155, -0.03446491, 0.045082122, -0.06070677, 0.010972787, 0.039130256, -0.077948965, -0.044435464, -0.070879035, 0.047471087, 0.08911151, -0.0018111457, -0.061318707, -0.00840646, 0.065146066, 0.014677619, -0.033568222, 0.017172158, -0.06575687, -0.043044884, -0.06747603, -0.07398831, 0.15901446, -0.047437806, 0.06183821, -0.053329498, 0.07552114, -0.0646408, 0.031681966},
			{0.012111783, -0.026715577, 0.1307344, -0.04056742, 0.018141521, -0.069710135, 0.03669249, 0.048699774, -0.0029366699, 0.047366515, -0.025185788, 0.039263576, 0.06563463, -0.01643928, -0.044031154, -0.04243028, -0.02544596, 0.05908313, -0.05127328, -0.15395121, -0.07570675, 0.061940208, 0.025211088, -0.08408922, 0.06793845, 0.17257096, 0.017709434, 0.0037692168, 0.0731796, 0.052536532, -0.18906821, 0.077593654},
			{-0.02533713, 0.07671215, 0.06543665, -0.024062674, -0.0014246455, 0.046763033, 0.06603323, 0.05609158, -0.06804611, 0.04306011, -0.030629842, 0.059610844, -0.06126274, 0.06894854, 0.05415995, -0.07252058, -0.07247418, 0.047571808, -0.045583107, -0.073080786, -0.07569617, -0.004536681, 0.07865767, -0.008461728, -0.0074858516, 0.103410855, 0.018696167, -0.0056051123, 0.057936862, -0.07290951, -0.14787447, 0.074655086},
			{-0.058196515, -0.06824696, 0.07932062, -0.012089044, 0.05384001, 0.018430874, -0.091732524, 0.06758935, -0.018313775, -0.04740942, 0.05830693, -0.055793308, 0.05382079, -0.0120878555, -0.0049451296, -0.008638549, 0.04858482, -0.041620366, -0.05689452, -0.049970094, 0.03014505, -0.020258468, 0.0056632683, -0.08615698, -0.083693326, 0.08829688, -0.057568274, -0.056422114, 0.0005810037, 0.06599322, -0.057337172, 0.010538953},
			{0.07397337, -0.03764033, 0.13777708, -0.042652823, 0.060228657, -0.050337672, -0.029519035, -0.074684605, 0.019070568, -0.05226312, 0.00449814, 0.079671115, 0.04529484, -0.068706706, 0.009635707, -0.1247588, -0.040286403, -0.029890746, 0.029938867, -0.053236675, 0.03158383, -0.07132686, -0.050986804, -0.0055152634, -0.04042608, 0.13640156, 0.07725716, 0.022716194, 0.073918074, 0.06341955, -0.1283493, 0.11335684},
			{-0.036942154, -0.04441145, 0.102675766, -0.048590656, -0.054767083, 0.002380997, -0.022926284, -0.080912806, 0.013909752, -0.079426594, 0.07661013, 0.034936212, 0.06426427, -0.04152749, -0.069034256, -0.029663745, -0.07325188, 0.007402869, 0.009998832, -0.07531721, -0.058590144, -0.07529284, 0.025099024, 0.06161705, -0.033284232, 0.0985649, 0.012433492, -0.016754862, -0.06838141, -0.050134517, -0.094423726, 0.030081421},
			{-0.009444267, 0.02947829, 0.13021554, -0.0151865035, 0.022091268, -0.0013383478, -0.016521806, -0.022931485, 0.08623725, -0.05705952, -0.08282763, 0.030313753, -0.024122857, 0.055558827, -0.023909833, -0.062133394, 0.011874042, -0.066301055, -0.01646715, -0.099996105, -0.031508557, 0.032973588, -0.0019972324, 0.041338064, -0.017618304, 0.15253057, -0.06542235, -0.023051942, 0.057669982, -0.07366826, -0.11992673, 0.018005896},
			{0.06310041, -0.057720356, 0.03990616, -0.06873618, -0.023498213, 0.05226229, 0.0041877325, -0.010024583, 0.097491205, -0.029770892, 0.08550156, -0.06504012, -0.028745145, 0.23613861, 0.0846985, 0.026750911, 0.048864305, -0.052605227, -0.10586092, -0.12193632, -0.010260165, -0.04986173, 0.05510266, -0.04851457, -0.029740838, 0.12701291, -0.05834603, -0.058941662, 0.009430893, 0.030081347, -0.03487428, 0.123070605},
			{-0.0013508797, -0.023794457, 0.1134989, -0.051138215, -0.05470607, 0.038849458, 0.027376851, 0.041220553, 0.029050626, 0.07989289, -0.0035827819, 0.044393793, 0.0016964775, 0.14473225, 0.041287888, 0.022776198, 0.051216543, 0.057134043, -0.08060568, -0.10547369, 0.0009314418, 0.026772909, -0.007195212, -0.056118783, -0.057187874, 0.11387509, 0.04425799, -0.0600913, -0.055731826, -0.04802876, -0.0835007, 0.037427645},
			{-0.05899001, -0.06852734, 0.006273971, -0.026909363, -0.06883277, 0.0071282536, 0.030248387, -0.05999978, -0.021660341, 0.07715443, 0.0532473, 0.022590399, -0.069060154, 0.12383722, -0.006945796, 0.06170092, -0.04892013, 0.06529798, -0.018169438, -0.07742149, 0.042913713, -0.04594816, 0.076124296, -0.0007954889, -0.05961063, 0.038787253, 0.076449156, -0.06372417, 0.04085444, 0.017428324, -0.12146001, 0.081581905},
			{0.00011887401, -0.07709867, 0.114740945, 0.016555533, -0.007489281, 0.06282282, -0.13951397, 0.020243956, -0.030272404, 0.013833456, 0.10052169, 0.047383875, 0.058278218, 0.19322786, -0.00704894, 0.0642678, 0.041021787, 0.06433051, -0.07225072, -0.17340328, 0.037984453, 0.0027784929, 0.07729563, -0.0054674502, -0.0129609145, 0.11829385, -0.017695129, -0.010418083, 0.009402357, 0.0010390282, -0.031361822, 0.123045325},
			{0.0015133098, -0.014711015, 0.04755708, -0.07918091, 0.06283031, -0.037012875, -0.023093678, 0.04303633, -0.029677596, -0.022603538, -0.028684149, -0.053283684, -0.08091289, 0.13990222, 0.021609362, 0.04596829, 0.06315075, -0.022677323, -0.013564488, -0.0039009273, -0.04612668, 0.014743932, 0.06530082, -0.036643624, -0.064675204, 0.07407629, -0.03248021, 0.042596895, -0.03781292, -0.05369023, -0.044416666, 0.105021685},
			{0.05556245, -0.007007338, 0.014330342, -0.011065856, -0.014812198, 0.017846063, 0.018391328, -0.015147053, -0.06541114, 0.044380903, 0.012999049, -0.030229013, -0.04475019, 0.03438483, 0.13134153, 0.13100594, -0.04537291, -0.08179947, -0.028560672, -0.066114984, 0.010816149, -0.04181504, -0.066815525, 0.008689707, 0.00765516, 0.109640546, -0.052358285, -0.0752878, 0.07896371, -0.06721671, -0.10972879, 0.10613148},
			{-0.068981715, -0.00935445, 0.06762116, 0.06809904, 0.019306842, -0.05628211, -0.033160683, 0.07424713, 0.12070716, 0.0019107312, -0.024770629, 0.00648766, -0.05650827, 0.14221004, 0.0010366576, -0.017925117, 0.028371006, -0.06621418, -0.01031902, -0.1148093, -0.026491303, -0.021995176, -0.053996205, -0.08425318, 0.0068655894, 0.10490275, 0.065893814, 0.04832716, 0.07294576, -0.011410013, -0.1307356, 0.1088148},
			{-0.044032875, -0.051088154, 0.12718621, 0.006328307, -0.036338978, 0.0043578595, 0.038647093, 0.07312407, -0.060664196, -0.04613915, 0.050809193, 0.015284061, 0.040872194, 0.14445949, 0.10994958, 0.08450242, 0.06256613, -0.069718026, 0.054896202, -0.01915908, -0.07759061, 0.04452925, 0.023740761, 0.031682137, 0.06629902, 0.041372657, -0.008801125, 0.029733932, 0.040704653, 0.054897815, -0.07744218, -0.0049543595},
			{-0.051363908, 0.07718155, 0.07659611, 0.070479885, -0.026441583, -0.06764975, 0.008044578, -0.05537523, -0.03435446, 0.016097918, 0.052634757, -0.014787532, -0.03214204, 0.074895464, 0.060334958, 0.15106311, 0.051621795, 0.050386563, 0.010103946, -0.14333297, 0.07203627, -0.003915541, -0.030898705, -0.02278659, 0.058198635, 0.14514472, 0.071510255, 3.7798058e-05, 0.054764554, 0.019504413, -0.0824949, 0.064820215},
			{-0.04286954, 0.02525872, 0.07527778, 0.03341244, -0.034986824, -0.021859892, -0.12072709, -0.067368634, 0.05121787, 0.06667405, -0.07817204, -0.017552666, 0.014356734, 0.18584837, -0.014570746, 0.12291444, -0.07254444, 0.0733907, 0.11031057, -0.017043998, -0.0046952814, 0.04409401, -0.072348386, -0.080650836, 0.010189061, 0.057669375, -0.06408763, 0.058264043, -0.00474108, 0.035784192, 0.008616947, 0.12893404},
			{0.07159582, 0.014229402, 0.024878958, -0.031152211, 0.0740185, 0.051610887, 0.03352777, 0.021158744, -0.020789538, -0.025947079, -0.01544263, -0.06355043, -0.067442924, 0.06958118, 0.06327002, 0.061400183, -0.03699499, 0.060921095, 0.13589528, -0.04765692, -0.029535715, -0.04583206, -0.04358155, -0.047582135, 0.055525303, 0.03843185, -0.03931408, -0.07496384, 0.013346016, 0.03398034, 0.025512807, 0.094063304},
			{-0.079262465, -0.072095625, -0.08093396, -0.050370485, -0.01209109, 0.0138928965, -0.08163969, 0.0022503794, 0.072662555, -0.02587301, -0.060774416, -0.054217212, 0.0002869306, 0.07637064, -0.05459327, 0.09999265, -0.04305468, 0.022175588, 0.12433369, -0.017759038, 0.01735089, 0.0047135353, -0.016903102, -0.08461291, 0.07250392, 0.032765534, 0.019464932, 0.010598621, -0.06769084, -0.04887812, 0.023590663, -0.024712075},
			{0.001388587, 0.05194749, 0.0226522, -0.017356649, 0.0009565588, 0.04713139, -0.038754277, -0.036554553, 0.09793987, 0.012276687, 0.05834708, -0.04816035, -0.016991371, 0.08091806, 0.10470847, 0.01979364, -0.034891278, 0.06311576, 0.023297723, -0.0034309428, -0.002570495, 0.060845032, 0.018138133, -0.012962041, 0.054740652, -0.006479954, -0.0067335367, -0.058397695, 0.036481798, 0.04049869, -0.047620676, 0.01288762},
			{-0.029054716, 0.044391863, 0.06955151, -0.01021301, 0.06536747, 0.056273744, -0.07148088, 0.01739943, -0.031575635, 0.038589776, -0.0056848605, 0.04989341, 0.008303254, -0.04498697, -0.00025960017, 0.07908495, 0.030921273, -0.08386907, 0.049015455, 0.021498974, 0.059830874, -0.056865737, 0.026934743, -0.011316862, -0.049245622, -0.047038525, -0.055013925, -0.0049995254, -0.0384793, 0.031448223, 0.08525388, 0.080328956},
			{-0.025747385, 0.016150482, -0.046368003, 0.04203643, 0.033307627, -0.05871885, -0.07165769, 0.069979295, 0.049284734, -0.02863593, -0.04347037, 0.0070025325, -0.042309497, 0.028286252, -0.033018302, 0.009194745, 0.022816569, -0.05619265, -0.028579822, 0.039569408, -0.03605488, -0.017845623, -0.002281174, 0.0059305187, -0.06306936, -0.044638656, -0.049308192, 0.06380936, 0.031191543, 0.012561619, 0.10680412, 0.02236916},
			{-0.011030115, 0.03800741, -0.12316911, -0.034067996, -0.0042234138, 0.0682423, 0.042025913, -0.06839257, 0.066250265, -0.017903183, 0.035102367, -0.02817303, -0.031910364, -0.027954208, 0.15632021, 0.14673069, 0.014423013, -0.04107294, 0.056805693, -0.09170347, 0.034269318, -0.017330766, -0.046430666, -0.017068077, 0.01364391, 0.05743879, -0.07989361, -0.07399581, 0.057402194, 0.012426645, 0.09913381, -0.123623446},
			{0.05746381, -0.07376419, 0.011918971, -0.056525074, -0.025582872, -0.061014008, 0.04336636, 0.020563316, -0.04152379, 0.0016613007, 0.081502795, 0.053461626, -0.04521181, -0.09224997, 0.030129882, -0.02762792, 0.057975084, 0.05316496, 0.022762999, -0.01885286, -0.0022282451, 0.059470728, 0.07194191, 0.011497811, -0.059724767, 0.050347976, 0.072177455, -0.062373262, 0.049288094, -0.05694417, 0.019907214, -0.018223507},
			{-0.018438086, -0.024777185, 0.0005101526, 0.08014108, 0.031541508, -0.05312866, 0.07819285, 0.0007900036, -0.06435449, 0.0046717376, 0.0552986, 0.0372326, -0.042548995, 0.058298133, 0.09559014, 0.009052932, 0.01434879, 0.032903723, -0.060899645, -0.02292625, -0.05864493, -0.07912182, -0.061152756, -0.039903864, -0.014920504, 0.017087733, 0.019217357, 0.06832446, 0.02709607, -0.06395026, 0.04509749, -0.0140620405},
			{0.0454603, -0.056000024, -0.014536669, -0.031932317, -0.025657315, -0.068358965, -0.013926859, 0.051870394, -0.02004747, 0.044257015, -0.057747096, 0.044085465, -0.03622092, 0.060209304, 0.08301399, 0.042527854, -0.037163444, -0.07142192, 0.07508551, 0.011649845, -0.06506931, 0.057274267, -0.0595723, 0.05644716, -0.08027238, -0.020462431, -0.058813117, -0.041191265, -0.06474405, -0.06660361, -0.027500872, -0.0032268907},
			{0.07732239, -0.00485871, -0.04641159, 0.06429799, -0.030289067, -0.030775756, 0.11303784, -0.08582283, 0.049978096, 0.03415318, -0.044003684, -0.002415888, 0.030857554, 0.011371061, 0.14327443, 0.007532367, -0.06951428, -0.04515229, 0.045016795, 0.0513225, 0.013038695, 0.013932951, 0.062489152, 0.06882535, 0.0041415324, 0.07658174, 0.006527446, -0.056399107, -0.04272165, 0.017464042, 0.06584284, -0.03053755},
			{-0.07160504, 0.008938156, -0.043624945, -0.07061001, 0.030221814, -0.079741046, 0.07102087, -0.010671443, -0.036499515, -0.065271474, 0.044268154, 0.06035863, 0.06847925, -0.019109057, 0.01593424, 0.13103437, -0.076933116, 0.07300824, 0.06770188, -0.094800934, -0.020626828, 0.03440261, 0.042211995, 0.07067092, -0.035316188, 0.044482935, 0.07604885, 0.03326549, -0.0706546, -0.07180931, 0.085364014, -0.055838432},
			{0.0019308701, 0.028305486, 0.0030866014, -0.0787649, -0.0521174, -0.0178268, 0.03943624, -0.03258218, 0.012734535, -0.05531453, -0.029490182, 0.0012596324, 0.038608722, 0.08803178, 0.1223295, 0.10709425, 0.021193527, -0.0077203666, 0.08900596, -0.102875724, -0.07111576, -0.061046395, 0.033291772, 0.007708558, 0.004315363, 0.038365595, 0.039477393, 0.020146398, -0.03838417, -0.009216085, 0.052666225, -0.04712949},
			{0.05299592, -0.06821402, -0.06977338, -0.008607328, 0.07097142, 0.015419133, 0.013101446, -0.070680104, 0.09026566, 0.074196965, 0.013421781, 0.021142893, 0.00021217391, 0.050436053, 0.07528549, 0.0010821845, -0.040203344, 0.075720295, -0.00034081854, -0.05576815, 0.054653555, 0.07768558, 0.048736557, -0.035691377, 0.043299638, -0.00311592, 0.047539234, -0.017754262, 0.035223544, 0.056182697, -0.027732331, -0.03334663},
			{-0.018318795, -0.06356788, -0.08318651, -0.07950631, -0.051739637, -0.066110656, 0.073946804, -0.049657512, -0.03416683, 0.07980931, 0.041327797, -0.007718116, -0.06264453, 0.048024554, 0.00050739024, 0.11639075, -0.07980932, -0.051222086, 0.038546298, 0.005021404, 0.03143082, 0.007347025, 0.06923716, -0.015543224, 0.037924666, -0.0012009776, 0.02018436, 0.06339563, -0.050520115, -0.024062786, -0.023613969, 0.028676657},
			{-0.030155897, 0.0604185, 0.0021818017, -0.06080266, -0.0044300896, 0.0494145, 0.028370503, -0.023200765, 0.063658245, -0.0049830154, -0.11944729, -0.029470425, 0.057225, -0.023398696, 0.0057542273, 0.13221489, 0.037917748, -0.003124148, -0.046039492, -0.1172052, 0.0690822, -0.0002426058, -0.06178683, 0.008545849, 0.068870984, 0.061535392, 0.022734366, -0.07508041, 0.049306393, 0.048420116, 0.021979865, -0.039445903},
			{0.06093657, -0.029371217, -0.07975481, -0.04349378, 0.03232572, 0.049131572, 0.070335634, -0.044272818, 0.06561784, -0.02437793, -0.10534392, -0.0108708665, -0.085460946, -0.07165774, 0.066935696, 0.018649995, -0.05455734, 0.07248377, 0.06617757, 0.012348456, -0.0060377643, -0.07405389, 0.060402125, -0.063537605, -0.023323491, 0.08301641, -0.012766957, 0.019465495, -0.049508482, 0.010487199, -0.045835853, -0.031022117},
			{-0.03618768, -0.04640505, -0.0027668537, 0.015091389, 0.011081773, -0.007048905, 0.03189903, -0.06446923, -0.0015600935, -0.0072913915, -0.005221957, -0.04441744, -0.0065806955, 0.01965309, 0.026843866, 0.13189386, 0.0046145767, -0.072140574, 0.10289068, 0.052328844, 0.04983343, -0.029067382, -0.028221082, -0.06861564, -0.024496228, 0.006711281, 0.021357298, 0.06452038, 0.07418239, -0.036685873, -0.014490279, -0.100646384},
			{0.0624983, -0.03351086, -0.014682826, -0.028286066, 0.031891953, 0.040007338, 0.0023933065, -0.024826044, 0.09839503, -0.05637923, -0.08933961, 0.07840565, 0.064216025, 0.07631212, 0.15381125, 0.15281898, -0.07327984, -0.0803964, -0.05073296, -0.13742793, -0.07656696, -0.022875391, 0.008250557, 0.066248864, -0.017162805, 0.033611435, -0.024643566, 0.06821292, -0.0014449209, -0.02563414, -0.029684706, -0.09753846},
			{0.072995365, -0.04151566, 0.022380639, -0.063681796, -0.029255608, 0.051901832, 0.027285079, 0.021693185, -0.012931783, -0.027266607, -0.02609018, 0.060639888, -0.0682494, -0.012988873, 0.07963186, 0.13162407, -0.026861995, -0.05462907, 0.017750235, -0.02352982, -0.013174556, 0.077843845, -0.07930625, -0.010326707, -0.013656488, 0.09106554, -0.024199508, 0.037695464, 0.037966296, -0.067683436, -0.006227878, -0.06748953},
			{-0.04930578, 0.035256676, -0.081908576, -0.054723516, 0.028612409, -0.0339711, 0.0027432279, 0.007872233, 0.022378197, -0.013772972, 0.03237206, -0.025009383, 0.045272667, 0.08871092, 0.036314603, 0.040128198, 0.07031721, 0.042913117, 0.072812006, -0.11050806, -0.05121546, 0.04973322, 0.01131209, 0.05202615, 0.032105573, 0.05256953, -0.037429366, 0.0353271, -0.004006237, 0.019214347, 0.07703593, 0.021389388},
			{0.045841128, -0.043442667, -0.023631303, 0.074418604, -0.08059635, 0.0077015683, 0.116831034, -0.060129467, 0.14862575, 0.030108474, -0.014973363, -0.03964952, 0.07233052, -0.02852487, 0.10086126, 0.08202809, 0.0395564, 0.035829816, -0.013845715, -0.09041102, 0.02002503, 0.048057497, 0.036260717, 0.03305615, -0.017883686, 0.11732275, -0.035576962, 0.06910229, -0.02643393, 0.013557568, 0.03457366, -0.047782633},
			{-0.03510794, -0.010544322, -0.02337369, 0.0130652115, -0.008400636, 0.06568828, 0.054154098, 0.03523488, 0.09682954, -0.08009531, -0.014436195, -0.077180214, -0.008405596, -0.07779262, 0.010459055, 0.11215568, 0.036670588, -0.031367525, -0.12209811, -0.024332415, 0.062210172, -0.047092266, -0.053932197, -0.0035355196, -0.06786985, 0.030127091, 0.010299079, -0.07367084, -0.0152247995, 0.0764011, -0.10159836, -0.074062355},
			{0.063336805, -0.024198532, -0.11823864, 0.010666214, -0.03698048, 0.0024626628, 0.13082205, -0.052747924, -0.015677989, -0.056991324, 0.02394052, 0.053643033, -0.05307118, -0.06961063, 0.0647944, 0.032436214, -0.06628747, -0.008541504, -0.113013215, -0.10097369, 0.05108717, 0.05708313, 0.077751175, 0.06342758, -0.03652862, 0.10305268, 0.02637966, -0.014496933, -0.004363522, 0.050136417, -0.016577374, -0.0055475626},
			{0.01858659, 0.050991774, -0.1194468, 0.069213465, 0.07231536, 0.021557659, 0.10063755, -0.080904104, 0.12978102, 0.049564257, -0.0480173, 0.008019336, -0.010303375, -0.031148441, 0.08885454, 0.061590098, 0.039601386, -0.054949924, -0.009539418, -0.09304167, -0.046580624, 0.052116677, -0.047406703, -0.018934298, 0.01498879, 0.12684911, -0.06410833, 0.006464993, 0.07905796, 0.04794526, -0.08620529, 0.015661102},
			{-0.0056755096, -0.06974438, 0.0019565413, -0.040414114, 0.028537815, -0.039364718, 0.013792216, -0.04980322, 0.08040337, 0.027782403, -0.035143826, 0.0681027, 0.054607477, -0.08031638, -0.01037539, 0.11468499, 0.027584791, 0.053335346, 0.021498654, -0.026676826, -0.017430738, -0.032534655, 0.030913666, 0.027387625, 0.06386345, -0.020864768, 0.025931738, -0.048153244, 0.034233622, -0.0037257522, -0.028757997, -0.0143852355},
			{0.056303307, 0.055401325, -0.086211585, -0.015185833, -0.04952885, -0.005336933, 0.026297702, 0.07423162, 0.09335723, 0.031005502, -0.010176972, 0.022260182, 0.015038819, -0.05145531, -0.046877194, 0.10978094, -0.06818986, -0.05220513, -0.124043725, -0.06280552, 0.05189097, -0.0028396472, 0.033462137, 0.028859463, 0.014007408, 0.04107012, -0.058456942, 0.011600321, 0.03498932, -0.053203605, 0.050910957, -0.0777128},
			{-0.023650981, -0.02015119, -0.04023785, -0.060253087, 0.052965183, -0.068103105, -0.0011570241, -0.06464657, 0.058913514, -0.0766368, -0.036853842, -0.01884308, 0.009858818, 0.06784744, -0.014095092, 0.059504405, -0.007972069, -0.054309927, -0.06338373, -0.04600389, 0.033144295, 0.06645812, 0.04201471, 0.022293326, -0.002222297, 0.032394424, -0.02517166, 0.02651284, -0.031757414, -0.016394846, -0.04966068, 0.0129653495},
			{-0.03722177, 0.020846017, -0.023391685, -0.06553797, 0.060095225, -0.02748987, -0.041530088, -0.0445993, 0.10271084, -0.04950672, 0.009511674, -0.068812475, 0.027566582, -0.006343191, -0.044739205, 0.060477097, 0.01304853, 0.06071007, 0.03895463, -0.120854214, -0.0069387555, 0.06782922, -0.0051463023, 0.045054458, -0.048270684, 0.07588849, 0.03981752, -0.03152218, 0.011709586, -0.007590696, 0.058545765, 0.05114836},
			{-0.042259995, -0.06022688, -0.024013551, -0.04135164, -0.049485832, 0.02512835, -0.046545606, 0.010262676, 0.04025296, -0.0736167, 0.017212983, -0.056416553, 0.012171237, 0.10300567, 0.009861738, 0.020275954, 0.039034918, 0.025333578, -0.01634664, -0.08424476, 0.031008907, -0.036811594, -0.004766181, 0.040868554, 0.013602056, 0.10456823, -0.015895486, -0.019276286, -0.06699487, -0.033642035, 0.036722586, 0.043314036},
			{0.03379765, 0.025503352, -0.16236995, -0.03515944, 0.07125744, -0.021843284, 0.022959199, 0.04511815, 0.20218009, -0.01695475, -0.12840126, 0.03961055, -0.013628543, 0.055457458, -0.016240476, 0.1258043, 0.0037156716, -0.02657038, -0.058483817, -0.11707057, -0.06599731, -0.043206282, -0.04655216, -0.06831257, -0.0719105, -0.0043916483, -0.020914406, 0.06368163, 0.04199283, 0.0007214397, 0.04396652, -0.06653436},
			{-0.04911188, 0.004215382, -0.041087653, -0.044407953, -0.056276374, -0.0679524, 0.021570768, 0.031508714, 0.118786395, 0.02231355, -0.0792421, 0.055257484, -0.009760268, 0.06804674, -0.09405754, 0.02965447, -0.07826577, -0.028312327, 0.014106332, -0.09478298, -0.0475566, 0.008478694, 0.06690359, 0.025067784, -0.007200729, 0.03767262, -0.057271305, -0.084152915, 0.06199397, -0.03788163, -0.02928572, -0.103563055},
			{-0.01999928, -0.032860126, -0.12138183, -0.04314987, 0.04854795, 0.0041443706, -0.04825154, -0.020765869, 0.15050082, 0.023424141, -0.06409618, 0.024407446, -0.03249094, 0.038879946, -0.044198282, 0.043489754, 0.04949051, 0.008529485, 0.06252537, -0.0021762531, -0.007742241, -0.05200743, -0.007069908, -0.027159842, -0.035658866, 0.053872187, 0.046857625, 0.052859075, -0.053242937, -0.07111255, 0.038149484, -0.007803812},
			{-0.04643321, -0.03290384, 0.032783158, 0.07901758, -0.013727414, 0.0019176528, 0.035391252, 0.017816003, 0.019928485, -0.07211986, -0.009069165, -0.019579288, 0.0424995, 0.0076431283, 0.064330444, 0.06011882, -0.018610846, 0.046610385, 0.024170477, -0.11658134, -0.0022411346, 0.04183325, -0.03214638, 0.018945094, 0.00043419056, 0.109566435, 0.034659408, -0.0745277, 0.017599195, 0.07083143, 0.058780063, 0.010443272},
			{-0.03714793, 0.06862427, -0.050966818, -0.040045083, 0.03164889, -0.068057925, -0.010642186, -0.057684224, 0.0073377965, -0.06700571, -0.09817928, 0.055991262, 0.060444422, 0.05595101, -0.06909501, 0.07905998, -0.03841089, 0.013622636, 0.057736862, -0.032920405, -0.048800565, 0.021255486, 0.0156041235, -0.037113294, 0.041655067, 0.014614197, -0.02278655, 0.025444334, -0.030805849, -0.022719502, -0.038898647, -0.094094776},
			{-0.05738614, -0.030727837, -0.08023621, 0.0020005405, 0.005556531, 0.06772618, -0.038776483, 0.037834104, 0.11207427, 0.045970038, 0.06354937, -0.059592538, -0.008969505, 0.052995846, 0.032863658, 0.0012350243, 0.022414938, 0.057161752, -0.07212196, -0.12582137, -0.07842043, 0.07013781, 0.028343894, -0.042678263, 0.037244853, 0.06533123, 0.028318055, -0.03953233, 0.07479282, -0.016866274, 0.0359597, 0.03573065},
			{0.028729111, -0.06661501, 0.010025013, 0.03699868, -0.04631304, 0.027868368, -0.007416148, -0.0687133, 0.0018765173, 0.041432865, -0.07602934, 0.004806675, 0.0033265054, 0.0074578533, 0.06332852, -0.012216556, 0.05293478, -0.023223445, -0.03084609, -0.059300147, -0.07391371, -0.036468044, -0.0022159442, 0.07298732, -0.026068779, 0.1190792, 0.071377784, -0.05250368, 0.07387315, -0.01302439, 0.031173462, 0.062157482},
			{-0.052763857, -0.06543405, -0.01902901, 0.04710853, -0.061423372, -0.063567, 0.07808294, 0.03271233, -0.052660067, 0.054924086, 0.05527657, -0.022940833, 0.011847681, 0.02317995, -0.03411629, -0.0088950675, -0.036521032, 0.03854006, -0.04754382, -0.0612506, -0.04554389, -0.064345576, -0.026791655, 0.026691508, 0.019830061, 0.083484426, -0.07717167, -0.09022995, 0.009817161, 0.019526929, 0.030498704, 0.034636382},
			{-0.059354223, -0.014504701, -0.031202123, 0.051032886, 0.009461876, -0.028241456, 0.021956367, 0.0684825, 0.082317784, -0.021436837, -0.0046192724, 0.04861346, 0.023982855, 0.04906604, 0.01955921, 0.019000992, -0.076631844, 0.03588678, -0.037052017, -0.1087339, 0.06252983, 0.020960681, -0.07687709, -0.040760178, 0.023313105, 0.049331833, -0.032541636, -0.016711075, 0.008696526, -0.03259394, 0.0054496815, 0.014259191},
			{-0.042880062, -0.06335772, -0.061092444, 0.018088572, 0.06871141, -0.07207035, 0.0232802, -0.0653622, 0.087365024, -0.013990171, 0.056194767, 0.05494663, -0.03958856, -0.046023022, -0.04815978, -0.024202408, -0.012796916, 0.00182092, 0.02055897, -0.09135923, -0.073185496, 0.020977266, -0.026166536, -0.014315155, 0.052287232, 0.066343196, 0.015512966, 0.05128232, -0.062298454, 0.058380216, -0.12484359, 0.05062373},
			{-0.026327629, 0.038072318, 0.032503087, 0.00512138, -0.019188993, -0.02002082, 0.08055752, 0.05299838, -0.021906355, 0.049836174, 0.07334387, -0.059550934, -0.06639349, 0.056219485, -0.055948008, 0.08397294, 0.04028493, 0.06136162, 0.0070897397, -0.02684375, 0.016666986, 0.026613504, 0.07441491, 0.01820338, -0.030236296, 0.08551329, -0.06012532, -0.02632433, 0.061216787, -0.056144334, -0.06081849, 0.06369307},
			{-0.057361826, 0.06887114, -0.0073648505, 0.0018796027, 0.020262621, 0.056660593, 0.033928, 0.016848521, 0.08345328, -0.07853984, 0.005261542, 0.052412227, 0.057238933, 0.08297104, 0.04803885, 0.12013767, -0.039901342, -0.0039116167, -0.089122064, -0.015450338, -0.0098905265, -0.029544208, -0.062055945, 0.014548705, -0.08485499, 0.15154079, -0.05201208, -0.023238648, -0.003675498, -0.054443575, -0.11569473, -0.05587453},
			{-0.044834085, -0.008026339, 0.091619104, -0.05795873, 0.048006516, 0.0750974, -0.043405175, 0.029765636, -0.01523015, 0.022191636, -0.036091518, 0.07516217, -0.048954297, -0.07033061, -0.0102746375, -0.085040204, 0.01705926, -0.054193754, 0.04302511, -0.1406593, 0.030646972, 0.038169727, 0.06408095, -0.022884311, 0.043377493, 0.021390608, 0.04007177, 0.036704395, 0.036423028, -0.07832314, -0.13056993, 0.062329285},
			{0.07243119, -0.031538516, 0.112499125, 0.06319797, -0.015214351, 0.05202189, -0.054851037, -0.021504752, -0.03364109, -0.059586912, 0.037816506, 0.053664863, 0.034744624, 0.05042092, -0.07738212, 0.049770128, -0.0049404725, 0.06322317, -0.013082121, -0.073069744, 0.07515356, 0.023671225, -0.02376515, 0.051039394, -0.04406837, 0.10495954, 0.07282752, -0.047505166, -0.06336677, -0.007883705, -0.05620955, 0.09919109},
			{0.030037485, -0.038649533, 0.05296122, 0.07771103, 0.024603063, -0.010402761, 0.019224381, -0.038283605, 0.057324413, 0.07060777, -0.004046853, -0.010507703, -0.06756129, 0.091250665, -0.0616738, -0.03736983, -0.005765632, -0.0791761, -0.009022209, -0.14961094, -0.07539551, -0.06424031, 0.00041865557, 0.0546402, 0.021945164, 0.07931284, -0.05079189, 0.018932354, -0.06477343, 0.06426206, -0.10342957, 0.037522152},
			{-0.0068894997, -0.016604893, 0.13281533, 0.07722768, -0.045819886, 0.043288827, -0.023189653, 0.07028063, 0.038873672, 0.0028759018, -0.038483046, -0.027902, 0.03171649, 0.07454457, -0.050750464, -0.031759977, 0.020822354, -0.051488616, -0.017760599, -0.04636091, 0.017272286, 0.0023834258, 0.04595065, -0.005971373, 0.016838465, 0.15867673, 0.042984225, 0.06045525, 0.028513841, -0.009520993, -0.118239015, 0.0073554367},
			{-0.015947193, 0.010665126, 0.00017339384, 0.015373036, -0.054730356, 0.033140585, -0.03254745, 0.0303905, -0.027576106, -0.029429697, 0.01990087, -0.065819554, 0.0073623834, 0.011782908, -0.08136412, 0.0022583066, -0.029464416, 0.048409354, -0.08287011, -0.046350177, 0.033459097, 0.01061175, -0.03471502, 0.008999295, -0.04353028, 0.094118066, -0.057865016, 0.05020792, 0.013151981, -0.040170364, -0.1629619, 0.12088743},
			{0.05425909, -0.07562415, 0.0053731073, 0.054414153, -0.023520252, -0.04486928, -0.009796938, 0.007151502, 0.04942746, 0.05685477, 0.020140747, -0.076431364, 0.014721616, 0.10289652, -0.003980673, -0.034340948, 0.0028867424, -0.051330134, 0.027130311, -0.14416705, 0.046633005, -0.07399562, -0.075036235, -0.03416135, 0.009474097, 0.13887452, -0.008859858, -0.0033543224, -0.05739647, 0.05409731, -0.05314959, 0.112432584},
			{0.006272584, -0.025543083, 0.16910134, -0.034652427, -0.008614665, 0.07515146, 0.032784473, 0.053981565, -0.037836134, -0.044804186, -0.023626491, -0.011358462, -0.0400454, -0.05936759, -0.09178857, -0.087931365, -0.016663462, -0.014487296, -0.019471759, -0.09720868, -0.04720919, -0.040619988, 0.048112154, -0.020538323, 0.039295938, 0.10204655, 0.033121668, -0.070650734, 0.066704854, 0.021725826, -0.12819642, 0.114753164},
			{-0.008286975, -0.056267396, 0.16948166, 0.07377827, -0.06492515, 0.062418446, -0.04128099, 0.053624287, -0.03656559, 0.00012235343, -0.029372966, -0.018237457, 0.025226021, 0.05854597, -0.050369613, -0.12791117, 0.058324113, -0.00037258395, 0.035615433, -0.015456192, 0.024179362, 0.00815215, 0.021704555, 0.07253217, -0.066195294, 0.099092215, 0.06837578, -0.053562872, 0.051194802, 0.006674841, -0.06198726, -0.0060647377},
			{0.012659147, 0.009054445, 0.101970725, -0.063353226, -0.04254942, 0.052326813, -0.026050251, 0.06075096, 0.014130235, -0.036613315, -0.028904313, 0.017405197, -0.04728116, -0.033089183, -0.06790332, -0.0005970315, -0.0481506, 0.072465785, 0.002649621, -0.15111439, -0.030962672, -0.006083548, 0.018423796, 0.0043864935, 0.06735057, 0.041400183, 0.04812534, -0.06334232, 0.021401942, -0.0020811558, -0.064455025, 0.05326283},
			{0.07671659, 0.022293448, 0.1271057, -0.07853477, -0.06411103, -0.043380745, 0.0071578478, -0.032567512, 0.08055635, -0.011482514, 0.044611137, -0.07670976, -0.06866059, 0.14176834, 0.020219509, 0.08714018, 0.06456721, -0.054120306, -0.06421848, -0.08081924, 0.002435401, -0.075209096, -0.0144008845, -0.049801264, 0.044646487, 0.05235784, -0.07383824, -0.076699294, 0.06689857, 0.060141087, -0.11948638, 0.14187813},
			{-0.03491016, 0.010025084, 0.10025648, 0.04870963, -0.057498753, -0.06020023, 0.04684338, -0.08380471, 0.002630611, 0.0049796253, -0.0019769727, -0.021610897, -0.08031429, 0.117202945, 0.07586764, -0.04926054, -0.06861008, -0.007854752, -0.011105444, -0.023867162, 0.0664482, 0.050847888, -0.03642064, -0.010874948, -0.020137899, 0.102331765, 0.028587379, 0.010604019, -0.06324376, -0.0786484, -0.049536757, 0.10829064},
			{-0.00476218, 0.039528623, -0.012568149, -0.025141701, 0.029637024, 0.022859491, 0.012008401, 0.019944854, -0.039720166, 0.008746646, 0.091775276, 0.045176715, 0.0528476, 0.18646438, 0.041468926, 0.065566994, -0.079267494, -0.0798325, -0.06647166, -0.13442233, -0.01360666, -0.07503582, -0.07398282, -0.05247098, -0.04090811, 0.025764804, -0.045287956, -0.06837472, 0.01185254, -0.045036227, -0.1165769, 0.12033363},
			{-0.034473773, 0.038736403, -0.0016468348, 0.04649663, -0.06994946, -0.04417279, -0.10700133, 0.044066228, 0.032455307, -0.04184882, 0.05444404, -0.07143251, -0.05609257, 0.09106597, 0.01942944, 0.007284057, 0.0521013, -0.04677699, -0.023421863, -0.09128015, 0.018263489, -0.060088858, -0.007529862, 0.031865694, 0.033305835, 0.029801248, -0.0040750653, -0.07271579, 0.031718872, -0.06231364, 0.026023423, 0.09821747},
			{-0.043554097, -0.030375354, 0.013885641, -0.071148284, 0.01773068, 0.048625886, -0.022572294, 0.040239368, 0.039461873, -0.0061496794, -0.026473805, -0.020132747, -0.035802383, 0.04705185, 0.04171429, 0.07083995, 0.0524002, -0.021599723, 0.07209847, -0.0049227015, 0.021888793, 0.048591897, -0.062872075, 0.020334914, 0.06599068, 0.0884563, 0.010380395, 0.042916123, -0.0028029159, -0.050034873, -0.061809774, 0.13304271},
			{0.07115084, 0.0068285316, 0.051962577, -0.047793332, -0.008281474, 0.06392078, -0.077835105, -0.030220034, -0.013473462, -0.024229597, 0.09697835, 0.027535684, 0.017135633, 0.05858679, -0.011262833, 0.05886372, 0.042646646, 0.060244408, 0.048977055, -0.00922765, 0.037766397, -0.028277095, 0.04247631, -0.06941218, -0.009963129, 0.02145574, -0.06777734, 0.026422996, -0.06350207, 0.00029176474, -0.023497012, -0.0058433516},
			{0.031916574, -0.06660793, 0.027279185, 0.008690901, 0.0014459088, 0.02528768, -0.1096412, -0.06389235, 0.12619297, -0.053964414, 0.07989388, -0.07990748, -0.013423275, 0.18205579, 0.114075206, 0.10706448, -0.047172304, -0.048087697, 0.024923543, -0.15320699, -0.0763927, 0.028708965, 0.03883458, -0.033458076, 0.056439497, 0.057123, -0.030622661, -0.027812451, -0.07564814, 0.0048078075, -0.011531801, 0.14642431},
			{0.063986614, 0.049149588, -0.011653849, 0.062689975, -0.056069627, -0.03459456, -0.07990402, -0.003107255, 0.045171224, 0.002861932, -0.061908253, -0.07038344, -0.061166592, 0.13050085, 0.08997414, -0.023853894, 0.07541937, 0.010649487, 0.047582097, -0.082086876, -0.019844156, 0.014365494, 0.015490532, -0.045140255, 0.027106326, 0.075622275, 0.03040646, -0.0759744, -0.06466801, -0.051852535, 0.014915568, 0.04114543},
			{0.012471713, 0.008875921, 0.064393125, -0.0034300461, -0.031032462, -0.013568528, -0.114818804, -0.04759771, 0.0037536433, 0.03342931, 0.0625699, 0.05433546, 0.048337568, 0.1265835, -0.0066662957, 0.02770628, 0.01866135, 0.066395074, 0.053437162, -0.04353795, -0.04298874, -0.029375043, -0.04445, -0.02130942, -0.033842817, 0.0675488, -0.056298807, -0.048845936, 0.076031625, 0.058321655, 0.022334034, 0.051133342},
			{-0.0018112361, 0.07351281, 0.040458325, 0.013795331, -0.017742343, -0.06428618, -0.17608644, -0.03854903, 0.09637817, -0.03280249, -0.03900973, 0.033185653, 0.052563943, 0.15525931, 0.043482866, 0.0142173255, -0.049444262, 0.036307894, 0.111324765, -0.07899135, 0.040398255, -0.051717173, 0.057691827, -0.058426987, 0.020679452, 0.06961865, -0.0663224, -0.06815474, 0.030423947, 0.03011582, 0.010981146, 0.07767277},
			{-0.07658813, -0.05646719, 0.096245095, -0.03834516, -0.028815914, 0.054567903, -0.033423077, -0.033568434, 0.057803337, 0.0352918, -0.071413346, 0.045155868, -0.04059926, -0.00800626, -0.017241605, -0.018097652, -0.06806785, 0.002923584, 0.03812396, -0.018329762, -0.041398145, 0.026467137, 0.036498442, 0.043679953, -0.039600875, -0.05626006, 0.053573817, 0.001957525, -0.07801687, 0.02715154, 0.03860655, 0.0446825},
			{-0.050892457, 0.04652156, 0.0010408233, -0.008506432, -0.0059452443, 0.060327634, 0.008760439, 0.015384347, 0.102164075, 0.005020663, -0.09420218, 0.0061959103, -0.07435667, 0.055013042, -0.03362624, 0.0032313212, 0.054447725, -0.05922437, 0.1002774, 0.031453736, -0.07855325, -0.038718134, -0.017848395, -0.020943912, 0.027691813, 0.038838588, -0.013890602, -0.083198264, 0.073266566, -0.04119139, 0.08222187, 0.08260942},
			{0.028074324, -0.005065523, 0.07279689, -0.036248263, -0.06429931, 0.044246495, -0.16395922, -0.072919756, -0.002270419, 0.04243578, 0.031821832, -0.03785632, 0.044297207, 0.049518384, 0.058440607, 0.016884986, 0.064389065, -0.021840494, 0.10733223, -0.0524407, -0.0527369, -0.024052668, 0.01492127, 0.0711965, 0.06916182, 0.074927814, -0.011713274, 0.01177054, -0.02737144, -0.05198365, -0.00141093, 0.014805848},
			{-0.07669151, -0.033113327, -0.0052966666, 0.06367177, -0.010088193, -0.0388899, -0.06924257, -0.040853456, 0.0151482, 0.00020977855, -0.025421344, 0.0023600832, -0.015682299, -0.05098916, 0.0851297, 0.0027151625, -0.070781775, 0.012556582, 0.13418885, 0.030263025, -0.034803893, -0.06686557, 0.035704784, 0.06614843, -0.039444514, 0.05784219, -0.017298609, -0.031378474, -0.033406354, -0.075098336, -0.011139605, -0.028282285},
			{-0.033390343, -0.06398085, 0.022648105, -0.027863797, -0.032016654, 0.06161663, -0.07779594, 0.04557503, 0.071187526, -0.020929039, 0.07314809, -0.03080824, -0.04275975, 0.017316852, 0.06425472, 0.09263686, -0.03292666, -0.055024616, 0.08985038, 0.069026545, 0.031124547, 0.07072531, -0.06937785, 0.021053307, -0.06127936, 0.009616184, 0.006225355, -0.02492328, 0.04421725, -0.05762379, 0.04782028, 0.0023735173},
			{-0.012047604, 0.043597333, 0.044932783, 0.058605567, 0.044865146, 0.06403199, -0.021103123, -0.002714845, 0.08741422, -0.07649294, -0.09495976, -0.06822703, -0.016078666, 0.07916202, 0.17545103, -0.05505576, 0.0565051, 0.05905613, 0.18060116, -0.080937915, -0.027449794, -0.057094757, 0.047682628, -0.06187029, 0.057355188, 0.00637199, 0.04445652, 0.012222017, -0.00067003816, -0.0031452999, 0.10661633, -0.03499998},
			{0.058961973, -0.043663424, 0.073709756, -0.03482727, 0.057741363, -0.046841323, -0.0070632715, 0.055182997, -0.04658375, -0.013054267, -0.089897394, -0.04199572, -0.06289969, -0.022796266, 0.1418617, -0.018545916, -0.03398262, -0.077234305, 0.043422274, 0.0016836463, -0.02250988, -0.03544269, -0.060585216, -0.06424128, -0.032437354, -0.07332366, 0.049977794, -0.045445982, 0.038400024, 0.061705187, 0.13220505, 0.022729399},
			{-0.058330573, 0.04851511, -0.05734025, 0.008511983, 0.06476181, 0.026886962, 0.0024729057, -0.07845805, 0.062239524, -0.010478988, -0.09117172, 0.068645224, -0.042840656, -0.035085123, 0.013784205, 0.029122513, -0.061695658, -0.034367956, 0.14244889, -0.03667247, -0.016037196, 0.06620315, 0.07656747, -0.07703389, -0.054887943, 0.068716764, 0.06867573, -0.005157243, 0.016235225, 0.026320241, 0.044652004, -0.08267545},
			{0.055883735, -0.061012555, -0.027793314, -0.04025756, 0.035661075, -0.030913722, 0.030086309, -0.034044802, 0.001984617, 0.04805529, 0.046959177, 0.03763438, 0.017997356, -0.045048084, 0.105514586, 0.03870569, 0.018103547, 0.041182328, 0.041175805, -0.11218925, 0.05759272, -0.010483123, -0.03835729, -0.0127463555, 0.06824223, 0.034418985, -0.03117197, 0.057847265, -0.039995864, -0.042154934, 0.0006238402, 0.03400843},
			{0.067489445, 0.057977274, -0.019703778, -0.039738033, -0.00013071144, 0.053275973, 0.022247607, 0.008879028, -0.027426165, -0.07921634, 0.004140769, -0.021908231, 0.050106466, -0.064057134, 0.16028233, -0.0670066, -0.041486714, 0.07342532, 0.14895801, -0.044277355, 0.04997918, 0.0027907565, 0.0008579865, -0.032780174, 0.059162598, -0.05079294, 0.033896342, -0.060703557, 0.01579146, -0.07153189, -0.017533371, 0.01763518},
			{0.008138724, 0.0632672, 0.009803634, -0.058179162, -0.0032617745, -0.024131596, 0.046730377, -0.026115801, 0.039482683, -0.071000695, -0.06110346, -0.00065363944, -0.007300849, 0.0035050411, 0.14540449, -0.03817125, -0.07545766, 0.021352565, 0.08961647, 0.055770837, 0.053200513, -0.03380804, -0.01573246, -0.042628124, -0.059248537, -0.03634268, -0.051953923, -0.036113042, 0.070445, -0.04650889, 0.10371657, -0.022162052},
			{-0.06642763, -0.048631154, 0.07484428, -0.030866586, -0.08297112, 0.061516583, -0.09598364, -0.014011476, 0.017781451, -0.07691045, -0.05671074, 0.054521278, -0.06270354, 0.019469772, 0.035508744, 0.10867518, -0.021340135, -0.028707452, 0.062374067, -0.124483734, 0.057840645, -0.009972341, 0.012525983, 0.046101477, 0.00661929, 0.035395585, 0.01098004, -0.09018229, -0.022641204, 0.04295922, -0.033417728, -0.0601859},
			{-0.033510096, -0.06186291, 0.0714952, -0.055667166, -0.0294163, -0.053874657, 0.05333104, -0.079078645, 0.0569323, 0.037301026, -0.096624784, -0.011446416, 0.060057577, 0.037080586, 0.09779057, 0.012576941, 0.06500046, -0.07006161, 0.07677026, 0.015121768, -0.02263514, 0.07349257, 0.03777598, 0.046499982, 0.045646854, -0.046254497, 0.06958121, 0.048613504, 0.017313339, -0.031031676, -0.0053418227, -0.0029515128},
			{0.03649704, 0.07101907, 0.0089229215, 0.020602971, -0.052953165, 0.019452326, -0.04310635, 0.038857542, -0.015259567, -0.078147374, 0.010382824, 0.039793797, -0.083864786, -0.033069976, 0.011375361, 0.044109248, -0.034782086, 0.06935493, 0.019278333, -0.010280034, -0.027827702, -0.031263087, 0.046911716, -0.008123018, 0.026957644, 0.074753, -0.07704026, -0.08459562, -0.02127435, 0.041971922, 0.074951224, 0.024679221},
			{-0.008546546, 0.0588222, 0.011588148, 0.022540085, 0.008669037, -0.0581498, 0.038833313, -0.06580445, 0.11784947, 0.055830434, -0.056874935, -0.055360537, 0.0707827, 0.08434665, 0.0036112512, 0.036260445, 0.050030008, 0.005834083, 0.0490309, -0.031508997, 0.029083759, 0.03898205, -0.041471757, -0.06151174, 0.05643111, 0.0942442, 0.016020954, -0.058974933, 0.06955771, 0.07958485, 0.022465203, 0.04087512},
			{0.07385217, -0.016185872, 0.034952264, 0.063364714, -0.08230289, 0.00018559396, -0.05436243, -0.03769863, 0.042054582, -0.005787663, 0.029883966, -0.0052331164, -0.06330627, -0.055379923, 0.011927057, 0.024582444, -0.018233936, 0.014207263, 0.09377847, 0.051169835, 0.030503564, -0.051992718, -0.03707451, 0.009944135, -0.079354405, 0.06253171, -0.04476893, 0.029140756, -0.075574584, -0.073271275, -0.017969085, 0.03447175},
			{-0.029324561, -0.08010964, -0.07903485, 0.057879478, 0.04574895, -0.06468961, -0.057949614, -0.03656943, 0.06538898, -0.074554935, -0.042657074, -0.048535947, -0.027589198, -0.040449504, 0.03361768, -0.009785327, 0.012537442, -0.08129482, -0.007966428, 0.070998885, -0.015586041, -0.026085101, -0.0641572, 0.002976648, 0.055643946, 0.06421266, 0.048880294, -0.067261316, -0.059975497, -0.0019241571, 0.05912319, 0.055256516},
			{-0.07119777, -0.01831185, -0.051505443, -0.07320264, 0.020284586, -0.057605404, -0.036337163, -0.08262088, 0.14323282, 0.025685176, -0.054735977, 0.027791277, -0.0433336, 0.006311297, -0.031784464, 0.017326774, 0.06947662, 0.002202569, 0.052387744, -0.12315184, 0.008697428, -0.045005027, -0.06630096, 0.00859312, -0.058651634, 0.14025687, 0.057360053, -0.03761459, -0.04327287, 0.02960936, -0.033541802, 0.03316558},
			{-0.07058078, 0.058341116, -0.04398735, 0.036748886, -0.015876072, -0.036019012, -0.0031643442, -0.049399983, 0.078971736, 0.02858799, -0.116627246, -0.0018161163, -0.07402688, 0.056700207, 0.07401525, 0.020348923, -0.03141448, 0.052078154, 0.07075419, 0.009858679, -0.037514247, -0.019176167, -0.02856335, -0.052039895, 0.06485387, 0.06877044, -0.007606365, 0.05415252, 0.06291801, -0.062698245, 0.040577285, 0.030317852},
			{-0.031608913, -0.046158586, -0.017698979, 0.016326383, 0.049000423, -0.016243204, -0.0059167095, 0.0015315971, 0.11666974, -0.0395822, -0.09546258, -0.049372755, 0.032106005, -0.02867457, -0.055618044, 0.06489077, 0.07596961, -0.032207623, -0.062330052, -0.01699876, 0.020672187, 0.0037826672, -0.05563654, 0.021492383, 0.02315234, -0.0048672743, -0.035652295, -0.037354477, 0.062737554, 0.009836465, 0.041592278, -0.0389187},
			{-0.06505403, 0.047202677, -0.018057091, -0.037816666, 0.058706705, 0.01719255, 0.08685482, 0.033504523, 0.1590213, 0.06998484, 0.036904894, -0.040118504, -0.06451022, 0.051365975, 0.03865921, 0.073864736, -0.054073624, -0.0062261196, 0.007218665, -0.12094901, -0.06658511, -0.07941169, 0.0517312, -0.079715826, -0.026135249, 0.051408414, -0.0365327, -0.058467574, -0.037844367, -0.058965296, 0.07054722, -0.09526158},
			{0.011941746, 0.065546006, -0.10877391, 0.024429291, 0.05391262, -0.05639763, 0.08615098, -0.060875084, 0.039490193, 0.028953314, -0.032338366, -0.076269224, 1.684132e-05, -0.07786242, -0.07094624, -0.019002654, -0.053266507, -0.05151719, -0.06043051, -0.012776502, -0.056522205, -0.06682402, -0.07944967, 0.015682569, 0.01180476, 0.09302845, 0.07192661, -0.08069507, -0.056900054, -0.0062477514, 0.065165386, 0.043948825},
			{0.07810311, 0.053724095, -0.03218167, 0.045127302, -0.07418542, -0.04765979, 0.061076988, -0.075217426, 0.08228952, 0.033032738, -0.041756403, 0.005477518, -0.049041282, 0.088816494, -0.02907672, -0.0075581344, 0.0071358904, -0.043581832, 0.04319399, -0.07156697, -0.07356528, 0.00622046, -0.07826139, -0.042668406, -0.017907152, 0.04601094, 0.009286948, 0.0038339633, -0.013535261, -0.032191277, 0.0038513704, -0.04848987},
			{0.028834172, -0.0037895516, -0.02135513, 0.07035132, 0.011133765, -0.018076267, 0.016441297, 0.036919486, 0.14478616, 0.0041972026, -0.087909736, 0.067828685, -0.023438992, -0.009118273, 0.008134341, 0.05660137, 0.030755691, 0.040547285, -0.046201307, -0.120483965, -0.07927113, -0.044875596, -0.03690776, 0.017016869, 0.023243975, 0.025297409, -0.007966824, 0.049114157, 0.056926057, 0.012908079, 0.04057801, 0.025717346},
			{-0.032835316, 0.063130885, 0.00883893, -0.05486299, 0.049096856, -0.014882758, -0.04661148, -0.06478117, 0.1506801, 0.012510389, 0.0045846347, 0.039577417, -0.037489824, -0.07037297, 0.050474316, 0.059255872, 0.02881439, -0.023866583, 0.03624779, -0.014861238, -0.03284769, 0.0128249, -0.00044472516, -0.05175232, -0.06182534, 0.067764245, 0.06966385, -0.02969392, -0.0050132573, 0.060560554, 0.014304162, -0.063933104},
			{-0.074980035, 0.03533107, -0.017704733, 0.072115004, 0.051177543, -0.030333709, -0.04308059, -0.04036969, -0.022557266, -0.05130116, 0.016765686, -0.03593712, 0.033529904, 0.04903948, -0.046616055, 0.06319615, 0.02853211, 0.061530557, -0.016330402, -0.07449304, 0.055068925, 0.047258005, -0.040775128, -0.084373705, -0.061401304, 0.048829235, -0.0017627776, -0.062973894, 0.033383958, 0.0039818212, -0.06302004, -0.072392456},
			{-0.027244724, -0.05256418, -0.08975987, -0.03628413, -0.0833473, -0.012012541, -0.032724414, 0.062987, 0.16061331, 0.019583799, -0.11661604, 0.05369878, 0.0053368965, -0.089006715, -0.092218705, 0.058306593, -0.04844328, -0.07947252, 0.077180386, -0.10960826, -0.016255565, -0.022155195, -0.06649097, 0.06247413, -0.076730154, 0.072572894, 0.014638111, -0.061873615, -0.06001209, 0.06461322, 0.018083863, -0.07629115},
			{0.020101145, 0.048057243, 0.009242159, -0.017289117, -0.0636593, 0.008213997, -0.07603463, 0.013691297, 0.08154187, 0.032739364, 0.011166253, 0.0044384673, 0.034903083, 0.04051932, -0.12967697, 0.057055034, -0.009551585, 0.036436833, 0.03285867, -0.09661801, 0.05877155, -0.047283642, 0.05463271, -0.082718424, -0.055475228, 0.09420398, 0.009854659, 0.040645707, -0.010898814, -0.022022415, 0.06968118, -0.10535145},
			{-0.045276668, 0.044922754, -0.12046052, 0.061597273, -0.08135688, 0.010322265, -0.017524635, 0.017978186, 0.061480198, 0.0637764, 0.007919036, -0.03661873, -0.043143827, 0.07167611, 0.0022023052, 0.0922218, -0.0799105, -0.07280819, 0.07954515, -0.12710585, -0.0574957, 0.06695138, 0.036968842, 0.05244641, -0.042297274, 0.04629492, 0.014599599, -0.059013944, -0.050430052, -0.0036951452, 0.04141339, 0.026165241},
			{0.0064139515, 0.056830212, -0.11230302, -0.018015206, 0.034632053, 0.001943253, 0.009712846, -0.029242234, 0.045680337, 0.0050482303, -0.014573629, 0.07645631, 0.0059094294, -0.045385826, -0.0036581522, 0.10866929, 0.063431025, -0.063882, 0.006922227, -0.06984952, 0.060302064, -0.043870464, -0.040587716, -0.06459156, 0.017486695, 0.11242057, -0.0636509, 0.046980646, -0.052383654, -0.0060383976, 0.1269168, 0.014895474},
			{-0.07083454, -0.03808559, -0.03259253, 0.043456495, 0.054011505, -0.025160354, 0.029576814, 0.049053784, 0.02525043, 0.03818258, 0.010211174, -0.062361598, 0.041455563, -0.09042348, -0.10769901, 0.045935497, -0.0047947243, -0.043316934, -0.026868, 0.0038447366, 0.0053968504, -0.042804904, 0.065571904, 0.0405194, 0.042395666, 0.06578135, -0.023491327, -0.07269991, -0.06185112, 0.056507796, 0.022387432, -0.08598458},
			{0.058004886, 0.07902022, -0.08584949, 0.020286724, -0.035766214, -0.03934576, -0.050340474, 0.019368228, 0.03803442, -0.06192988, -0.007922293, -0.076626584, 0.06205223, 0.045666102, -0.037621636, 0.010810533, -0.026414495, 0.023518784, 0.083792396, -0.12279416, 0.032839105, -0.011072449, -0.028784968, -0.075840674, 0.06396479, 0.050062522, 0.04470232, 0.020218521, 0.022151254, 0.024262786, -0.034354586, -0.06713915},
			{0.05903381, 0.030395612, 0.017561628, 0.025848657, 0.009359296, 0.05661851, -0.02030265, -0.067144565, 0.023401812, -0.0075621903, -0.04453688, 0.05051057, 0.03063777, -0.044733804, -0.056939866, -0.045425143, 0.031335227, 0.011279042, 0.012932501, -0.13149588, 0.010254197, -0.028661218, -0.019805763, -0.016001208, -0.042754635, -0.02756678, -0.048700385, -0.029706242, -0.044143215, -0.0787385, -0.060426585, 0.027817423},
			{-0.008739568, 0.05177559, 0.09176333, -0.05171241, -0.022583347, -0.021981556, -0.025963979, 0.06565705, 0.1087338, -0.0120297745, -0.0023978215, 0.034345053, 0.0274946, -0.028252719, -0.07841592, -0.06050701, 0.040282294, 0.053300995, -0.002911802, -0.055995904, -0.015772708, 0.046517894, -0.040943395, 0.04295386, 0.045077614, -0.011507253, 0.06467584, 0.028267028, 0.079547316, -0.070482746, 0.013131837, 0.02700216},
			{0.00046603382, -0.021832976, 0.0029103532, 0.015464492, 0.05754258, 0.031696104, 0.040424142, 0.036256872, 0.05671762, -0.070772536, -0.0233889, 0.0063214228, -0.061813038, -0.00046825927, -0.0018351409, -0.0026503594, 0.006069176, -0.07473231, 0.0073991753, -0.093386345, -0.0049617216, 0.027583972, 0.016729556, -0.006211704, 0.049222883, 0.018555624, 0.055246443, -0.014043888, -0.045477856, 0.0054356977, -0.07331828, 0.050781425},
			{0.054583758, 8.998811e-05, -0.07975253, 0.01435449, 0.014454597, 0.07824509, 0.010845351, -0.024411928, 0.1252483, -0.052985165, -0.016526615, -0.056447983, 0.02286701, 0.05007243, -0.08063577, 0.075745404, -0.06432886, -0.026604185, 0.033607315, -0.030259615, -0.0070351735, -0.0787731, -0.023574196, -0.06655075, -0.07528837, 0.052092668, 0.03345877, -0.083125, 0.02589991, 0.042003386, 0.026924707, 0.022737507},
			{-0.0005988553, -0.033830155, -0.011457525, 0.04724358, 0.055143803, 0.011328004, -0.070610516, -0.07541341, 0.10156781, 0.060493678, -0.05219964, -0.032112196, 0.05991845, -0.053649098, -0.075130045, -0.03038986, 0.0773827, 0.062147103, 0.027863773, -0.057975456, 0.06223944, -0.0011240393, -0.06504582, -0.055003818, 0.019443547, 0.08340252, -0.05311894, -0.020703262, -0.07954466, -0.043259826, 0.07726757, 0.043823555},
			{-0.07483612, 0.06620745, -0.05563443, -0.050546683, -0.03525056, 0.070182726, -0.11791727, -0.079720475, 0.14330769, 0.03718856, 0.02701603, 0.07603867, -0.07561249, 0.01914284, -0.022942757, -0.022212403, -0.017704539, 0.07070451, 0.05371677, -0.08004532, 0.07707852, 0.067680374, 0.053041726, -0.011072159, 0.029040992, 0.008278518, 0.06559229, 0.015528912, -0.035473645, -0.064256124, 0.032247964, 0.051392242},
			{-0.03280182, 0.05580607, -0.03288271, -0.06402284, 0.05735144, 0.06854272, -0.043706406, -0.046564583, 0.11808733, -0.025984213, -0.019346515, 0.001390785, -0.08439555, -0.04436361, -0.06829837, 0.009925451, 0.042176835, -0.02902286, -0.011200097, -0.086724855, -0.06704981, -0.036246177, 0.05175537, -0.004059629, -0.023378475, 0.0473503, -0.0031050742, 0.058470633, 0.07222496, -0.055696167, -0.08915124, 0.011379231},
			{-0.045922715, -0.043481346, -0.0032147176, -0.057767853, -0.019356066, 0.07711375, -0.055830073, -0.054879207, 0.11348134, -0.017122097, 0.018670876, -0.030805945, -0.027766151, 0.009913557, -0.062128503, -0.008193169, 0.0013147816, -0.023355884, -0.016482161, -0.06418296, -0.07557108, -0.064024374, -0.04910073, 0.0021812846, -0.06569167, 0.0796572, 0.010641821, 0.04132921, -0.07656118, -0.04486081, 0.033926442, 0.070896894},
			{0.007013172, -0.0344587, -0.028347343, -0.07764583, 0.06739073, 0.018824048, -0.07454193, -0.014739225, 0.020676116, 0.070624664, -0.058462713, 0.080053896, -0.04171371, 0.053218428, 0.0018444152, 0.028260894, 0.029398002, -0.08406261, 0.0014067605, -0.07401226, 0.077089325, 0.03880339, -0.019136418, -0.028047195, 0.0519572, 0.13220213, 0.07877113, -0.062919796, 0.023279294, 0.072830305, 0.04605996, -0.072503865},
			{-0.030940425, -0.042104986, 0.090630084, 0.063719764, 0.06943482, -0.0075378045, 0.019027721, -0.04675187, 0.07126685, 0.0045046583, -0.037113152, 0.0055623725, 0.044548478, 0.019812092, -0.063208304, 0.08362509, 0.029058255, -0.051720437, -0.07837396, -0.1442603, 0.037488803, -0.06926443, 0.029068701, 0.022995258, 0.039767087, 0.037342384, 0.052736044, 0.028509382, 0.018887885, 0.06791392, -0.073490456, -0.032213617},
			{-0.040445026, -0.042044804, 0.08007704, 0.059205085, -0.0068923975, -0.057241004, 0.0048529115, 0.0051105204, 0.05530001, 0.04131885, 0.033823878, 0.023283236, -0.08204319, 0.05596619, -0.11271939, -0.022204263, -0.013516538, 0.006474197, -0.072812416, -0.002131352, 0.0286251, -0.043997522, 0.069183365, 0.06423929, 0.06554808, 0.012183579, -0.036188062, 0.055585947, 0.06649615, -0.024874538, -0.073922366, 0.06915872},
			{0.0476384, -0.019896325, -0.05255835, 0.057709888, 0.043886907, 0.03342388, -0.04720479, 0.033654224, 0.06296178, -0.009247653, -0.041562688, 0.06304136, -0.012493005, 0.08306558, -0.029805396, 0.034582507, 0.025541395, 0.025955081, -0.05798493, -0.018401166, -0.042500723, -0.032166313, -0.07298236, 0.0642033, 0.053161826, 0.06794182, 0.06992178, -0.06611962, -0.05918345, 0.0043158308, -0.04190982, 0.033056468},
			{-0.07256382, 0.07165535, 0.17331953, 0.057495028, -0.017222622, 0.07184665, -0.07591873, -0.05126255, 0.0053851563, 0.04636638, -0.009166442, -0.020004675, 0.0049830503, -0.0020376602, -0.04796564, -0.009052239, 0.07000552, 0.023589583, -0.07186841, -0.078798264, -0.038472127, 0.06117569, -0.054188497, -0.06301974, -0.043169938, 0.10112482, -0.013871431, 0.047560357, -0.0052749515, -0.014641628, -0.11398507, 0.004658008},
			{0.07111207, 0.00523822, 0.005675387, 0.025069162, 0.05432561, 0.013740793, 0.019362949, 0.025670012, -0.032986354, 0.004451096, -0.04359793, 0.0155515745, -0.05300618, -0.06316378, 0.0038826722, -0.10649559, -0.0648488, -0.0569898, 0.012640767, -0.0057309433, -0.031825613, 0.0058956146, -0.039250378, 0.05135203, 0.06407285, 0.014968427, -0.004483536, -0.020914981, 0.010730855, -0.04813755, -0.15908879, -0.031037176},
			{-0.025934935, 0.05083637, -0.0011484765, 0.03985977, -0.023120597, -0.0662626, 0.022702781, 0.06779265, -0.008537911, 0.05841957, -0.018525423, -0.005877979, -0.07924875, 0.096998274, -0.032638106, 0.02723099, -0.072812624, 0.04762989, -0.054996096, -0.090169534, 0.04395546, -0.016684987, -0.0698697, -0.017314257, -0.06835816, 0.035028163, 0.035950527, -0.037483886, 0.075639576, 0.009333983, -0.13676472, -0.0054120966},
			{0.06840253, 0.030479938, 0.21068925, 0.044481255, 0.0659193, -0.016528696, -0.07737073, 0.037963334, -0.06871446, -0.07595209, 0.05465013, -0.05510351, -0.08168351, -0.07152563, 0.013454078, -0.11851931, -0.052781932, 0.03595347, 0.034048986, -0.018327786, -0.034316353, 0.037259094, 0.06821263, -0.07547755, 0.062182825, 0.07575519, 0.038368613, -0.026137982, -0.07593317, 0.04802257, -0.22271937, 0.09344918},
			{0.04877734, -0.056374524, 0.045184024, -0.05270721, -0.03578044, 0.04348959, -0.06944227, -0.05016507, -0.10264414, -0.04267172, -0.035892032, -0.025180362, 0.016530301, -0.018959822, -0.019090606, 0.006089672, -0.038681384, 0.01196142, 0.01712583, 0.034746632, -0.0688506, 0.06273714, -0.023918532, -0.07385826, -0.032017585, -0.0012531339, -0.03363995, -0.03140139, 0.0019843206, 0.030916303, -0.089838594, 0.032472387},
			{-0.07088921, 0.05798261, 0.10921913, 0.06183529, -0.04264939, -0.02353787, 0.023657778, -0.0065497602, -0.066615045, -0.06794282, 0.0012648503, 0.052568316, -0.023264343, 0.08154046, 0.06347679, -0.089007236, 0.013962448, -0.051963832, 0.00731277, -0.1138222, -0.036197186, 0.03766434, -0.02818355, -0.07539356, -0.014386721, 0.11493437, -0.041204054, 0.055290617, 0.07646787, -0.03330887, -0.1557341, 0.0106317215},
			{-0.015082628, -0.022559155, 0.16242188, -0.03821227, -0.0059823543, -0.05742109, 0.009043445, -0.037185755, 0.08146348, -0.06790854, 0.11097173, -0.015092671, -0.006867626, 0.12959185, -0.032234, 0.013392612, -0.023799334, 0.062212598, 0.06865915, -0.0910017, -0.021917854, 0.032455117, 0.014369205, 0.056104224, -0.06425095, 0.0051250537, -0.04612909, -0.052917447, -0.053841047, 0.03639242, -0.057246927, 0.115607195},
			{-0.07100345, 0.013432942, 0.15707049, 0.024016224, 0.0141337635, -0.008633874, -0.06722387, -0.06334593, -0.05991134, -0.06373867, 0.029100131, -0.03501803, -0.08585224, 0.16620445, -0.007176137, -0.007163581, 0.043809287, -0.038531855, 0.07120651, -0.041838717, -0.04499441, -0.028395299, -0.03268999, -0.021773536, 0.044112846, -0.026908156, 0.060434297, -0.036621127, 0.040601164, -0.04658778, 0.047534086, 0.14915591},
			{-0.078098975, -0.014971614, 0.08392599, -0.023475125, 0.002081516, -0.017951503, -0.08439588, -0.025890535, -0.015685655, -0.00013899803, 0.049438972, 0.057235405, 0.0077781235, 0.11639086, 0.09114226, 0.0150669785, -0.046159524, 0.03248175, 0.08100916, -0.024636457, 0.068649724, 0.0022646263, 0.044515707, -0.014143173, 0.016296789, -0.023826813, 0.061630055, -0.006387943, 0.051708072, -0.07714287, -0.043103214, 0.11724955},
			{0.015647069, -0.037278146, 0.086476445, -0.07960544, -0.019298267, -0.0016028956, -0.11381546, 0.027359232, -0.0012770161, 0.065580264, 0.023736442, 0.031152919, 0.00649035, 0.20546497, -0.01706691, 0.040877543, -0.03829506, 0.07514533, 0.074321456, -0.032924857, -0.06129464, 0.011796989, -0.029580686, 0.013566128, -0.042336047, 0.05550531, 0.072708786, 0.042250473, 0.046866417, 0.036936775, -0.040455047, 0.02238428},
			{0.06322494, -0.023516022, 0.14889741, -0.0600515, -0.034058668, -0.037430055, -0.06370415, 0.015287108, 0.06870274, 0.07460567, 0.11159465, -0.0062927306, -0.0771398, 0.14598668, 0.10458044, -0.0058605783, 0.00660374, 0.0023555027, 0.03480206, -0.059298757, 0.004223913, -0.055757, 0.07670756, -0.06561869, -0.049063016, 0.08812365, -0.00093685836, -0.008040873, -0.06420317, 0.07050343, 0.024260953, 0.068270534},
			{-0.043345965, -0.06093795, 0.053786557, 0.01038941, -0.076589964, 0.07669158, -0.06997455, 0.033889867, -0.02873451, 0.050721765, -0.0049977563, 0.04584168, 0.0092620095, 0.093395635, -0.023862207, 0.0066055614, 0.055120423, 0.0017900323, 0.07037144, -0.07028213, -0.029716756, -0.052524235, -0.07056528, -0.058877993, 0.04497142, 0.060997743, -0.029987365, 0.04406613, -0.07958803, 0.00091674924, -0.060904857, 0.10275308},
			{-0.027475793, 0.020368807, 0.048710242, 0.009886965, 0.067940205, -0.045876134, -0.12789017, 0.07243822, -0.01057354, -0.054284453, -0.0046793395, -0.0023733228, -0.027818827, 0.15476204, 0.081442125, 0.12560886, 0.0056977198, 0.014967123, 0.0047725155, -0.01585896, -0.012844339, 0.04188019, -0.07411541, -0.07931996, 0.01383147, 0.11676805, -0.019874766, -0.0016642273, -0.051431127, 0.019883469, -0.011573367, 0.0037444264},
			{-0.079814255, 0.014655516, 0.07844858, -0.036267467, 0.070667885, -0.0061015263, -0.091525935, 0.05122819, 0.067433245, 0.0013004765, 0.017795192, -0.008511655, 0.04468865, 0.018388225, -0.024487913, -0.021255547, -0.027247038, 0.039046593, 0.09522986, 0.06348064, -0.04699285, -0.024594802, 0.03517302, -0.050573014, 0.047119085, 0.019172298, 0.053801626, 0.02773452, 0.008222394, -0.046388794, 0.06278155, 0.11459372},
			{0.08019976, -0.04751685, -0.03244877, -0.06548559, -0.01280857, -0.0784113, -0.03058032, -0.048407592, 0.05788264, 0.04216431, 0.067104355, 0.022209428, -0.0582442, 0.0126115875, -0.015664732, 0.12060892, -0.039671652, 0.052789602, 0.017417451, -0.112813495, 0.0025002658, -0.037982635, -0.018924803, 0.010072797, 0.07078578, 0.07762188, 0.051849917, -0.07835795, 0.01657889, -0.072251126, -0.0069497875, 0.012946059},
			{0.050874338, 0.019660339, 0.087264635, -0.07001215, 0.020946786, 0.054130495, -0.04657563, 0.06884671, 0.071230575, 0.018347949, -0.04320417, -0.07687976, -0.060756404, 0.039429355, 0.10683644, 0.047149032, -0.0694589, 0.010911972, 0.11333639, -0.04177547, -0.058124986, 0.07108508, -0.03839976, 0.006954907, 0.059934065, -0.011402995, -0.035313625, -0.0085604675, -0.01275757, 0.043791592, 0.07611831, 0.124810845},
			{-0.034052804, -0.059566654, 0.016632706, 0.016920991, -0.058674093, -0.0499898, -0.08448169, 0.073989436, -0.015380266, -0.023474894, -0.03288609, -0.040496256, 0.026845783, -0.03401921, 0.07728066, -0.0813713, -0.06931849, -0.032956585, 0.118790396, 0.058481608, -0.053128675, -0.047615137, -0.022833016, -0.06948092, -0.002941757, -0.016868828, -0.037159562, -0.08614922, -0.0502154, 0.005164936, 0.080837704, 0.06672547},
			{-0.061042283, -0.06376937, 0.03644917, -0.05631411, -0.07318409, -0.07192185, -0.013857292, -0.040240265, 0.0029635928, 0.0754596, -0.101766884, 0.06780259, 0.06803051, 0.09479921, 0.09595285, 0.09032498, -0.07401762, 0.038511343, 0.11799961, 0.025115633, -0.030218318, 0.008584216, 0.040238768, -0.058914848, 0.066512674, 0.034273427, 0.023429595, -0.013564775, 0.056137234, -0.032505825, 0.001660996, 0.06506906},
			{-0.07109637, 0.051486105, -0.019846294, -0.052862372, -0.012937289, 0.03359524, -0.07694313, -0.045816034, -0.04104039, 0.012604587, 0.015650406, 0.029274195, -0.009089774, -0.009609453, 0.17203452, 0.09979902, -0.04319117, -0.004056372, 0.14923425, -0.017751964, -0.069845416, -0.07862311, -0.060477268, 0.016807446, 0.059058376, -0.08485832, 0.05589986, 0.06823206, 0.019932196, -0.004944548, 0.09259565, 0.050250478},
			{-0.0016227886, 0.06809279, -0.031948403, -0.05425974, -0.026613008, -0.03911477, 0.0036859154, 0.018438254, 0.041648638, -0.04492652, -0.032160662, -0.053518005, 0.065523155, 0.021313919, 0.11474687, 0.062856816, -0.03700415, 0.010613499, 0.119099066, -0.037968636, 0.070540205, -0.07109504, 0.07005215, 0.0005349623, 0.012802097, -0.019339157, -0.062228035, 0.014594475, -0.020483319, -0.07944358, 0.03441263, 0.016165039},
			{0.067006394, -0.0131672695, 0.054724414, -0.015689015, 0.05340546, -0.04863366, -0.04085697, 0.0722505, 0.0011485528, -0.050493907, -0.07455012, -0.044277832, -0.026909053, -0.00086797617, 0.08428782, 0.08664067, 0.011186212, 3.7427155e-05, 0.14878684, -0.017421784, 0.07992686, -0.051751338, -0.022009026, -0.054380123, 0.01730183, 0.0008385445, -0.066370815, 0.066317774, 0.06290209, 0.010877766, 0.047412753, -0.013779888},
			{0.07154836, 0.07065344, 0.0814716, 0.0638583, -0.075248405, -0.052564446, -0.06504693, 0.04985102, 0.04031627, -0.018019013, 0.05423378, -0.01924117, 0.053729083, -0.07102636, 0.11187941, -0.056110624, -0.011728577, 0.029521864, 0.05175571, -0.050198723, -0.015408538, -0.05729445, 0.07404943, 0.03310136, -0.0532844, -0.07738599, -0.05293759, 0.012070536, -0.05275085, -0.00811588, 0.0019071994, 0.04006881},
			{0.061561823, 0.076247394, -0.050209086, -0.059122562, 0.009507965, -0.04572019, -0.065014005, -0.070346825, -0.06464662, 0.067496106, -0.07517361, 0.056155205, -0.07898999, -0.013872157, 0.082829185, 0.037537113, 0.044552803, 0.05787416, 0.04131611, -0.019282557, -0.06806155, -0.0032811016, -0.06727581, -0.028881716, -0.06644826, -0.10333509, 0.057665527, -0.028645027, 0.072687134, -0.037686795, -0.014292576, 0.045476828},
			{-0.073341615, 0.059788823, -0.09032662, 0.075309336, 0.057809304, -0.0008017421, 0.034363497, -0.06774728, -0.113215886, 0.017202213, 0.050424162, -0.076692946, -0.020569695, -0.004128015, 0.14138748, 0.08544032, -0.072317146, -0.01566439, 0.025541866, 0.10491681, -0.006843932, -0.07236292, -0.03837357, -0.031342164, 0.06468511, -0.08653028, 0.06538719, -0.016554654, 0.05531597, 0.0697694, 0.104173206, -0.040802803},
			{-0.075660534, -0.065900594, -0.024108386, -0.051237956, -0.008923173, -0.013940945, 0.059036672, 0.05064281, -0.06583927, -0.038823463, -0.002336736, -0.0061149746, 0.057048753, 0.06257142, 0.18142472, -0.018098976, -0.0053165406, -0.07865336, 0.07306044, -0.0051284092, -0.02275977, -0.030273661, 0.023377776, -0.02676778, -0.06990159, 0.03906783, 0.025055885, 0.030591974, 0.004158333, -0.07218534, -0.047748297, -0.026565874},
			{0.06116523, 0.07928835, 0.0015216907, -0.06749178, -0.06931782, 0.06670816, -0.019473871, -0.02372081, 0.009980194, 0.054951742, 0.046904285, 0.00017113239, -0.02957434, 0.05291739, 0.11531805, 0.044340007, -0.03858453, -0.049119733, 0.11393164, 0.06863198, -0.053462833, -0.076714694, 0.016993761, 0.06443896, -0.031096205, -0.07562229, -0.05970242, 0.032124642, -0.07662301, 0.004095815, -0.05697342, -0.0021063555},
			{-0.026260406, -0.0060032606, 0.05235572, 0.05725412, -0.008069033, 0.020606913, 0.09053585, 0.004412011, -0.095037565, 0.010679662, 0.062034857, -0.054135665, -0.0028668072, 0.010362568, 0.13519208, -0.04214737, 0.039884582, 0.011847923, 0.06926097, -0.029989114, 0.00037436932, -0.028689723, -0.028127864, 0.045337997, 0.037221666, -0.070838965, -0.06907231, -0.03543672, -0.04568857, -0.044889007, -0.0599442, -0.021149721},
			{0.032470033, -0.070880316, -0.11495993, 0.008422248, -0.02761764, 0.048713014, -0.009980046, 0.02080205, 0.04315396, -0.07464056, 0.031281, 0.012891762, 0.012214641, -0.0077516553, 0.0433076, 0.14870247, 0.06223622, -0.002843035, 0.05981721, -0.04024993, -2.092868e-05, -0.06702471, 0.049011514, -0.05348293, -0.009454168, -0.004060941, 0.048688576, 0.024670484, -0.015766911, -0.055279847, 0.006254897, 0.004229774},
			{0.079435706, 0.035207853, -0.017977081, 0.035164222, 0.016699854, -0.040282827, -0.0052266265, 0.030347606, 0.07561024, -0.036183316, 0.012534762, -0.045750435, -0.008898948, -0.06372574, 0.043682903, -0.03077202, 0.041561052, 0.023361435, 0.11367352, 0.009048557, 0.050531313, -0.044640128, 0.009153858, 0.0055420934, 0.0665529, 0.0029692696, -0.049172446, -0.054661088, 0.004793249, 0.037174806, 0.08822493, -0.07454101},
			{-0.06495191, -7.990748e-05, 0.006940604, -0.0023065805, 0.0438075, -0.008753054, -0.0708983, -0.07759016, -0.0118269175, 0.036924668, 0.019341802, 0.05482422, -0.07270062, -0.01607742, -0.08310249, -0.018429637, -0.06366739, -0.066359475, 0.06736891, 0.09289863, -0.009077229, 0.018291093, -0.02167986, 0.037442207, 0.020917187, 0.028328361, -0.004835829, -0.06542118, -0.06586728, 0.045977786, 0.12718076, -0.03577359},
			{0.037322164, 0.012852296, -0.055834662, -0.057613306, -0.039906107, 0.070984215, 0.0702954, 0.04619943, 0.032292303, 0.030716516, -0.026334189, 0.02848494, -0.044021267, -0.046978742, 0.045708418, 0.1377176, -0.01780855, 0.05976398, -0.043944612, -0.08701753, -0.033892155, -0.018559694, -0.03537813, -0.036983684, -0.020951519, -0.045703053, -0.018052146, -0.009383806, 0.06700154, -0.043829508, 0.065282635, -0.02827881},
			{0.06575459, -0.058759633, 0.053722657, -0.03431934, 0.0130945565, -0.049498398, -0.009876847, 0.0033720387, 0.08305877, -0.044441488, 0.028634198, -0.0048514605, 0.006762136, 0.006232297, 0.038792036, 0.04897083, 0.056550935, -0.06678101, -0.03014652, 0.039558418, 0.05324085, 0.03179717, 0.038048327, -0.03614793, 0.07007817, -0.10809986, -0.011612691, -0.06447664, 0.05417119, -0.036860965, 0.05435745, 0.06756846},
			{0.04521413, 0.011855431, -0.052759804, -0.05419112, 0.06524805, -0.04375213, -0.0118961735, -0.04225119, 0.03199683, 0.057744265, 0.03454546, 0.050924897, -0.078580305, -0.059146237, 0.022907613, 0.024351323, -0.067060865, 0.010264097, 0.1269696, 0.016005836, -0.037082355, 0.06369184, -0.024739482, -0.052540064, 0.0623334, -0.10918308, 0.014305405, -0.0057424493, 0.04805416, 0.060680747, 0.11842157, -0.083182015},
